{"type":"LSTM","options":{"inputSize":17,"inputRange":17,"hiddenLayers":[20,20],"outputSize":17,"decayRate":0.999,"smoothEps":1e-8,"regc":0.000001,"clipval":5,"maxPredictionLength":100,"dataFormatter":{"values":["string String","int Int","float Float","any Any"],"indexTable":{"s":0,"t":1,"r":2,"i":3,"n":4,"g":5," ":6,"S":7,"I":8,"f":9,"l":10,"o":11,"a":12,"F":13,"y":14,"A":15,"unrecognized":16},"characterTable":{"0":"s","1":"t","2":"r","3":"i","4":"n","5":"g","6":" ","7":"S","8":"I","9":"f","10":"l","11":"o","12":"a","13":"F","14":"y","15":"A","16":null},"characters":["s","t","r","i","n","g"," ","S","I","f","l","o","a","F","y","A","unrecognized"],"specialIndexes":[16]}},"input":{"rows":18,"columns":17,"weights":{"0":-1.1098469495773315,"1":-1.2888553142547607,"2":0.8788140416145325,"3":1.2379859685897827,"4":-0.27065637707710266,"5":0.6777797937393188,"6":0.4673106372356415,"7":-0.1508837640285492,"8":-0.2135588377714157,"9":0.1747373640537262,"10":-1.1507600545883179,"11":0.006795163732022047,"12":-0.19752728939056396,"13":-1.082200288772583,"14":0.14172907173633575,"15":0.19825983047485352,"16":-0.21235504746437073,"17":-0.7461000680923462,"18":-0.3090319335460663,"19":0.9639436602592468,"20":-0.4396214187145233,"21":1.5158944129943848,"22":2.442708969116211,"23":0.644403338432312,"24":-1.1254785060882568,"25":-0.8718334436416626,"26":-1.113377332687378,"27":0.9008086323738098,"28":1.0219066143035889,"29":0.39883869886398315,"30":0.4553453326225281,"31":1.539469599723816,"32":0.6287456750869751,"33":1.2776848077774048,"34":0.7158756852149963,"35":0.6685189008712769,"36":-0.4350581765174866,"37":1.5473666191101074,"38":0.6906552910804749,"39":-0.49615734815597534,"40":-0.6870002746582031,"41":-0.09249825775623322,"42":-0.24129563570022583,"43":-0.33349183201789856,"44":1.0465474128723145,"45":0.343863844871521,"46":0.9862354397773743,"47":0.6355615258216858,"48":0.43356993794441223,"49":0.6063463687896729,"50":1.0435667037963867,"51":0.16504083573818207,"52":0.17971421778202057,"53":1.5180490016937256,"54":2.3255655765533447,"55":-0.7823747992515564,"56":1.5789192914962769,"57":-0.7334181666374207,"58":0.7730502486228943,"59":0.5800690054893494,"60":0.5630097985267639,"61":-1.3850367069244385,"62":-0.5328841209411621,"63":2.137272596359253,"64":-1.4190750122070312,"65":-0.507976770401001,"66":-0.6054792404174805,"67":-0.7228696346282959,"68":-0.3766176998615265,"69":0.3936862051486969,"70":0.706267774105072,"71":-1.5281559228897095,"72":-0.7768118977546692,"73":1.4411741495132446,"74":-0.5574451088905334,"75":0.5145846605300903,"76":0.6223028898239136,"77":0.6352841258049011,"78":-0.666429877281189,"79":-0.5397523045539856,"80":-3.182530164718628,"81":-0.6255393028259277,"82":-1.0511806011199951,"83":-0.1341361552476883,"84":-3.1642231941223145,"85":-1.4657546281814575,"86":-0.0854557603597641,"87":0.282941609621048,"88":0.2621939480304718,"89":-0.12268801033496857,"90":0.15122927725315094,"91":0.20924769341945648,"92":-0.4324380159378052,"93":-0.6869782209396362,"94":-0.6945850253105164,"95":-0.790885865688324,"96":0.6453056931495667,"97":-0.599443256855011,"98":-0.19749687612056732,"99":0.3351321220397949,"100":0.7823179960250854,"101":-0.9506756663322449,"102":1.4804093837738037,"103":1.4670214653015137,"104":0.27153998613357544,"105":1.0078284740447998,"106":-1.2553565502166748,"107":-0.16304180026054382,"108":-1.6481009721755981,"109":1.6612887382507324,"110":1.703395128250122,"111":1.2085576057434082,"112":-0.2515294849872589,"113":-1.648917555809021,"114":1.349612832069397,"115":0.003231778973713517,"116":-1.2740710973739624,"117":-1.9342683553695679,"118":-0.7664993405342102,"119":-0.6607846021652222,"120":-0.8306452035903931,"121":1.8208526372909546,"122":0.5137218236923218,"123":0.12792940437793732,"124":0.15316005051136017,"125":0.5921965837478638,"126":-0.673649787902832,"127":-0.5850340723991394,"128":-1.3392565250396729,"129":-1.008118748664856,"130":0.9701313972473145,"131":-0.5429900288581848,"132":-0.1943437159061432,"133":0.6557555794715881,"134":0.856933057308197,"135":0.3302212953567505,"136":-1.0152822732925415,"137":-2.409867525100708,"138":0.2785603106021881,"139":-2.6314046382904053,"140":-1.4128931760787964,"141":0.1496565341949463,"142":2.4144175052642822,"143":0.9263553023338318,"144":0.9023460149765015,"145":0.6913129091262817,"146":-0.7344858050346375,"147":-1.2307252883911133,"148":-2.800029993057251,"149":-0.7911949157714844,"150":-1.8409439325332642,"151":-0.8501624464988708,"152":-3.7495381832122803,"153":0.4274134039878845,"154":0.7311460375785828,"155":-0.9863787293434143,"156":-1.7238725423812866,"157":-0.5997772216796875,"158":1.459450125694275,"159":-0.2564842700958252,"160":0.2072502225637436,"161":0.5245018005371094,"162":0.993293285369873,"163":-1.2780126333236694,"164":-0.7892035245895386,"165":-2.7871487140655518,"166":-1.0317081212997437,"167":-0.7850289344787598,"168":-0.6226171851158142,"169":-0.6252817511558533,"170":-0.3361234962940216,"171":-0.9088726043701172,"172":-0.12919287383556366,"173":-1.3861773014068604,"174":1.4705138206481934,"175":-1.1978203058242798,"176":1.1170414686203003,"177":-1.0936145782470703,"178":-1.3359001874923706,"179":-1.6361908912658691,"180":1.571845293045044,"181":1.4604110717773438,"182":-0.6056672930717468,"183":1.60995352268219,"184":1.2386566400527954,"185":1.6853859424591064,"186":1.482613444328308,"187":0.06642229110002518,"188":-0.6984583735466003,"189":-0.9108290672302246,"190":-3.1090247631073,"191":1.3989100456237793,"192":-2.048267126083374,"193":0.8846644163131714,"194":-0.9777700304985046,"195":-1.2086553573608398,"196":-1.6432831287384033,"197":1.8327988386154175,"198":1.5217437744140625,"199":0.7732979655265808,"200":1.6150805950164795,"201":1.0603504180908203,"202":1.6872073411941528,"203":1.2087515592575073,"204":-0.4594557583332062,"205":0.0598750077188015,"206":-3.1481008529663086,"207":-2.6112020015716553,"208":0.8195278644561768,"209":-1.436249017715454,"210":0.3691565990447998,"211":-0.4370191693305969,"212":-0.3064807653427124,"213":-0.6380621194839478,"214":1.833409070968628,"215":0.5507521033287048,"216":-4.078750133514404,"217":1.547337532043457,"218":0.2867947518825531,"219":0.49323534965515137,"220":0.5750144124031067,"221":0.31556981801986694,"222":-0.15498456358909607,"223":-0.48339828848838806,"224":0.5368797779083252,"225":-1.2488757371902466,"226":-0.269207239151001,"227":0.1699914038181305,"228":2.1148788928985596,"229":2.3425204753875732,"230":1.059719443321228,"231":0.2223653644323349,"232":-2.163686990737915,"233":-0.4751984477043152,"234":0.21809269487857819,"235":-1.9439085721969604,"236":-3.8486440181732178,"237":-1.0610625743865967,"238":-1.4628573656082153,"239":-0.8149393796920776,"240":0.4756332337856293,"241":-0.44112876057624817,"242":1.2493425607681274,"243":0.09720110893249512,"244":0.8517705798149109,"245":-1.0967873334884644,"246":-1.6032851934432983,"247":-2.0156664848327637,"248":0.6471219062805176,"249":1.9496084451675415,"250":2.0585567951202393,"251":0.8505943417549133,"252":1.5381325483322144,"253":2.1196229457855225,"254":1.327438473701477,"255":1.6831532716751099,"256":1.1610255241394043,"257":-0.4087974429130554,"258":0.16529932618141174,"259":-0.9055689573287964,"260":-0.7339529395103455,"261":-0.21438394486904144,"262":2.229926586151123,"263":2.018341541290283,"264":2.116757392883301,"265":1.020281434059143,"266":-1.8482288122177124,"267":0.6623251438140869,"268":0.841446042060852,"269":0.3941528797149658,"270":-2.753228187561035,"271":-0.44684579968452454,"272":0.30478784441947937,"273":0.33838966488838196,"274":-1.0788989067077637,"275":-0.6545748114585876,"276":-1.0483787059783936,"277":-0.29324090480804443,"278":-0.22932589054107666,"279":-1.5501912832260132,"280":2.2120869159698486,"281":2.718827724456787,"282":0.47059550881385803,"283":-3.180006980895996,"284":-1.9411134719848633,"285":0.5558333992958069,"286":-2.66023325920105,"287":-4.262242317199707,"288":-1.3467347621917725,"289":0.04589487984776497,"290":-0.012150215916335583,"291":0.017544753849506378,"292":0.04628453403711319,"293":-0.06041860580444336,"294":0.0012527654180303216,"295":-0.04067283868789673,"296":0.07344938814640045,"297":-0.03822118788957596,"298":-0.07176750898361206,"299":-0.02179180458188057,"300":-0.023535307496786118,"301":-0.0029411078430712223,"302":-0.0006670922739431262,"303":0.01730163022875786,"304":-0.00591819966211915,"305":0.07097349315881729}},"hiddenLayers":[{"inputMatrix":{"rows":20,"columns":17,"weights":{"0":0.5936124920845032,"1":0.5126035809516907,"2":-0.7158254384994507,"3":-0.9498708248138428,"4":-0.9085569977760315,"5":-0.7028048038482666,"6":-0.4559490382671356,"7":0.5779114961624146,"8":0.7058306932449341,"9":0.5740115642547607,"10":0.35203030705451965,"11":-0.7950949668884277,"12":-1.051266074180603,"13":0.34039464592933655,"14":-0.7344537973403931,"15":-0.6305235028266907,"16":-0.8507095575332642,"17":-0.6921216249465942,"18":0.14849546551704407,"19":0.9917474985122681,"20":1.451690435409546,"21":-0.09409386664628983,"22":1.215010404586792,"23":-0.03847876563668251,"24":-0.22530338168144226,"25":-0.25499317049980164,"26":-0.09614165872335434,"27":-1.4169358015060425,"28":0.14543449878692627,"29":0.32280659675598145,"30":-1.0794343948364258,"31":0.2568689286708832,"32":0.11615929007530212,"33":0.09761379659175873,"34":0.38276907801628113,"35":0.36323055624961853,"36":-0.8717771768569946,"37":-1.090583324432373,"38":-0.8161177635192871,"39":-0.9098089337348938,"40":-0.40571871399879456,"41":0.5854129195213318,"42":0.6809279322624207,"43":0.7594739198684692,"44":0.3188454806804657,"45":-0.8170382976531982,"46":-1.0210775136947632,"47":0.17157329618930817,"48":-0.6140478849411011,"49":-0.6140576601028442,"50":-1.0096908807754517,"51":-0.39821305871009827,"52":-0.6860376596450806,"53":0.30089321732521057,"54":0.7175912857055664,"55":-0.6402830481529236,"56":0.4324789345264435,"57":0.44977691769599915,"58":0.41556674242019653,"59":0.5813942551612854,"60":1.255681037902832,"61":-0.09901813417673111,"62":-1.0407699346542358,"63":0.9215225577354431,"64":-1.0108387470245361,"65":-0.6966821551322937,"66":-1.1139322519302368,"67":-0.5180295705795288,"68":-0.17772053182125092,"69":-0.9224151372909546,"70":0.9445548057556152,"71":-0.3197680413722992,"72":-0.8429741263389587,"73":0.9015772938728333,"74":0.38951626420021057,"75":0.4348400831222534,"76":0.349051833152771,"77":0.4344142973423004,"78":-0.9599452018737793,"79":-0.323110967874527,"80":-0.543790340423584,"81":-1.3578197956085205,"82":-0.181853249669075,"83":-0.15371035039424896,"84":-0.5368222594261169,"85":-0.9603174924850464,"86":-0.9459596276283264,"87":-0.7210315465927124,"88":-0.9176199436187744,"89":-0.14666610956192017,"90":0.07267165184020996,"91":1.0100135803222656,"92":-0.7372065186500549,"93":-0.05307415500283241,"94":0.8600286245346069,"95":-0.329738050699234,"96":-0.4579765498638153,"97":-1.1970319747924805,"98":-0.6284410953521729,"99":-0.5734178423881531,"100":-0.37662890553474426,"101":-0.5139684677124023,"102":-0.18518748879432678,"103":-0.5485323667526245,"104":0.38449883460998535,"105":1.7006202936172485,"106":-1.0795481204986572,"107":0.015864528715610504,"108":-0.15827639400959015,"109":0.13009075820446014,"110":0.2712665796279907,"111":-0.021216243505477905,"112":-0.40703120827674866,"113":-0.2730328440666199,"114":-0.3013099431991577,"115":-0.32421988248825073,"116":-0.496672123670578,"117":-0.18879203498363495,"118":-1.1619340181350708,"119":-0.5329419374465942,"120":-0.5245959162712097,"121":0.9715781807899475,"122":0.6844320297241211,"123":-0.6477773785591125,"124":0.3055213689804077,"125":-0.07825660705566406,"126":0.345749169588089,"127":0.09241083264350891,"128":0.4993673861026764,"129":-0.703866183757782,"130":0.0006712540634907782,"131":0.2572287917137146,"132":-0.7391221523284912,"133":-0.39065513014793396,"134":0.10358326137065887,"135":-0.9610885977745056,"136":-0.18134251236915588,"137":-0.2804815173149109,"138":0.00020150034106336534,"139":0.2866644859313965,"140":-0.7210751175880432,"141":1.2935665845870972,"142":-0.08684980124235153,"143":0.6296718716621399,"144":0.6873694658279419,"145":0.9810928702354431,"146":-0.5347262620925903,"147":-0.9063429236412048,"148":0.16451269388198853,"149":-1.0336519479751587,"150":-0.4747164845466614,"151":-0.8693796992301941,"152":-0.8117692470550537,"153":0.44178611040115356,"154":0.4826740324497223,"155":-0.7285717129707336,"156":-1.1663427352905273,"157":-0.8002345561981201,"158":-0.8388125896453857,"159":-0.479310542345047,"160":0.6033135056495667,"161":0.7170125246047974,"162":0.6751195788383484,"163":0.4054350256919861,"164":-0.8827812671661377,"165":-1.191100835800171,"166":0.23024867475032806,"167":-0.7764626145362854,"168":-0.7924947142601013,"169":-1.0427452325820923,"170":-0.4609403908252716,"171":0.8891282677650452,"172":1.3640238046646118,"173":-0.6352831125259399,"174":0.09755083173513412,"175":0.7713748812675476,"176":-0.7134954929351807,"177":-0.23011872172355652,"178":-0.7154850959777832,"179":-0.31009674072265625,"180":-1.2271565198898315,"181":0.8568697571754456,"182":-0.12730459868907928,"183":-0.9108624458312988,"184":0.9100053906440735,"185":1.1020643711090088,"186":-0.6291210651397705,"187":0.07668877393007278,"188":0.11243204772472382,"189":-0.11042306572198868,"190":-0.47329679131507874,"191":-0.7398114800453186,"192":0.052064601331949234,"193":-0.0979522243142128,"194":0.44136807322502136,"195":0.5481902360916138,"196":0.9340053796768188,"197":-0.316805362701416,"198":-0.7314772605895996,"199":-0.23346388339996338,"200":-0.47207149863243103,"201":-0.6553476452827454,"202":-0.711753249168396,"203":-0.9068981409072876,"204":-0.8989666104316711,"205":-1.2282735109329224,"206":-0.5844590663909912,"207":-0.9922747611999512,"208":-0.02783302590250969,"209":0.024162843823432922,"210":1.0506247282028198,"211":-0.40071186423301697,"212":0.2428014725446701,"213":0.625632107257843,"214":-0.16879943013191223,"215":-0.4021965265274048,"216":-1.371186375617981,"217":-0.514112114906311,"218":-0.7790827751159668,"219":-0.3447078466415405,"220":-0.3117760419845581,"221":0.3737058639526367,"222":0.431926965713501,"223":-0.6968657374382019,"224":-1.052330493927002,"225":-0.7960028052330017,"226":-0.7826855778694153,"227":-0.3395389914512634,"228":0.41429412364959717,"229":0.8195779323577881,"230":0.6718717813491821,"231":0.3885091245174408,"232":-0.8569314479827881,"233":-1.1542330980300903,"234":0.282701313495636,"235":-0.5758213996887207,"236":-0.7431532740592957,"237":-1.035827398300171,"238":0.017107801511883736,"239":-0.8102307319641113,"240":0.8060181736946106,"241":0.11232979595661163,"242":0.2657307982444763,"243":-0.1658407300710678,"244":1.0164453983306885,"245":-0.7654581665992737,"246":-0.8877890110015869,"247":-0.8368057012557983,"248":-0.35736677050590515,"249":1.1015177965164185,"250":0.4972109794616699,"251":-0.6084441542625427,"252":1.0790975093841553,"253":0.7213689088821411,"254":0.40115460753440857,"255":-1.1442101001739502,"256":-1.2055978775024414,"257":-0.1776621788740158,"258":-0.5420042872428894,"259":-0.042687319219112396,"260":-0.0745878666639328,"261":1.2247846126556396,"262":-0.3654611110687256,"263":0.16022007167339325,"264":0.7840479612350464,"265":-0.23031878471374512,"266":-0.38910195231437683,"267":-0.8440909385681152,"268":-0.455226868391037,"269":-0.34029725193977356,"270":-0.20454055070877075,"271":-0.5233935117721558,"272":-0.5088220834732056,"273":-0.6155450344085693,"274":-1.101155161857605,"275":-1.3114067316055298,"276":-0.2865601181983948,"277":-0.48349833488464355,"278":0.7437559962272644,"279":-0.27102723717689514,"280":0.25600844621658325,"281":-0.4527239203453064,"282":-0.06832834333181381,"283":-0.5167494416236877,"284":-1.5827972888946533,"285":0.07729840278625488,"286":-1.3632208108901978,"287":-0.2792716324329376,"288":-0.7150830626487732,"289":0.262194961309433,"290":-0.6860747933387756,"291":1.3856137990951538,"292":-0.0353611521422863,"293":-1.0437642335891724,"294":0.3352477252483368,"295":0.4864538311958313,"296":0.46230605244636536,"297":0.5731330513954163,"298":0.33425676822662354,"299":-1.3048865795135498,"300":-0.3647894859313965,"301":-1.0121337175369263,"302":-1.4133093357086182,"303":-0.28062957525253296,"304":-0.34042590856552124,"305":-0.5618459582328796,"306":-1.0861834287643433,"307":-0.06442410498857498,"308":0.4623282551765442,"309":-1.2547225952148438,"310":-0.032542090862989426,"311":-0.28556105494499207,"312":0.2566114366054535,"313":-0.6281055212020874,"314":-0.8367730975151062,"315":-0.8865529894828796,"316":-0.8682803511619568,"317":1.059020757675171,"318":-1.331320881843567,"319":-0.35085493326187134,"320":0.77362459897995,"321":0.9874395728111267,"322":-1.143783688545227,"323":-0.9256531000137329,"324":-1.1465650796890259,"325":-0.4117273986339569,"326":-0.8328281044960022,"327":-0.1939001828432083,"328":0.07480701804161072,"329":0.9765475392341614,"330":-0.4561847448348999,"331":0.149988055229187,"332":0.5343817472457886,"333":-0.392282098531723,"334":-0.39617443084716797,"335":-1.338152527809143,"336":-0.5538429617881775,"337":-0.6143411993980408,"338":-0.4556925594806671,"339":-0.47809290885925293}},"inputHidden":{"rows":20,"columns":20,"weights":{"0":-0.08786541223526001,"1":0.11342179030179977,"2":-0.23100294172763824,"3":-0.22057180106639862,"4":0.00772141944617033,"5":-0.10674677789211273,"6":-0.0431881919503212,"7":-0.12836405634880066,"8":-0.14058829843997955,"9":-0.16299286484718323,"10":-0.3480055034160614,"11":-0.14785513281822205,"12":-0.048355136066675186,"13":-0.11044032126665115,"14":-0.00761760538443923,"15":0.0835382491350174,"16":-0.2373279333114624,"17":0.2304166555404663,"18":-0.2717593014240265,"19":-0.13930390775203705,"20":0.9102773666381836,"21":0.3950377106666565,"22":0.8576891422271729,"23":0.6109952926635742,"24":-1.1675732135772705,"25":1.1360056400299072,"26":0.9827415347099304,"27":1.3134794235229492,"28":-0.8339822292327881,"29":0.8852264881134033,"30":0.1741110235452652,"31":0.935364305973053,"32":0.28429538011550903,"33":0.9072115421295166,"34":0.4196912944316864,"35":-0.3042695224285126,"36":0.1209193542599678,"37":-0.9610663056373596,"38":0.29260361194610596,"39":-1.0285258293151855,"40":-0.22680842876434326,"41":0.0852607786655426,"42":-0.1754082888364792,"43":-0.1380336880683899,"44":0.09488021582365036,"45":-0.13477922976016998,"46":-0.1837909072637558,"47":-0.18418624997138977,"48":-0.09872709214687347,"49":-0.24609337747097015,"50":-0.2606864273548126,"51":-0.11025284975767136,"52":0.029992880299687386,"53":-0.17037037014961243,"54":-0.1817966252565384,"55":0.015490822494029999,"56":-0.09983187168836594,"57":0.189142644405365,"58":-0.22013774514198303,"59":-0.14520205557346344,"60":-1.3948991298675537,"61":-0.5288002490997314,"62":-1.3931418657302856,"63":-0.07280845940113068,"64":1.263820767402649,"65":-1.0085351467132568,"66":-1.0776087045669556,"67":-1.2045232057571411,"68":0.463294118642807,"69":-1.3987468481063843,"70":-0.997728168964386,"71":-1.4578694105148315,"72":-0.6554980874061584,"73":-1.4988728761672974,"74":-0.8073020577430725,"75":0.03851177543401718,"76":-0.2861791253089905,"77":1.2446329593658447,"78":-0.6085912585258484,"79":0.7117299437522888,"80":-0.18898868560791016,"81":1.6705397367477417,"82":-0.17411480844020844,"83":0.5155348181724548,"84":-0.9409697651863098,"85":-0.4041881263256073,"86":0.35858479142189026,"87":0.9449894428253174,"88":-0.17287808656692505,"89":-0.1275273561477661,"90":0.04551826789975166,"91":-0.1982528120279312,"92":-0.3916868269443512,"93":-0.2072070986032486,"94":0.5545752048492432,"95":1.0185452699661255,"96":-0.3770572245121002,"97":-0.2053372710943222,"98":0.9594417810440063,"99":0.5123279690742493,"100":-0.025304963812232018,"101":-0.07344195246696472,"102":-0.01124726701527834,"103":-0.428496390581131,"104":0.5661284327507019,"105":-0.15250685811042786,"106":-0.7985582947731018,"107":-1.120921015739441,"108":-0.24452820420265198,"109":-0.18142278492450714,"110":-0.408183753490448,"111":-0.018903326243162155,"112":0.3634907603263855,"113":-0.13398213684558868,"114":-1.2751213312149048,"115":-0.013629247434437275,"116":0.8310723900794983,"117":0.3308783769607544,"118":-0.6857853531837463,"119":0.26469096541404724,"120":0.16224829852581024,"121":0.6269707679748535,"122":0.3066055476665497,"123":0.844416618347168,"124":1.1802345514297485,"125":1.267641544342041,"126":-0.4224131107330322,"127":-0.1796623021364212,"128":-0.7619996070861816,"129":0.04608788341283798,"130":-0.37602102756500244,"131":0.520217776298523,"132":1.1491682529449463,"133":0.08719156682491302,"134":0.6945594549179077,"135":-0.4732665419578552,"136":0.9246492385864258,"137":2.0901503562927246,"138":0.5210267901420593,"139":-0.9960443377494812,"140":0.6720311045646667,"141":0.8401148915290833,"142":0.9519948959350586,"143":-0.16713646054267883,"144":0.8856382369995117,"145":0.6143878102302551,"146":-1.0170273780822754,"147":-0.41824331879615784,"148":-0.0913941040635109,"149":0.4940800368785858,"150":0.247899129986763,"151":1.1759898662567139,"152":0.9445248246192932,"153":0.6395407319068909,"154":0.5964738726615906,"155":-0.5121277570724487,"156":0.15477238595485687,"157":1.7303444147109985,"158":0.44288286566734314,"159":-0.39372289180755615,"160":-0.5200257301330566,"161":-0.18072162568569183,"162":-0.5221733450889587,"163":-0.3106009364128113,"164":0.42575711011886597,"165":-0.45259758830070496,"166":-0.4088396728038788,"167":-0.5049642324447632,"168":0.2295091152191162,"169":-0.5091949701309204,"170":-0.40719664096832275,"171":-0.3853108286857605,"172":-0.2825945019721985,"173":-0.5316861867904663,"174":-0.20186975598335266,"175":-0.08842533081769943,"176":-0.2272959053516388,"177":0.47687581181526184,"178":-0.22430850565433502,"179":0.10192424803972244,"180":-0.07539816200733185,"181":0.05231424421072006,"182":-0.09886903315782547,"183":-0.08531128615140915,"184":0.1859005093574524,"185":-0.04803628847002983,"186":-0.10179681330919266,"187":-0.05608482286334038,"188":-0.1332319974899292,"189":-0.22598344087600708,"190":-0.35430434346199036,"191":-0.1667441874742508,"192":0.0489787831902504,"193":-0.07763925194740295,"194":-0.09013935923576355,"195":0.030880434438586235,"196":-0.2702955901622772,"197":0.24125823378562927,"198":-0.20260576903820038,"199":-0.08431343734264374,"200":0.34461796283721924,"201":0.9992499351501465,"202":0.2611852288246155,"203":0.5835172533988953,"204":-0.8379133939743042,"205":0.23544518649578094,"206":1.4261574745178223,"207":1.1789207458496094,"208":-0.9320706129074097,"209":0.23421400785446167,"210":1.7861727476119995,"211":0.2997220754623413,"212":0.3014225661754608,"213":0.26747485995292664,"214":0.9951675534248352,"215":0.1478552371263504,"216":-0.5987344980239868,"217":-0.4684188961982727,"218":0.7636909484863281,"219":-0.48642367124557495,"220":-0.17519226670265198,"221":-0.042976029217243195,"222":-0.183200404047966,"223":-0.1448722779750824,"224":0.34205594658851624,"225":-0.14432939887046814,"226":-0.24472779035568237,"227":-0.3697168529033661,"228":0.07696764171123505,"229":-0.16598284244537354,"230":-0.2395971566438675,"231":-0.1864127367734909,"232":-0.062486182898283005,"233":-0.17484375834465027,"234":-0.8668645024299622,"235":-0.10929271578788757,"236":-0.007988731376826763,"237":0.20518213510513306,"238":-0.461510568857193,"239":0.21604591608047485,"240":-0.8308863639831543,"241":-0.19085031747817993,"242":-0.367872953414917,"243":0.30088281631469727,"244":0.6045048832893372,"245":-0.2841333746910095,"246":-0.45370155572891235,"247":-0.5147760510444641,"248":0.15917839109897614,"249":-0.6944583058357239,"250":-0.39209169149398804,"251":-0.3622756004333496,"252":-0.2685350477695465,"253":-0.712171196937561,"254":-0.8398674726486206,"255":-0.010505218990147114,"256":1.014121651649475,"257":0.3370666801929474,"258":-0.5154791474342346,"259":0.4925124943256378,"260":-0.1315290778875351,"261":-0.0352809801697731,"262":-0.1612447202205658,"263":-0.16671457886695862,"264":0.0930776596069336,"265":-0.11251969635486603,"266":-0.1615780144929886,"267":-0.07952246069908142,"268":0.0647813007235527,"269":-0.15193288028240204,"270":-0.396350622177124,"271":-0.11207496374845505,"272":-0.08230877667665482,"273":-0.13226228952407837,"274":-0.11946754157543182,"275":0.08074945956468582,"276":-0.15305331349372864,"277":0.1719808131456375,"278":-0.2889863848686218,"279":-0.10259032994508743,"280":0.4961276352405548,"281":-0.6943329572677612,"282":0.5685158967971802,"283":-0.17748945951461792,"284":0.42365580797195435,"285":0.472940593957901,"286":-0.2715258002281189,"287":-0.11169742792844772,"288":0.1706313192844391,"289":0.4979786276817322,"290":0.13678200542926788,"291":0.19487003982067108,"292":0.42205488681793213,"293":0.40002676844596863,"294":-1.0896481275558472,"295":0.23413008451461792,"296":1.290218472480774,"297":0.7358201742172241,"298":-1.1189125776290894,"299":-0.6456490159034729,"300":-1.9336347579956055,"301":-0.3934326171875,"302":-1.1917585134506226,"303":0.18760471045970917,"304":0.9223279356956482,"305":-0.3690873682498932,"306":-1.0832234621047974,"307":-1.45565664768219,"308":-0.12506791949272156,"309":-1.7571240663528442,"310":-0.4831477701663971,"311":-0.9360967874526978,"312":-0.388836145401001,"313":-1.7195861339569092,"314":-1.261605978012085,"315":0.23056182265281677,"316":0.2232084423303604,"317":0.7423514723777771,"318":-0.8177636861801147,"319":-0.1395977884531021,"320":0.16501088440418243,"321":0.13076914846897125,"322":0.535280168056488,"323":1.3835259675979614,"324":0.19106504321098328,"325":0.9306575059890747,"326":0.06307172030210495,"327":-0.028314072638750076,"328":-0.781237006187439,"329":-0.02350933477282524,"330":-0.33659055829048157,"331":0.7029057741165161,"332":0.6124829053878784,"333":0.05566655471920967,"334":-0.0861949771642685,"335":0.0014911561738699675,"336":0.9715415239334106,"337":-0.028227152302861214,"338":-0.08063478767871857,"339":-0.3553982675075531,"340":-0.5220803022384644,"341":-0.06207384169101715,"342":-0.6442853212356567,"343":1.2645779848098755,"344":-0.6224170923233032,"345":-0.4048996567726135,"346":1.0453513860702515,"347":1.099872350692749,"348":0.09635245054960251,"349":-0.5483952760696411,"350":0.8409199714660645,"351":-0.7176342606544495,"352":-1.1850751638412476,"353":-0.6256425976753235,"354":-0.2769797146320343,"355":0.7849721908569336,"356":-0.897598385810852,"357":-0.2925860285758972,"358":0.07922134548425674,"359":0.38174229860305786,"360":-0.15439225733280182,"361":0.328607976436615,"362":-0.06459560245275497,"363":0.5693297386169434,"364":0.03853022679686546,"365":-0.06625096499919891,"366":-0.1449720859527588,"367":-0.1258343905210495,"368":-0.15166084468364716,"369":-0.09804563224315643,"370":0.7179550528526306,"371":-0.14281727373600006,"372":-0.2818312346935272,"373":-0.1333642601966858,"374":-0.026213135570287704,"375":0.5771927833557129,"376":0.09879311174154282,"377":0.3549354374408722,"378":-0.03534260019659996,"379":0.18393993377685547,"380":0.3195510804653168,"381":-0.2946690320968628,"382":0.48943009972572327,"383":-0.705757200717926,"384":0.5540168881416321,"385":-0.24087339639663696,"386":-0.4754595458507538,"387":-0.7083234190940857,"388":0.8731006979942322,"389":0.32487449049949646,"390":-0.6902304887771606,"391":0.3559870421886444,"392":-0.15075427293777466,"393":0.29207050800323486,"394":-0.8275552988052368,"395":-0.5065212249755859,"396":0.206322580575943,"397":0.3628321588039398,"398":-0.40251460671424866,"399":0.15643192827701569}},"inputBias":{"rows":20,"columns":1,"weights":{"0":-0.5245627760887146,"1":0.13129886984825134,"2":-0.2522953748703003,"3":0.7262758612632751,"4":0.2740643322467804,"5":0.34171539545059204,"6":0.6449289321899414,"7":0.49053117632865906,"8":0.7457315921783447,"9":-0.202744722366333,"10":0.07946207374334335,"11":-0.29537510871887207,"12":0.09683119505643845,"13":-0.1617366224527359,"14":0.07518775761127472,"15":0.5870977640151978,"16":-0.6211424469947815,"17":0.2855913043022156,"18":0.11647580564022064,"19":0.16632264852523804}},"forgetMatrix":{"rows":20,"columns":17,"weights":{"0":0.15621311962604523,"1":0.03809426724910736,"2":0.1512066125869751,"3":0.46066370606422424,"4":-0.4882868826389313,"5":0.34110426902770996,"6":-0.1408815085887909,"7":0.36738356947898865,"8":0.38672545552253723,"9":0.521099328994751,"10":-0.08398991823196411,"11":-0.5218510031700134,"12":-0.3611070513725281,"13":-0.2708114683628082,"14":-0.2824784219264984,"15":-0.3733513653278351,"16":-0.680087685585022,"17":-0.1407439410686493,"18":0.014295563101768494,"19":0.3841300308704376,"20":1.0502185821533203,"21":-0.5659837126731873,"22":0.6858172416687012,"23":-0.323758065700531,"24":0.15644799172878265,"25":0.291364461183548,"26":0.016852205619215965,"27":-0.6292831897735596,"28":-0.3056097626686096,"29":0.1962510049343109,"30":-0.42086467146873474,"31":-0.17733153700828552,"32":-0.17189966142177582,"33":-0.2977953255176544,"34":-0.14289653301239014,"35":-0.2269451767206192,"36":0.24800223112106323,"37":0.4992734491825104,"38":-0.5393532514572144,"39":0.5389087796211243,"40":0.042143624275922775,"41":0.17300081253051758,"42":0.3481699228286743,"43":0.326066255569458,"44":-0.3851529359817505,"45":-0.4826281666755676,"46":-0.5618414282798767,"47":-0.5213440656661987,"48":-0.383817195892334,"49":-0.3004398047924042,"50":-0.7769027948379517,"51":-0.7376617789268494,"52":-0.6262474656105042,"53":-0.11464732885360718,"54":-0.3609998822212219,"55":0.09583356976509094,"56":-0.23209477961063385,"57":0.9815701246261597,"58":-0.8396242260932922,"59":-0.9243425726890564,"60":-0.4544355869293213,"61":-0.35308992862701416,"62":0.6649135947227478,"63":-0.33035042881965637,"64":0.03502866253256798,"65":0.672643780708313,"66":0.6531125903129578,"67":-0.30625298619270325,"68":-0.22162103652954102,"69":0.33915606141090393,"70":0.2384587526321411,"71":0.5212742686271667,"72":-0.07843967527151108,"73":-0.11779699474573135,"74":-0.7135990262031555,"75":-0.03288506343960762,"76":0.039799220860004425,"77":-0.44250255823135376,"78":-0.042884718626737595,"79":0.10234872251749039,"80":-0.016039425507187843,"81":-0.2140331268310547,"82":-0.1716621220111847,"83":0.253187894821167,"84":0.1442362368106842,"85":0.2361656278371811,"86":-0.42495593428611755,"87":-0.021733378991484642,"88":0.6128630042076111,"89":-0.3979237675666809,"90":0.4781638979911804,"91":0.159615159034729,"92":0.7726184725761414,"93":0.807671308517456,"94":0.5483298897743225,"95":-0.12343291193246841,"96":-0.7941120266914368,"97":-0.1206480860710144,"98":-0.3594725728034973,"99":-0.7652040719985962,"100":-0.635215699672699,"101":-0.29919004440307617,"102":-0.614557683467865,"103":-0.4834217429161072,"104":-0.1952611804008484,"105":-1.4238842725753784,"106":-0.6044939160346985,"107":0.06389942020177841,"108":-0.12249094992876053,"109":-0.18127427995204926,"110":0.11767405271530151,"111":0.16598661243915558,"112":-0.589972198009491,"113":-0.08001493662595749,"114":-1.8833823204040527,"115":-0.7404422163963318,"116":-0.7364478707313538,"117":0.2599738538265228,"118":-1.0121268033981323,"119":-0.29680120944976807,"120":-0.029023559764027596,"121":-0.016748931258916855,"122":-0.7702981233596802,"123":-0.1705857217311859,"124":-0.38488951325416565,"125":0.040620870888233185,"126":-0.006746989209204912,"127":-0.004574183840304613,"128":-0.22076597809791565,"129":-0.046478115022182465,"130":-0.12929527461528778,"131":-0.7641087770462036,"132":0.11208963394165039,"133":-0.7467343807220459,"134":0.23098281025886536,"135":-0.7088033556938171,"136":-0.34191328287124634,"137":-0.21538837254047394,"138":0.03900112956762314,"139":0.18830308318138123,"140":-0.638806164264679,"141":0.45232093334198,"142":0.11752213537693024,"143":0.12500891089439392,"144":0.5006150603294373,"145":0.29621264338493347,"146":-0.38945916295051575,"147":-0.42035627365112305,"148":-0.6350619792938232,"149":-0.30074453353881836,"150":-0.5126396417617798,"151":-0.3449813723564148,"152":-0.7373654842376709,"153":0.003683988470584154,"154":-0.014347937889397144,"155":0.14696235954761505,"156":0.33571603894233704,"157":-0.5190366506576538,"158":0.459003746509552,"159":-0.10778874903917313,"160":0.20966382324695587,"161":0.3552111089229584,"162":0.3590525984764099,"163":-0.4216654300689697,"164":-0.4112909436225891,"165":-0.5368188619613647,"166":-0.4890071153640747,"167":-0.3871033489704132,"168":-0.1924639493227005,"169":-0.6966438889503479,"170":-0.33340272307395935,"171":-0.4049935042858124,"172":0.1939401626586914,"173":0.14242324233055115,"174":0.9885549545288086,"175":-0.9097655415534973,"176":0.5513457655906677,"177":-0.8295072317123413,"178":-0.9692248106002808,"179":-1.1766999959945679,"180":0.5659892559051514,"181":1.2408742904663086,"182":0.48694148659706116,"183":0.6188252568244934,"184":0.8760850429534912,"185":0.9745349884033203,"186":1.3850961923599243,"187":-0.0004739098367281258,"188":-0.2920480966567993,"189":-0.05727144330739975,"190":0.48974961042404175,"191":-0.6103544235229492,"192":0.4733049273490906,"193":-0.09792861342430115,"194":0.5377992987632751,"195":0.7549751400947571,"196":0.4008466601371765,"197":-0.4075063169002533,"198":-0.5992564558982849,"199":-0.38466888666152954,"200":-0.5297585725784302,"201":-0.4809490144252777,"202":-0.3713863492012024,"203":-0.6780564188957214,"204":-0.13270065188407898,"205":-0.13059088587760925,"206":0.20529812574386597,"207":0.28988751769065857,"208":-0.5098466277122498,"209":0.4146970808506012,"210":0.12094302475452423,"211":0.03432724252343178,"212":0.5181862711906433,"213":0.4628673493862152,"214":-0.2807309031486511,"215":-0.7216556668281555,"216":-0.7479064464569092,"217":-0.3333633840084076,"218":-0.527701735496521,"219":-0.6618165969848633,"220":-0.6770017743110657,"221":-0.04533407837152481,"222":-0.08293543756008148,"223":0.21747511625289917,"224":0.3040892779827118,"225":-0.5060679912567139,"226":0.4030931293964386,"227":-0.10805697739124298,"228":0.14345866441726685,"229":0.4175002872943878,"230":0.47689905762672424,"231":-0.34144482016563416,"232":-0.48712295293807983,"233":-0.6312364935874939,"234":-0.4102117121219635,"235":-0.31987693905830383,"236":-0.4123239517211914,"237":-0.7704164385795593,"238":0.14235229790210724,"239":-0.08056680858135223,"240":1.3622390031814575,"241":-0.7678842544555664,"242":0.13381759822368622,"243":-0.24456483125686646,"244":-0.2124515026807785,"245":-0.13606470823287964,"246":-0.23640373349189758,"247":-0.8083634972572327,"248":-0.2819423973560333,"249":0.38180747628211975,"250":1.3351569175720215,"251":-0.032833635807037354,"252":-0.006112450733780861,"253":0.5877447724342346,"254":0.2012259066104889,"255":-0.45577919483184814,"256":0.27301591634750366,"257":-0.2521805465221405,"258":0.5801206827163696,"259":0.17092645168304443,"260":-0.18564708530902863,"261":-0.10218401998281479,"262":-0.6692390441894531,"263":-0.6504634022712708,"264":-0.04681580886244774,"265":-0.5479083061218262,"266":0.7320513725280762,"267":0.012963201850652695,"268":-0.29926151037216187,"269":0.7018665671348572,"270":0.532069742679596,"271":0.1042541116476059,"272":0.3619510531425476,"273":-0.04880410432815552,"274":0.6699302196502686,"275":-0.2694755494594574,"276":-0.7840268611907959,"277":0.17961770296096802,"278":-0.2829044759273529,"279":0.7409546971321106,"280":1.2653934955596924,"281":1.0140169858932495,"282":-0.11912599951028824,"283":-1.3188637495040894,"284":-0.4375942349433899,"285":-0.37201806902885437,"286":-1.208763837814331,"287":-0.8923306465148926,"288":-0.8915630578994751,"289":-0.25837838649749756,"290":0.15701007843017578,"291":0.30313199758529663,"292":0.41391852498054504,"293":-0.02710900641977787,"294":-0.038688842207193375,"295":-0.7071752548217773,"296":0.0007443668437190354,"297":0.14798599481582642,"298":-0.4906153380870819,"299":-0.2631946802139282,"300":0.1874527633190155,"301":-0.03296831622719765,"302":-0.4470476806163788,"303":-0.23516930639743805,"304":0.24700263142585754,"305":0.1254892647266388,"306":0.18068931996822357,"307":-0.0712643638253212,"308":0.8539842367172241,"309":-0.008818374946713448,"310":0.35017284750938416,"311":-0.017485078424215317,"312":-0.14723855257034302,"313":-0.3334963023662567,"314":-0.4412634074687958,"315":-1.0303233861923218,"316":0.045369841158390045,"317":0.6581030488014221,"318":0.9955846667289734,"319":0.13157157599925995,"320":0.0587780699133873,"321":0.6960058212280273,"322":0.5486841797828674,"323":0.2044694572687149,"324":-0.6277288198471069,"325":1.6051031351089478,"326":1.2922067642211914,"327":-0.574255108833313,"328":0.5493571758270264,"329":0.36411115527153015,"330":0.40906697511672974,"331":1.020871877670288,"332":0.2889789342880249,"333":-0.5446909666061401,"334":-0.4227914810180664,"335":-0.6652717590332031,"336":-0.5238679051399231,"337":-0.6946970224380493,"338":-0.4257270395755768,"339":-0.1356080025434494}},"forgetHidden":{"rows":20,"columns":20,"weights":{"0":-0.16186361014842987,"1":0.0852353498339653,"2":-0.12902714312076569,"3":-0.113475002348423,"4":-0.10834092646837234,"5":-0.05502333492040634,"6":0.24939416348934174,"7":0.22159849107265472,"8":0.2523464858531952,"9":-0.06677968800067902,"10":0.10756324231624603,"11":-0.08735852688550949,"12":-0.17439627647399902,"13":-0.17700256407260895,"14":0.24980346858501434,"15":-0.4919862151145935,"16":-0.6376602649688721,"17":-0.059787627309560776,"18":0.20192933082580566,"19":0.2432347685098648,"20":-0.3904545307159424,"21":0.7491686940193176,"22":-0.44820117950439453,"23":1.7595375776290894,"24":-1.2373331785202026,"25":0.8065531849861145,"26":1.6397308111190796,"27":1.9174449443817139,"28":-1.021523118019104,"29":-0.41378453373908997,"30":0.8515315651893616,"31":-0.09479563683271408,"32":0.8921483159065247,"33":-0.3587413430213928,"34":1.0853979587554932,"35":0.6024364829063416,"36":0.18998323380947113,"37":-1.0199826955795288,"38":0.7357683181762695,"39":-0.6641220450401306,"40":-0.037967249751091,"41":-0.12543532252311707,"42":-0.09561619907617569,"43":-0.11799199879169464,"44":0.1472615748643875,"45":-0.07064410299062729,"46":0.03249749913811684,"47":-0.04554613307118416,"48":0.3866821825504303,"49":-0.11142808943986893,"50":0.017561208456754684,"51":-0.08957109600305557,"52":-0.16099540889263153,"53":-0.12339649349451065,"54":-0.009301097132265568,"55":-0.27163949608802795,"56":-0.5312272906303406,"57":0.013617260381579399,"58":-0.04076126962900162,"59":0.1749648153781891,"60":0.6889142990112305,"61":-0.2667868435382843,"62":0.8026431798934937,"63":-1.3339588642120361,"64":-0.6856540441513062,"65":0.6867141723632812,"66":0.33347147703170776,"67":0.51805180311203,"68":-0.19932465255260468,"69":0.712669312953949,"70":0.6843145489692688,"71":0.12216543406248093,"72":0.8966454267501831,"73":0.7255208492279053,"74":1.012568473815918,"75":-0.6062058210372925,"76":0.48626720905303955,"77":-0.8408451080322266,"78":0.558158278465271,"79":-0.6843557357788086,"80":0.5113527178764343,"81":0.14225514233112335,"82":0.5679960250854492,"83":-0.023309966549277306,"84":1.0441964864730835,"85":0.24437738955020905,"86":-0.6855875849723816,"87":-0.814544677734375,"88":-0.4759274423122406,"89":0.5642910599708557,"90":-1.1261296272277832,"91":0.7747318148612976,"92":0.24411989748477936,"93":0.5768876671791077,"94":-0.770990788936615,"95":-0.3565361797809601,"96":0.4447341859340668,"97":0.9446669816970825,"98":-0.9249334335327148,"99":-0.24364599585533142,"100":-0.5732747912406921,"101":-0.13293235003948212,"102":-0.6434922218322754,"103":0.058976102620363235,"104":-0.4306199550628662,"105":-0.5183420181274414,"106":0.4938153326511383,"107":0.590522825717926,"108":0.10180775076150894,"109":-0.6463841199874878,"110":0.12425217032432556,"111":-0.5489744544029236,"112":-0.6349257230758667,"113":-0.5900166034698486,"114":0.1248154565691948,"115":0.13683420419692993,"116":-0.1973610669374466,"117":-0.3836353123188019,"118":0.45926979184150696,"119":0.601314902305603,"120":0.9488824605941772,"121":-0.18254506587982178,"122":0.8672832250595093,"123":0.27418065071105957,"124":-0.05669713765382767,"125":0.21887007355690002,"126":-1.135511040687561,"127":-0.9784903526306152,"128":-0.603651762008667,"129":0.8031683564186096,"130":-0.7384706735610962,"131":0.9542321562767029,"132":0.2643984258174896,"133":0.8882309198379517,"134":-0.7131020426750183,"135":0.40574368834495544,"136":0.09989412128925323,"137":0.03763372078537941,"138":-0.1774536520242691,"139":-0.14171285927295685,"140":0.9678650498390198,"141":-0.0005435280036181211,"142":0.9690840840339661,"143":0.037669289857149124,"144":0.645687997341156,"145":0.9758442044258118,"146":-1.5359809398651123,"147":-1.5947495698928833,"148":-0.03969550132751465,"149":1.0123804807662964,"150":-0.8527302145957947,"151":1.0996034145355225,"152":0.907078742980957,"153":0.9633461833000183,"154":-1.217400312423706,"155":-0.04542398080229759,"156":0.23052658140659332,"157":0.3912205696105957,"158":-0.5151387453079224,"159":-0.7642005681991577,"160":-0.2849511504173279,"161":-0.07824282348155975,"162":-0.4067678451538086,"163":-0.6177478432655334,"164":-0.08951611816883087,"165":-0.3907087743282318,"166":-0.1905747354030609,"167":-0.15929116308689117,"168":0.49417540431022644,"169":-0.27356594800949097,"170":0.22890913486480713,"171":-0.33897942304611206,"172":-0.44289007782936096,"173":-0.35616427659988403,"174":0.19963055849075317,"175":-0.249976247549057,"176":-0.6849824786186218,"177":-0.12301207333803177,"178":-0.010121682658791542,"179":0.7264206409454346,"180":-0.15557925403118134,"181":-0.016243398189544678,"182":-0.1068362146615982,"183":-0.09819101542234421,"184":-0.07360386848449707,"185":-0.07885856926441193,"186":0.08630044758319855,"187":0.18937191367149353,"188":0.37432169914245605,"189":-0.04026014357805252,"190":0.10808829963207245,"191":-0.16815651953220367,"192":-0.25757426023483276,"193":-0.08619619905948639,"194":0.08014832437038422,"195":-0.3728119432926178,"196":-0.5688666701316833,"197":-0.05941060557961464,"198":0.03773822262883186,"199":0.2182464748620987,"200":0.5390658378601074,"201":0.3272961974143982,"202":0.539278507232666,"203":0.23902088403701782,"204":-0.2107674479484558,"205":0.39680421352386475,"206":0.16949817538261414,"207":0.2368890792131424,"208":-0.44870418310165405,"209":0.513322651386261,"210":0.18493634462356567,"211":0.6155538558959961,"212":0.5201410055160522,"213":0.5642021298408508,"214":-0.02061939425766468,"215":0.14735932648181915,"216":0.4272107183933258,"217":-0.09341487288475037,"218":-0.026985758915543556,"219":-0.49838727712631226,"220":-0.359926700592041,"221":-0.11941191554069519,"222":-0.31546881794929504,"223":-0.1195550188422203,"224":0.07787162065505981,"225":-0.3046957850456238,"226":0.033455971628427505,"227":0.14703747630119324,"228":0.2590559124946594,"229":-0.23442769050598145,"230":-0.03456433489918709,"231":-0.28934624791145325,"232":-0.3544464111328125,"233":-0.30662116408348083,"234":0.07832849025726318,"235":-0.18079829216003418,"236":-0.43614131212234497,"237":0.02849685400724411,"238":0.02736799791455269,"239":0.28594666719436646,"240":-0.4948217272758484,"241":-0.16668158769607544,"242":-0.4645603895187378,"243":-0.15782219171524048,"244":-0.062182169407606125,"245":-0.447989821434021,"246":0.011928336694836617,"247":0.15556782484054565,"248":0.24108143150806427,"249":-0.4933595359325409,"250":-0.12764544785022736,"251":-0.5324979424476624,"252":-0.41027793288230896,"253":-0.5166555047035217,"254":0.09157823771238327,"255":-0.16498248279094696,"256":-0.3784860074520111,"257":-0.11852958053350449,"258":0.19674541056156158,"259":0.4969817101955414,"260":-0.13193753361701965,"261":0.0380999892950058,"262":-0.1692001074552536,"263":-0.17088887095451355,"264":-0.008869856595993042,"265":-0.10665818303823471,"266":0.14153993129730225,"267":0.17669935524463654,"268":0.290179044008255,"269":-0.050287939608097076,"270":0.05136158689856529,"271":-0.11783362179994583,"272":-0.2427927404642105,"273":-0.1516716480255127,"274":0.20549406111240387,"275":-0.3063722848892212,"276":-0.4508608281612396,"277":-0.06310399621725082,"278":0.13718415796756744,"279":0.1403253823518753,"280":0.1113913282752037,"281":0.1540278196334839,"282":0.06622258573770523,"283":0.8102673292160034,"284":-0.16477632522583008,"285":0.6349965333938599,"286":0.2675943970680237,"287":0.3858841359615326,"288":-0.889721691608429,"289":0.17783932387828827,"290":-0.34439176321029663,"291":0.2147335559129715,"292":0.7176511287689209,"293":0.07323125004768372,"294":-0.5421394109725952,"295":1.1209174394607544,"296":0.41763630509376526,"297":-0.1308240443468094,"298":-0.6020225286483765,"299":-0.7010460495948792,"300":0.1321902722120285,"301":-0.4140121340751648,"302":-0.03844739869236946,"303":-0.7488580942153931,"304":0.37399822473526,"305":-0.27241048216819763,"306":-0.33292514085769653,"307":-0.15907426178455353,"308":0.7033422589302063,"309":0.0493251197040081,"310":0.0439479760825634,"311":-0.06609591096639633,"312":-0.2437291443347931,"313":0.05198175087571144,"314":-0.18991850316524506,"315":-1.2212488651275635,"316":-0.16367614269256592,"317":0.2307727038860321,"318":-0.38121333718299866,"319":0.32129448652267456,"320":-0.32750189304351807,"321":-0.3183419108390808,"322":-0.2707732915878296,"323":-0.2858488857746124,"324":-0.07585354149341583,"325":-0.41047799587249756,"326":-0.4045599102973938,"327":0.051955610513687134,"328":0.30006837844848633,"329":-0.3819754421710968,"330":-0.430711567401886,"331":-0.3323666453361511,"332":-0.3430933356285095,"333":-0.4045431613922119,"334":0.27919724583625793,"335":-0.18127043545246124,"336":-0.3309994637966156,"337":0.4466364085674286,"338":-0.05276426672935486,"339":0.4128791093826294,"340":0.5100228190422058,"341":-0.5806686878204346,"342":0.43205633759498596,"343":-0.13597506284713745,"344":1.424608826637268,"345":0.08467671275138855,"346":-0.6699610352516174,"347":-0.7725033164024353,"348":-0.4776981770992279,"349":0.3397078812122345,"350":-1.5507382154464722,"351":0.45168399810791016,"352":0.28960153460502625,"353":0.4308210611343384,"354":-0.8576951026916504,"355":-0.19403819739818573,"356":0.6445584297180176,"357":1.0321955680847168,"358":-1.0957236289978027,"359":0.0748109295964241,"360":0.501031756401062,"361":0.37412893772125244,"362":0.4075983464717865,"363":0.3300674557685852,"364":0.3658769428730011,"365":0.5344653129577637,"366":-0.2995631992816925,"367":-0.2963903844356537,"368":-0.676991879940033,"369":0.43524643778800964,"370":-0.07945568859577179,"371":0.5764465928077698,"372":0.4631856083869934,"373":0.4003554880619049,"374":-0.5741929411888123,"375":0.3643474280834198,"376":0.9319239854812622,"377":0.30750393867492676,"378":-0.38741621375083923,"379":-0.6894308924674988,"380":-0.26622018218040466,"381":-0.06532300263643265,"382":-0.2479730099439621,"383":-0.3398728370666504,"384":-0.3195960223674774,"385":-0.6396495699882507,"386":-0.015844322741031647,"387":0.22893528640270233,"388":0.5818092226982117,"389":-0.25675180554389954,"390":-0.07187020033597946,"391":-0.3201858103275299,"392":-0.38844192028045654,"393":-0.3529665470123291,"394":0.03488194942474365,"395":0.23107756674289703,"396":-0.6948994994163513,"397":-0.1327565759420395,"398":0.32493746280670166,"399":0.890567421913147}},"forgetBias":{"rows":20,"columns":1,"weights":{"0":0,"1":0,"2":0,"3":0,"4":0,"5":0,"6":0,"7":0,"8":0,"9":0,"10":0,"11":0,"12":0,"13":0,"14":0,"15":0,"16":0,"17":0,"18":0,"19":0}},"outputMatrix":{"rows":20,"columns":17,"weights":{"0":0.5152749419212341,"1":0.37600812315940857,"2":-0.6398656368255615,"3":-0.8853684067726135,"4":-0.8760727643966675,"5":-0.5362936854362488,"6":-0.5571823716163635,"7":0.5597116351127625,"8":0.7213901877403259,"9":0.6676170825958252,"10":0.24839313328266144,"11":-0.963948130607605,"12":-1.0621590614318848,"13":0.26939788460731506,"14":-0.7019409537315369,"15":-0.7996698021888733,"16":-0.9276987910270691,"17":-0.597851574420929,"18":0.2831189036369324,"19":1.3727483749389648,"20":1.8025965690612793,"21":-0.44121742248535156,"22":1.430298089981079,"23":-0.2892035245895386,"24":0.06153947114944458,"25":0.036541856825351715,"26":-0.24615392088890076,"27":-1.5972195863723755,"28":0.07127588242292404,"29":1.008826732635498,"30":-1.2607766389846802,"31":0.41659823060035706,"32":-0.1707344353199005,"33":-0.054182268679142,"34":0.34816649556159973,"35":0.2366098016500473,"36":-0.1718987077474594,"37":-0.45460453629493713,"38":-0.9597405791282654,"39":-0.10494613647460938,"40":-0.8341448903083801,"41":1.046188473701477,"42":0.7797666192054749,"43":0.9360149502754211,"44":-0.463114470243454,"45":-1.0273860692977905,"46":-0.2780405282974243,"47":-0.509221076965332,"48":-0.9397054314613342,"49":-0.7646629810333252,"50":-1.012342929840088,"51":-0.8278452157974243,"52":-0.31196218729019165,"53":0.7675474286079407,"54":0.6617074608802795,"55":-1.0277221202850342,"56":0.7149635553359985,"57":0.24929079413414001,"58":0.13954316079616547,"59":0.409047931432724,"60":0.4943286180496216,"61":-1.2665363550186157,"62":-0.7407088875770569,"63":0.12808184325695038,"64":-0.8046239614486694,"65":-0.6029432415962219,"66":-1.0628764629364014,"67":-0.9756723642349243,"68":-0.9080787897109985,"69":-1.0577563047409058,"70":1.3520066738128662,"71":-0.14091695845127106,"72":-0.5676363110542297,"73":0.736840009689331,"74":0.7505115866661072,"75":0.29400283098220825,"76":-0.3225882053375244,"77":-0.30574852228164673,"78":-1.5580636262893677,"79":0.34249576926231384,"80":-0.5726072788238525,"81":-1.2384474277496338,"82":-0.15778741240501404,"83":0.5699985027313232,"84":-1.1289681196212769,"85":-0.662476658821106,"86":-0.5883240699768066,"87":0.048782818019390106,"88":-0.04660412669181824,"89":-0.816187858581543,"90":0.5284310579299927,"91":0.27151837944984436,"92":0.3563534617424011,"93":0.32945165038108826,"94":0.8491847515106201,"95":-0.8150916695594788,"96":-0.5633201003074646,"97":-0.5365459322929382,"98":-1.0042675733566284,"99":-0.4449533522129059,"100":-0.5369930863380432,"101":-1.086729645729065,"102":-0.39703163504600525,"103":-0.4567257761955261,"104":0.3738889694213867,"105":1.160685420036316,"106":-0.7333416938781738,"107":0.6494666337966919,"108":-0.3323511481285095,"109":0.14963646233081818,"110":0.4528145492076874,"111":-0.18693982064723969,"112":-1.111418604850769,"113":-0.40189632773399353,"114":-0.20940810441970825,"115":-0.6013947129249573,"116":-0.6275436878204346,"117":-0.3486698865890503,"118":-0.4686358571052551,"119":0.15160977840423584,"120":0.1089167669415474,"121":0.8935412168502808,"122":0.8037194013595581,"123":-0.6647557020187378,"124":0.22073912620544434,"125":-0.5583558678627014,"126":0.185142382979393,"127":-0.10042421519756317,"128":-0.08478857576847076,"129":-1.21100914478302,"130":0.24460655450820923,"131":0.3563567101955414,"132":-1.0407966375350952,"133":-0.35151877999305725,"134":0.40563657879829407,"135":-0.9746037721633911,"136":-0.40611785650253296,"137":-0.5016382932662964,"138":0.0046963319182395935,"139":0.7484351992607117,"140":-0.6094043254852295,"141":0.9542040824890137,"142":-0.05780734494328499,"143":1.2277153730392456,"144":0.7401090264320374,"145":0.8597321510314941,"146":-0.5519951581954956,"147":-0.7149287462234497,"148":-0.024377398192882538,"149":-0.8728699088096619,"150":-0.5040959119796753,"151":-0.6628918647766113,"152":-0.8559033870697021,"153":0.49956291913986206,"154":0.42207595705986023,"155":-0.8736969232559204,"156":-1.0531384944915771,"157":-0.7100880146026611,"158":-0.6913686990737915,"159":-0.3850173354148865,"160":0.6362065672874451,"161":0.7935470938682556,"162":0.7644437551498413,"163":0.3297295868396759,"164":-0.9005753993988037,"165":-1.1257375478744507,"166":0.08734992146492004,"167":-0.6767085194587708,"168":-0.6784411668777466,"169":-0.7823401093482971,"170":0.17859011888504028,"171":0.3003091812133789,"172":1.360701560974121,"173":0.7322900295257568,"174":-0.3574157953262329,"175":0.9145938754081726,"176":-0.215874582529068,"177":0.35168713331222534,"178":-0.03461659699678421,"179":0.08060956746339798,"180":-0.47723421454429626,"181":0.16874733567237854,"182":0.8830801248550415,"183":-0.5899121761322021,"184":-0.024061521515250206,"185":0.23562589287757874,"186":-0.3613615036010742,"187":0.11363755166530609,"188":0.06316801905632019,"189":-0.7871493101119995,"190":-0.9458223581314087,"191":-0.4226280748844147,"192":-0.339473694562912,"193":0.16745547950267792,"194":0.15647393465042114,"195":0.492746502161026,"196":0.736834704875946,"197":0.18988516926765442,"198":-0.7499600648880005,"199":-0.8269466757774353,"200":-0.050702180713415146,"201":-0.6407511830329895,"202":-0.5650423765182495,"203":-0.5848621129989624,"204":-0.41812267899513245,"205":-0.8961564898490906,"206":0.10493730753660202,"207":-0.10934764891862869,"208":-0.5225961804389954,"209":0.5028601884841919,"210":0.5259696245193481,"211":0.1583876609802246,"212":0.6996840238571167,"213":0.8387564420700073,"214":-0.5847815275192261,"215":-0.6875056028366089,"216":-0.5390494465827942,"217":-0.7930261492729187,"218":-0.7485771775245667,"219":-0.6334465742111206,"220":-0.605208694934845,"221":0.5372766852378845,"222":0.361474871635437,"223":-0.7619240283966064,"224":-0.9798136949539185,"225":-0.6676499247550964,"226":-0.7964391112327576,"227":-0.3624860942363739,"228":0.5420719981193542,"229":0.759488582611084,"230":0.7454031705856323,"231":0.39604055881500244,"232":-0.8303461074829102,"233":-1.2036850452423096,"234":0.12968787550926208,"235":-0.6130751371383667,"236":-0.7579343318939209,"237":-0.8112480044364929,"238":-0.2452867180109024,"239":-0.3870786726474762,"240":0.6881195306777954,"241":-1.0870373249053955,"242":0.5489569902420044,"243":-0.033782705664634705,"244":0.35252535343170166,"245":-0.7846173048019409,"246":-0.8632751107215881,"247":-1.1108845472335815,"248":-0.3957330882549286,"249":1.176074743270874,"250":-0.24351420998573303,"251":0.03711749613285065,"252":0.5831137895584106,"253":1.0903958082199097,"254":0.384325236082077,"255":-1.1104730367660522,"256":-0.9654293656349182,"257":-0.22938169538974762,"258":-0.3864773213863373,"259":-0.19710969924926758,"260":-0.0027438674587756395,"261":0.7010365128517151,"262":-0.5156536102294922,"263":0.02616853453218937,"264":0.987728476524353,"265":-0.6717755198478699,"266":-0.31510743498802185,"267":-1.239385724067688,"268":-0.8867419958114624,"269":-0.3473353087902069,"270":-0.23122797906398773,"271":-0.4777488708496094,"272":-0.44698581099510193,"273":0.7902282476425171,"274":-0.5901437997817993,"275":-1.3349424600601196,"276":-1.034889817237854,"277":-0.32045260071754456,"278":-0.35167181491851807,"279":0.6749568581581116,"280":0.4005031883716583,"281":0.4538266956806183,"282":-0.5656581521034241,"283":-0.6433467864990234,"284":-1.4315959215164185,"285":-0.03754732757806778,"286":-0.7595263719558716,"287":-0.3044610023498535,"288":-2.0844316482543945,"289":-0.652037501335144,"290":-0.9580948352813721,"291":0.7853012084960938,"292":0.34470078349113464,"293":-0.4351694881916046,"294":0.8572410941123962,"295":0.45389240980148315,"296":0.01639474183320999,"297":-0.2914338707923889,"298":-0.45289841294288635,"299":-1.375087022781372,"300":0.42302682995796204,"301":-0.8615280985832214,"302":-1.1364467144012451,"303":-0.02730788290500641,"304":0.6590698957443237,"305":-0.9513043165206909,"306":-0.5732439160346985,"307":-0.9631384611129761,"308":0.6964658498764038,"309":-1.577072024345398,"310":0.33551323413848877,"311":-0.22071005403995514,"312":0.6649214625358582,"313":-0.4352038502693176,"314":-0.49015653133392334,"315":-1.0922490358352661,"316":-0.23095522820949554,"317":0.931289553642273,"318":-0.6250088214874268,"319":0.25750017166137695,"320":0.36498183012008667,"321":0.8797962069511414,"322":-0.5346464514732361,"323":-0.635137140750885,"324":-0.637458860874176,"325":0.39726102352142334,"326":-0.017482329159975052,"327":-0.5246566534042358,"328":0.8173487186431885,"329":-0.04891166090965271,"330":-0.01705498993396759,"331":0.37753090262413025,"332":0.5831649899482727,"333":-0.9049237966537476,"334":-0.5749348402023315,"335":-0.8533779382705688,"336":-0.7632264494895935,"337":-0.5822398662567139,"338":-0.46138620376586914,"339":-0.7775609493255615}},"outputHidden":{"rows":20,"columns":20,"weights":{"0":-0.1614094078540802,"1":0.130533367395401,"2":-0.3679415285587311,"3":-0.3326658010482788,"4":-0.02681702747941017,"5":-0.25534695386886597,"6":-0.12002264708280563,"7":-0.09187936782836914,"8":0.047991424798965454,"9":-0.3338380753993988,"10":-0.16371659934520721,"11":-0.24588339030742645,"12":-0.11356077343225479,"13":-0.35485461354255676,"14":-0.13522309064865112,"15":-0.09307031333446503,"16":-0.16697119176387787,"17":0.16583634912967682,"18":-0.13235576450824738,"19":0.10635792464017868,"20":0.9398428797721863,"21":0.7567370533943176,"22":0.7480185627937317,"23":0.530663013458252,"24":-0.2634633183479309,"25":1.1627682447433472,"26":0.2858392894268036,"27":0.4452229142189026,"28":-1.0205644369125366,"29":0.8744415640830994,"30":0.5899292826652527,"31":0.7168443202972412,"32":0.30947327613830566,"33":0.9945462942123413,"34":0.7314926981925964,"35":0.272035151720047,"36":-1.1351890563964844,"37":-0.11435487121343613,"38":0.7081514596939087,"39":-0.6694577932357788,"40":-0.1943013072013855,"41":0.09513683617115021,"42":-0.278695285320282,"43":-0.25946182012557983,"44":0.06663800776004791,"45":-0.29785671830177307,"46":-0.17271041870117188,"47":-0.22713474929332733,"48":0.06850108504295349,"49":-0.31874674558639526,"50":-0.1400565505027771,"51":-0.2896829843521118,"52":-0.24825802445411682,"53":-0.2773256003856659,"54":-0.5121006965637207,"55":-0.11399153620004654,"56":-0.15586359798908234,"57":0.13126413524150848,"58":-0.32938575744628906,"59":0.15600267052650452,"60":0.7331714034080505,"61":0.4062676429748535,"62":0.7526575326919556,"63":-1.3496805429458618,"64":0.9527764320373535,"65":0.280621737241745,"66":-0.8417845964431763,"67":-1.0155202150344849,"68":-0.23549611866474152,"69":0.6247536540031433,"70":-0.708948016166687,"71":0.730102002620697,"72":0.6227519512176514,"73":0.6144890785217285,"74":-0.015723038464784622,"75":-0.5428931713104248,"76":0.37448450922966003,"77":0.8911357522010803,"78":-0.008958307094871998,"79":-0.4691388010978699,"80":0.43799060583114624,"81":-0.17066095769405365,"82":0.42054611444473267,"83":-0.1416494995355606,"84":1.3560081720352173,"85":0.022986991330981255,"86":-0.8864974975585938,"87":-1.0775721073150635,"88":-0.6736395359039307,"89":0.49712294340133667,"90":-0.788600742816925,"91":0.3255455791950226,"92":-0.12873096764087677,"93":0.49109527468681335,"94":-1.3961033821105957,"95":0.00024662274518050253,"96":0.731441080570221,"97":1.6009376049041748,"98":-1.7034709453582764,"99":0.5726583003997803,"100":0.1516571044921875,"101":0.12965114414691925,"102":0.11587865650653839,"103":-0.9269702434539795,"104":0.511645495891571,"105":-0.07902936637401581,"106":-0.4084697961807251,"107":-0.581042468547821,"108":0.2724872827529907,"109":0.1033664122223854,"110":-0.03613588958978653,"111":0.04262913390994072,"112":-0.3157423734664917,"113":0.04502708464860916,"114":-0.2358565330505371,"115":-0.488467276096344,"116":0.3194790184497833,"117":0.47262611985206604,"118":-0.24772107601165771,"119":0.02527575008571148,"120":0.033388953655958176,"121":0.20201842486858368,"122":0.5202414393424988,"123":0.11979697644710541,"124":1.7627208232879639,"125":-0.20528878271579742,"126":-1.3244034051895142,"127":-1.5615956783294678,"128":-0.5368993878364563,"129":0.012227565050125122,"130":-0.6577895879745483,"131":0.6176111698150635,"132":-0.03163214772939682,"133":-0.09495381265878677,"134":-1.369614839553833,"135":-0.7460757493972778,"136":0.8020021915435791,"137":1.7617100477218628,"138":-1.2091243267059326,"139":0.48374608159065247,"140":0.6760486364364624,"141":-0.09231700003147125,"142":1.0334744453430176,"143":-0.3786405026912689,"144":2.159485101699829,"145":-0.21230842173099518,"146":-1.6931004524230957,"147":-1.5511661767959595,"148":-0.16160525381565094,"149":0.6609025597572327,"150":-1.053639531135559,"151":0.8927739262580872,"152":0.34385573863983154,"153":0.6543640494346619,"154":-1.3664721250534058,"155":-0.8118866682052612,"156":0.8105888366699219,"157":2.3785104751586914,"158":-1.6251581907272339,"159":0.6960638165473938,"160":-0.5430713295936584,"161":-0.09534876048564911,"162":-0.45475348830223083,"163":-0.4561230540275574,"164":0.30533289909362793,"165":-0.5091984868049622,"166":-0.3754086494445801,"167":-0.4457904100418091,"168":0.4472837448120117,"169":-0.46552976965904236,"170":-0.34807178378105164,"171":-0.5294198989868164,"172":-0.29420796036720276,"173":-0.5419977903366089,"174":-0.2447134405374527,"175":-0.1815335750579834,"176":-0.30689504742622375,"177":0.28254103660583496,"178":-0.3368566930294037,"179":0.4512881636619568,"180":-0.1756717413663864,"181":0.185425266623497,"182":-0.21391743421554565,"183":-0.31261786818504333,"184":0.12560224533081055,"185":-0.1925646811723709,"186":-0.053047653287649155,"187":-0.15773704648017883,"188":0.08304161578416824,"189":-0.30280381441116333,"190":-0.21802395582199097,"191":-0.28477028012275696,"192":-0.21206198632717133,"193":-0.24663129448890686,"194":0.12650668621063232,"195":-0.14034530520439148,"196":-0.16667361557483673,"197":0.19069916009902954,"198":0.06190749630331993,"199":0.15997838973999023,"200":0.5666711330413818,"201":1.2554843425750732,"202":0.5869659185409546,"203":1.1043857336044312,"204":-1.6941560506820679,"205":1.2447264194488525,"206":1.975958228111267,"207":2.002035140991211,"208":-2.470900058746338,"209":0.5843337178230286,"210":0.9518335461616516,"211":0.6480658650398254,"212":1.9865301847457886,"213":0.5458115935325623,"214":0.685771644115448,"215":0.4712318480014801,"216":0.4690684974193573,"217":-1.238311529159546,"218":0.6767598986625671,"219":-1.5919269323349,"220":-0.2936192452907562,"221":0.06549151986837387,"222":-0.2849571406841278,"223":-0.0422755628824234,"224":0.18956057727336884,"225":-0.18956315517425537,"226":-0.2661581039428711,"227":-0.4847394824028015,"228":0.2274085283279419,"229":-0.2957472801208496,"230":-0.10284124314785004,"231":-0.3037366271018982,"232":-0.166133850812912,"233":-0.3466523289680481,"234":-0.5262062549591064,"235":-0.076335608959198,"236":-0.07186476141214371,"237":0.11785446107387543,"238":-0.3050144612789154,"239":0.18037918210029602,"240":-0.973793089389801,"241":-0.0949542298913002,"242":-0.6930343508720398,"243":-0.15665636956691742,"244":0.046504683792591095,"245":-0.6329686641693115,"246":-0.04825451970100403,"247":-0.047695450484752655,"248":0.2686300575733185,"249":-0.7782838940620422,"250":-0.13057836890220642,"251":-0.7076008319854736,"252":-0.5236340761184692,"253":-0.7028696537017822,"254":-0.41916966438293457,"255":0.06949888914823532,"256":-0.2785663306713104,"257":0.049784105271101,"258":-0.18030180037021637,"259":0.50201016664505,"260":-0.1644638031721115,"261":0.2085375040769577,"262":-0.28575223684310913,"263":-0.21336142718791962,"264":0.01923992857336998,"265":-0.2580532729625702,"266":-0.08935756981372833,"267":-0.14542636275291443,"268":0.13385134935379028,"269":-0.31655004620552063,"270":-0.19840863347053528,"271":-0.2833077013492584,"272":-0.3175766170024872,"273":-0.2510877847671509,"274":0.25733187794685364,"275":-0.23971980810165405,"276":-0.22832857072353363,"277":0.12294753640890121,"278":0.027113839983940125,"279":0.20984706282615662,"280":0.5680369734764099,"281":-0.5156721472740173,"282":0.8485180139541626,"283":-0.03196442872285843,"284":0.74066561460495,"285":0.8716282844543457,"286":-0.9577677249908447,"287":-0.4454041123390198,"288":0.011671505868434906,"289":0.5661101937294006,"290":-0.6465062499046326,"291":0.7831190228462219,"292":0.7382882833480835,"293":0.5397944450378418,"294":-1.00333571434021,"295":0.37058672308921814,"296":1.6431705951690674,"297":0.6535954475402832,"298":-1.1284098625183105,"299":-0.8755138516426086,"300":-1.2378675937652588,"301":-0.2604482173919678,"302":-1.0634191036224365,"303":0.07265456765890121,"304":0.8485214114189148,"305":-0.5311012864112854,"306":-0.7170518040657043,"307":-1.1662225723266602,"308":0.28193894028663635,"309":-1.2191314697265625,"310":-0.0568607859313488,"311":-0.9772540926933289,"312":-0.8219769597053528,"313":-1.2637975215911865,"314":-1.1492500305175781,"315":-0.8558579683303833,"316":0.2429179549217224,"317":0.43288058042526245,"318":-0.7512685060501099,"319":0.4639144539833069,"320":0.5594334006309509,"321":0.08587495237588882,"322":0.42714163661003113,"323":0.1883600950241089,"324":0.038226015865802765,"325":0.5493239760398865,"326":-0.08551542460918427,"327":0.010254130698740482,"328":-0.27640295028686523,"329":0.414786696434021,"330":-0.035271115601062775,"331":0.5435441732406616,"332":0.6595302820205688,"333":0.6945126056671143,"334":-0.29254359006881714,"335":0.12203372269868851,"336":1.0150034427642822,"337":0.17809130251407623,"338":-0.4642123579978943,"339":-0.43669968843460083,"340":0.7261607050895691,"341":-0.1562165468931198,"342":0.5706542134284973,"343":0.33133602142333984,"344":1.0349873304367065,"345":-0.4864200949668884,"346":-0.6739006042480469,"347":-0.6389815211296082,"348":-0.9163169860839844,"349":0.638528048992157,"350":-0.8172352313995361,"351":0.5927035808563232,"352":-0.06805256754159927,"353":0.6586576104164124,"354":-0.736449122428894,"355":-0.1691681146621704,"356":1.7538652420043945,"357":1.129332423210144,"358":-1.0261608362197876,"359":1.0253428220748901,"360":0.5709739327430725,"361":-0.17341510951519012,"362":0.5486980676651001,"363":0.4662909209728241,"364":0.8141191601753235,"365":1.1732280254364014,"366":-0.5296531915664673,"367":-0.48948878049850464,"368":-1.493106484413147,"369":0.43577441573143005,"370":-0.48215311765670776,"371":0.7508845329284668,"372":1.4984930753707886,"373":0.5029808878898621,"374":-0.8455596566200256,"375":0.857705295085907,"376":1.6641149520874023,"377":0.9106072187423706,"378":-0.9296400547027588,"379":-1.0996253490447998,"380":0.18322314321994781,"381":0.11518892645835876,"382":-0.0049977428279817104,"383":-1.1892434358596802,"384":0.7320878505706787,"385":-0.37012261152267456,"386":-0.4860541820526123,"387":-0.71519535779953,"388":1.0716139078140259,"389":0.06406994163990021,"390":-0.10683611780405045,"391":0.07133781909942627,"392":-0.3053193986415863,"393":0.10288435220718384,"394":-0.4551512598991394,"395":-0.7414650917053223,"396":-0.498216837644577,"397":0.38593295216560364,"398":-0.45230188965797424,"399":0.5330408811569214}},"outputBias":{"rows":20,"columns":1,"weights":{"0":-0.5468770265579224,"1":0.042809415608644485,"2":-0.23134976625442505,"3":0.45918700098991394,"4":0.3829450309276581,"5":0.17076678574085236,"6":0.6520310640335083,"7":0.6061700582504272,"8":0.8120005130767822,"9":-0.20572569966316223,"10":-0.0756874606013298,"11":-0.4800792634487152,"12":0.09427051991224289,"13":-0.1698669195175171,"14":0.05368293449282646,"15":0.7109792232513428,"16":-0.5846428871154785,"17":0.3695507049560547,"18":-0.10835163295269012,"19":0.13496063649654388}},"cellActivationMatrix":{"rows":20,"columns":17,"weights":{"0":0.17597775161266327,"1":0.15473127365112305,"2":0.05908728018403053,"3":0.4054226875305176,"4":-1.141296148300171,"5":0.6084170937538147,"6":-0.4224674105644226,"7":0.5979969501495361,"8":0.555963933467865,"9":0.28086376190185547,"10":-0.9221596121788025,"11":-0.5939018130302429,"12":-0.3001575171947479,"13":-0.6150774955749512,"14":-0.44226720929145813,"15":-0.4599548280239105,"16":-1.2091915607452393,"17":-0.32541778683662415,"18":-0.11396057903766632,"19":0.46938857436180115,"20":1.1341876983642578,"21":-0.34561824798583984,"22":0.32423093914985657,"23":-0.06349455565214157,"24":-0.08841321617364883,"25":-0.2821213901042938,"26":-0.4196511209011078,"27":-0.4703337550163269,"28":0.3589043915271759,"29":0.7451516389846802,"30":-0.27120891213417053,"31":0.479251891374588,"32":0.2581261396408081,"33":-0.283765584230423,"34":0.024292806163430214,"35":0.059664491564035416,"36":0.18115085363388062,"37":0.2912571430206299,"38":-0.9558354616165161,"39":0.34134310483932495,"40":-0.38517120480537415,"41":0.4624214470386505,"42":0.5114700794219971,"43":0.1643705517053604,"44":-0.6548660397529602,"45":-0.617976725101471,"46":-0.6106752157211304,"47":-0.4219207763671875,"48":-0.5408414006233215,"49":-0.4888914227485657,"50":-1.204172134399414,"51":-0.5438472032546997,"52":-0.041330818086862564,"53":0.5983532071113586,"54":1.210827350616455,"55":0.5112079977989197,"56":0.3075106739997864,"57":0.574069619178772,"58":-1.0338126420974731,"59":-0.6428791284561157,"60":-0.4072473645210266,"61":-0.7709451913833618,"62":0.6254119277000427,"63":0.6191419363021851,"64":-0.15333053469657898,"65":0.888513445854187,"66":0.6514782309532166,"67":0.7318126559257507,"68":0.4527251124382019,"69":0.618528425693512,"70":-0.27306216955184937,"71":-0.46168801188468933,"72":-0.38610902428627014,"73":0.5592325925827026,"74":-0.469252347946167,"75":0.8214951157569885,"76":0.9322332143783569,"77":1.016736388206482,"78":0.2334759384393692,"79":-1.0284603834152222,"80":-0.07166121900081635,"81":0.04203859716653824,"82":-1.276250958442688,"83":-0.7898062467575073,"84":-0.9998477101325989,"85":0.2539055347442627,"86":-0.08908285945653915,"87":0.290121853351593,"88":0.3705134093761444,"89":-0.7568936347961426,"90":0.4313272535800934,"91":-0.0952754095196724,"92":0.6180277466773987,"93":0.6706684231758118,"94":0.4269377291202545,"95":-0.23555056750774384,"96":-0.7469926476478577,"97":-0.06613266468048096,"98":-0.365720272064209,"99":-0.6135827898979187,"100":-0.6326225996017456,"101":-0.5021989941596985,"102":-0.1948709934949875,"103":-0.76435786485672,"104":-0.10901802778244019,"105":0.47969821095466614,"106":0.49149423837661743,"107":-0.6077954173088074,"108":0.9447882175445557,"109":-0.8245696425437927,"110":-0.9181071519851685,"111":-0.985643208026886,"112":-0.2929610013961792,"113":0.8369298577308655,"114":-0.12772560119628906,"115":-0.23718814551830292,"116":0.9488519430160522,"117":0.5463929772377014,"118":0.46951547265052795,"119":-0.4066731929779053,"120":-0.7510374188423157,"121":0.10529440641403198,"122":0.7713925838470459,"123":0.5999355316162109,"124":-0.6510554552078247,"125":0.8547290563583374,"126":-0.7166074514389038,"127":-0.7924706935882568,"128":-0.8537236452102661,"129":-0.033161409199237823,"130":0.884463906288147,"131":-0.08125855773687363,"132":0.013690389692783356,"133":1.0509121417999268,"134":0.6421474814414978,"135":0.4961819648742676,"136":0.5101850032806396,"137":0.6771399974822998,"138":0.3016819953918457,"139":-0.08228178322315216,"140":0.012403576634824276,"141":-1.2029497623443604,"142":-0.9779746532440186,"143":0.9657788276672363,"144":0.37751445174217224,"145":-0.06517171114683151,"146":1.1191298961639404,"147":-0.07952127605676651,"148":0.2888301908969879,"149":1.1663124561309814,"150":-0.07760003954172134,"151":-0.06769861280918121,"152":-0.012637091800570488,"153":0.10765117406845093,"154":0.054202593863010406,"155":0.5210620760917664,"156":0.42923617362976074,"157":-1.1472349166870117,"158":0.5533129572868347,"159":-0.4546033442020416,"160":0.6813215017318726,"161":0.5123019814491272,"162":0.3245920240879059,"163":-0.9670538902282715,"164":-0.6995011568069458,"165":-0.4305294454097748,"166":-0.5373585820198059,"167":-0.5291966199874878,"168":-0.5217076539993286,"169":-1.3638887405395508,"170":-0.6404682397842407,"171":-0.8423433899879456,"172":0.018225276842713356,"173":0.6878719329833984,"174":0.7311696410179138,"175":-0.5174365043640137,"176":1.12056303024292,"177":-0.8489431738853455,"178":-0.7733544707298279,"179":-0.9231917262077332,"180":0.059663016349077225,"181":0.9107540845870972,"182":-0.22216744720935822,"183":0.01856251060962677,"184":1.0210286378860474,"185":0.7219274044036865,"186":0.4166331887245178,"187":-0.055060014128685,"188":0.13788828253746033,"189":0.39720144867897034,"190":0.15988485515117645,"191":-0.9028714299201965,"192":0.4261629283428192,"193":-0.07382127642631531,"194":0.38255882263183594,"195":0.4385979175567627,"196":0.1040111556649208,"197":-0.6231980323791504,"198":-0.5530093312263489,"199":-0.6439173817634583,"200":-0.3654632568359375,"201":-0.46305567026138306,"202":-0.45602694153785706,"203":-1.1689594984054565,"204":-0.38483381271362305,"205":-0.6166223287582397,"206":0.6554455161094666,"207":1.240329384803772,"208":-0.6654542088508606,"209":0.44548600912094116,"210":0.6310714483261108,"211":-0.06531768292188644,"212":0.06731317937374115,"213":0.31670626997947693,"214":-0.8484503626823425,"215":-0.35654282569885254,"216":0.06909182667732239,"217":-0.7658271193504333,"218":-0.10640640556812286,"219":-0.47362351417541504,"220":-0.25571802258491516,"221":0.13268038630485535,"222":0.1668424904346466,"223":0.44152846932411194,"224":0.14277547597885132,"225":-0.8769084215164185,"226":0.337615042924881,"227":-0.2272840440273285,"228":0.35412660241127014,"229":0.3631090521812439,"230":-0.07645121216773987,"231":-0.5132640600204468,"232":-0.48791947960853577,"233":-0.48345208168029785,"234":-0.40554970502853394,"235":-0.34046006202697754,"236":-0.36231306195259094,"237":-0.9999780058860779,"238":-0.32367169857025146,"239":-0.14824306964874268,"240":-0.030634833499789238,"241":0.2740885615348816,"242":0.5259759426116943,"243":-0.19665728509426117,"244":0.21740643680095673,"245":-0.5920074582099915,"246":-0.45626339316368103,"247":-0.6336751580238342,"248":-0.07483479380607605,"249":0.7126678824424744,"250":-0.2713109850883484,"251":0.20348039269447327,"252":0.6568825840950012,"253":0.7799944877624512,"254":-0.12968815863132477,"255":0.06145593896508217,"256":0.33053478598594666,"257":0.8458388447761536,"258":1.4969005584716797,"259":0.22804823517799377,"260":0.5943065881729126,"261":-0.46887531876564026,"262":-0.468689888715744,"263":-0.4627566337585449,"264":0.02926863729953766,"265":-0.733857274055481,"266":0.4857383668422699,"267":0.9382233619689941,"268":-0.5276530981063843,"269":0.8123130202293396,"270":0.4967179596424103,"271":0.446316659450531,"272":0.2863790988922119,"273":0.06235335394740105,"274":-0.2632136046886444,"275":0.4395717978477478,"276":-0.8519159555435181,"277":0.9204437732696533,"278":-0.6559853553771973,"279":0.9151196479797363,"280":0.9692859649658203,"281":0.9841524362564087,"282":-0.7236671447753906,"283":-0.8847641348838806,"284":0.06245114281773567,"285":-0.49515628814697266,"286":-0.8188433051109314,"287":-0.9689965844154358,"288":-0.6238109469413757,"289":0.5689780116081238,"290":0.6379356980323792,"291":-0.2243250608444214,"292":-0.17913585901260376,"293":-0.48627543449401855,"294":0.4621829092502594,"295":-0.5979624390602112,"296":0.7452977895736694,"297":0.7310894131660461,"298":0.7445047497749329,"299":0.3576938807964325,"300":-0.7411073446273804,"301":0.24249351024627686,"302":-0.03743932768702507,"303":-0.9090006947517395,"304":-0.7929209470748901,"305":-0.7225908637046814,"306":-0.2966567575931549,"307":-0.33554360270500183,"308":-0.09971588850021362,"309":0.34763285517692566,"310":0.6002211570739746,"311":-0.41426321864128113,"312":0.3981477916240692,"313":-0.6961778998374939,"314":-0.6735423803329468,"315":-0.8440789580345154,"316":-0.15109524130821228,"317":0.7845087647438049,"318":-0.4076082110404968,"319":0.1922398805618286,"320":1.032235026359558,"321":0.7857969999313354,"322":0.7687754034996033,"323":0.23438993096351624,"324":0.16612258553504944,"325":-0.383906751871109,"326":-0.17630387842655182,"327":0.9280141592025757,"328":-0.5557177066802979,"329":-0.08018796890974045,"330":-0.21944357454776764,"331":-0.3812119662761688,"332":-0.38398614525794983,"333":0.6170119643211365,"334":0.4363638162612915,"335":0.7222572565078735,"336":0.6055243611335754,"337":0.32615309953689575,"338":0.41682127118110657,"339":1.1392616033554077}},"cellActivationHidden":{"rows":20,"columns":20,"weights":{"0":0.25071218609809875,"1":0.6155359745025635,"2":0.4242229759693146,"3":0.5919996500015259,"4":-0.7564535737037659,"5":0.4738832712173462,"6":0.6597959399223328,"7":0.7375921607017517,"8":-0.5857413411140442,"9":0.44305017590522766,"10":0.43943750858306885,"11":0.47868871688842773,"12":0.3399466574192047,"13":0.4185553789138794,"14":0.39701032638549805,"15":0.3608669340610504,"16":-0.1638319492340088,"17":-0.5384049415588379,"18":0.5223079323768616,"19":-0.3957831859588623,"20":0.8971060514450073,"21":0.6418799757957458,"22":0.7776530385017395,"23":0.5305518507957458,"24":-0.3090534508228302,"25":1.2512444257736206,"26":0.399392306804657,"27":0.5068692564964294,"28":-1.1117117404937744,"29":0.8040989637374878,"30":0.8863423466682434,"31":0.8574590086936951,"32":1.2018141746520996,"33":0.8399086594581604,"34":0.8082987070083618,"35":0.8357656002044678,"36":-1.109230875968933,"37":-0.34362557530403137,"38":0.7833830714225769,"39":-1.461559534072876,"40":0.25326186418533325,"41":0.6466994285583496,"42":0.31028857827186584,"43":0.638569176197052,"44":-0.7644580006599426,"45":0.5049862861633301,"46":0.8278248310089111,"47":0.875245213508606,"48":-0.505291223526001,"49":0.41679301857948303,"50":0.5971196293830872,"51":0.376869797706604,"52":0.20215968787670135,"53":0.37480199337005615,"54":0.7922541499137878,"55":0.3208419680595398,"56":-0.35693877935409546,"57":-0.7269878387451172,"58":0.7725470066070557,"59":-0.45522835850715637,"60":0.24220383167266846,"61":-0.3760388195514679,"62":0.2919946014881134,"63":0.4387214779853821,"64":-0.5827630758285522,"65":0.004999326076358557,"66":0.6326586604118347,"67":0.6980486512184143,"68":0.08877227455377579,"69":0.3197377324104309,"70":0.1969272494316101,"71":0.0936763659119606,"72":-0.11959009617567062,"73":0.1965222805738449,"74":-0.9555745720863342,"75":0.09214417636394501,"76":0.3261754810810089,"77":-0.3261896073818207,"78":-0.8479295372962952,"79":0.12467749416828156,"80":-0.3428703844547272,"81":0.03085189126431942,"82":-0.36936143040657043,"83":0.04436298832297325,"84":-0.024777928367257118,"85":-0.059000734239816666,"86":-0.022214755415916443,"87":0.046105436980724335,"88":-0.07989408820867538,"89":-0.2653064429759979,"90":-0.10139329731464386,"91":-0.16004708409309387,"92":-0.2980075776576996,"93":-0.2920299172401428,"94":0.3848337233066559,"95":-0.001955396495759487,"96":-0.42366233468055725,"97":0.07586908340454102,"98":0.23152635991573334,"99":0.19660353660583496,"100":0.06619351357221603,"101":0.875180184841156,"102":0.25262659788131714,"103":0.9764372110366821,"104":-1.1666350364685059,"105":0.11709127575159073,"106":1.16896390914917,"107":1.1321762800216675,"108":-0.8095349073410034,"109":0.15251335501670837,"110":0.7872573137283325,"111":0.2264431267976761,"112":0.06980998814105988,"113":0.21295036375522614,"114":0.763823390007019,"115":1.0198508501052856,"116":-0.2520506978034973,"117":-0.9884463548660278,"118":1.1314204931259155,"119":-0.11642065644264221,"120":0.00007995781197678298,"121":-0.8996925950050354,"122":-0.020595621317625046,"123":-0.34742268919944763,"124":0.18837659060955048,"125":-0.22174358367919922,"126":0.04033217206597328,"127":0.0707220658659935,"128":0.3572622239589691,"129":0.031124869361519814,"130":0.050561945885419846,"131":-0.3409216105937958,"132":-0.16665396094322205,"133":0.040501710027456284,"134":-1.2270830869674683,"135":-0.3056321144104004,"136":0.7344818115234375,"137":0.3475632667541504,"138":-0.9383217692375183,"139":0.12992927432060242,"140":0.05062837526202202,"141":-0.41450273990631104,"142":0.08568914979696274,"143":-0.30619335174560547,"144":0.0018979939632117748,"145":-0.09307944774627686,"146":0.34195446968078613,"147":0.21384680271148682,"148":0.2206309288740158,"149":-0.07765514403581619,"150":0.422682523727417,"151":-0.1436237394809723,"152":0.04192688316106796,"153":-0.01695057563483715,"154":-0.7400639057159424,"155":-0.17781367897987366,"156":0.6101477146148682,"157":0.1470544934272766,"158":-0.38452738523483276,"159":-0.03236428648233414,"160":-0.18427574634552002,"161":-0.2991994023323059,"162":-0.20057201385498047,"163":-0.49797168374061584,"164":1.4475317001342773,"165":-0.33986371755599976,"166":-1.2807475328445435,"167":-1.3593685626983643,"168":-0.10296474397182465,"169":-0.34383323788642883,"170":-0.8688587546348572,"171":-0.007056841626763344,"172":-0.27368220686912537,"173":-0.32173484563827515,"174":-0.0681518167257309,"175":-0.38847896456718445,"176":-0.8712465763092041,"177":1.2452774047851562,"178":-0.21180109679698944,"179":0.33549800515174866,"180":0.21045111119747162,"181":0.7252904772758484,"182":0.25401565432548523,"183":0.5135753750801086,"184":-0.6762933731079102,"185":0.4156203866004944,"186":0.7562053799629211,"187":0.9362525939941406,"188":-0.5189083218574524,"189":0.35752400755882263,"190":0.5917618870735168,"191":0.37683022022247314,"192":0.08785448223352432,"193":0.36177587509155273,"194":0.5155918598175049,"195":0.18589191138744354,"196":-0.30866503715515137,"197":-0.797147274017334,"198":0.582961916923523,"199":-0.3365325927734375,"200":-0.006512159947305918,"201":-0.12033393234014511,"202":-0.031186839565634727,"203":-0.34280136227607727,"204":-0.004540589172393084,"205":-0.31061553955078125,"206":0.013755102641880512,"207":0.008276544511318207,"208":0.14646592736244202,"209":-0.034421082586050034,"210":0.007040894590318203,"211":-0.07531733810901642,"212":-0.1790124773979187,"213":-0.026562364771962166,"214":0.08620969206094742,"215":-0.2088487297296524,"216":0.4070279598236084,"217":0.5494483113288879,"218":-0.3992849886417389,"219":0.16475018858909607,"220":0.2819253206253052,"221":0.7703660130500793,"222":0.3380949795246124,"223":0.76991206407547,"224":-0.8288152813911438,"225":0.5858097076416016,"226":0.7499117255210876,"227":0.923518717288971,"228":-0.5263166427612305,"229":0.4691445529460907,"230":0.6601678729057312,"231":0.5633968114852905,"232":0.31542351841926575,"233":0.37227436900138855,"234":0.7622845768928528,"235":0.5985611081123352,"236":-0.48504483699798584,"237":-0.7227718234062195,"238":0.7689552903175354,"239":-0.40053752064704895,"240":0.2622213363647461,"241":0.34054917097091675,"242":0.23602589964866638,"243":0.1561662256717682,"244":-0.8093960285186768,"245":0.3457481861114502,"246":0.5606002807617188,"247":0.8300827741622925,"248":0.007753792218863964,"249":0.3200988173484802,"250":0.5559755563735962,"251":0.2178259938955307,"252":0.22649624943733215,"253":0.24203887581825256,"254":0.47716090083122253,"255":0.5219312906265259,"256":-0.09937388449907303,"257":-0.4874926805496216,"258":0.5173797011375427,"259":-0.3293747305870056,"260":0.3827473521232605,"261":0.8301372528076172,"262":0.5840429067611694,"263":0.7788673043251038,"264":-0.8956415057182312,"265":0.6614699959754944,"266":0.8084713816642761,"267":0.8777388334274292,"268":-0.8335685729980469,"269":0.549075186252594,"270":0.7517452239990234,"271":0.6932056546211243,"272":0.531244695186615,"273":0.5630718469619751,"274":0.8416305184364319,"275":0.45367369055747986,"276":-0.22531375288963318,"277":-0.7686620354652405,"278":0.7863227128982544,"279":-0.6100822687149048,"280":0.030290022492408752,"281":0.30472224950790405,"282":0.058722347021102905,"283":0.09672945737838745,"284":0.7516642212867737,"285":0.17374740540981293,"286":-0.4343778192996979,"287":-0.5984240174293518,"288":-0.32058992981910706,"289":0.033453669399023056,"290":0.018302209675312042,"291":0.32615533471107483,"292":0.4141593873500824,"293":0.0773746445775032,"294":-0.281503289937973,"295":-0.0022724552545696497,"296":0.6917788982391357,"297":0.6974242329597473,"298":-0.24732741713523865,"299":-0.23850518465042114,"300":0.03837656229734421,"301":0.19612041115760803,"302":0.0027834060601890087,"303":0.6574340462684631,"304":-0.35452860593795776,"305":-0.2469806969165802,"306":0.3748418092727661,"307":0.3691866397857666,"308":-0.14168202877044678,"309":0.06780954450368881,"310":0.1605248600244522,"311":-0.07241841405630112,"312":0.4405224621295929,"313":0.03916476294398308,"314":-0.22716017067432404,"315":0.7624863982200623,"316":-0.2512893080711365,"317":0.0035873798187822104,"318":-0.14865542948246002,"319":0.2172652631998062,"320":-0.11703978478908539,"321":0.6684299111366272,"322":-0.1634080410003662,"323":-0.24131663143634796,"324":-0.3519591689109802,"325":-0.3272401690483093,"326":0.3362230956554413,"327":0.4702646732330322,"328":0.30672207474708557,"329":-0.18741890788078308,"330":0.3303888142108917,"331":-0.3359048068523407,"332":-0.3961918354034424,"333":-0.19404788315296173,"334":0.4652356803417206,"335":-0.48264509439468384,"336":-0.8249695897102356,"337":-0.3121297359466553,"338":0.49036237597465515,"339":0.3563508987426758,"340":-0.12844319641590118,"341":0.2008121758699417,"342":-0.12870314717292786,"343":0.046030864119529724,"344":-0.22964036464691162,"345":0.04646493121981621,"346":-0.18635079264640808,"347":-0.21403159201145172,"348":-0.044927481561899185,"349":-0.13015101850032806,"350":-0.10012722760438919,"351":-0.0927157923579216,"352":-0.08175937831401825,"353":-0.1216115653514862,"354":0.29263678193092346,"355":-0.1695277988910675,"356":-0.37594714760780334,"357":-0.3145388066768646,"358":0.4378090798854828,"359":0.16686151921749115,"360":0.07502732425928116,"361":0.1502525806427002,"362":0.025299733504652977,"363":0.04008490964770317,"364":0.36346593499183655,"365":-0.011340650729835033,"366":-0.10956251621246338,"367":-0.418267160654068,"368":-0.119197316467762,"369":0.0031127468682825565,"370":0.2422148436307907,"371":0.06672652810811996,"372":0.14540311694145203,"373":-0.021008919924497604,"374":-0.3000722825527191,"375":0.07062888890504837,"376":0.6139144897460938,"377":0.40994730591773987,"378":-0.30168280005455017,"379":-0.053860340267419815,"380":-0.3209059238433838,"381":-0.6948502063751221,"382":-0.5753664970397949,"383":-1.3436036109924316,"384":0.8050436973571777,"385":-0.5903478860855103,"386":-1.0051592588424683,"387":-0.9966821670532227,"388":0.6493352055549622,"389":-0.49791082739830017,"390":-0.3847682774066925,"391":-0.42748361825942993,"392":-0.13276220858097076,"393":-0.6492918729782104,"394":-0.8603848814964294,"395":-0.6901318430900574,"396":0.7448607087135315,"397":0.7372638583183289,"398":-0.7281159162521362,"399":0.7915087938308716}},"cellActivationBias":{"rows":20,"columns":1,"weights":{"0":-0.10417982190847397,"1":-0.020156534388661385,"2":-0.04502946138381958,"3":0.16658589243888855,"4":-0.7018877267837524,"5":0.5205708742141724,"6":0.7677899599075317,"7":0.6431379318237305,"8":0.19268083572387695,"9":0.013009730726480484,"10":0.699120044708252,"11":-0.10901015251874924,"12":-0.2102995216846466,"13":-0.08737330883741379,"14":0.5816688537597656,"15":-0.218808114528656,"16":-0.3108749985694885,"17":-0.7085716128349304,"18":0.6521793007850647,"19":0.051174040883779526}}},{"inputMatrix":{"rows":20,"columns":20,"weights":{"0":0.6880651712417603,"1":-0.2726140022277832,"2":0.5140987634658813,"3":-1.8365355730056763,"4":0.06545541435480118,"5":0.4926314651966095,"6":-0.38086846470832825,"7":-0.41288700699806213,"8":-0.8084664940834045,"9":0.5136787295341492,"10":1.498244285583496,"11":0.32401135563850403,"12":1.2522926330566406,"13":0.5957024097442627,"14":0.5887925624847412,"15":-1.4169355630874634,"16":3.6980392932891846,"17":-0.7358059883117676,"18":0.032743338495492935,"19":-0.8679211139678955,"20":1.0621622800827026,"21":-0.5588053464889526,"22":0.7580124139785767,"23":-1.1732814311981201,"24":1.2671184539794922,"25":0.3497784733772278,"26":-0.9790612459182739,"27":-1.251552700996399,"28":0.18260319530963898,"29":0.8351435661315918,"30":-0.11592997610569,"31":0.5340856909751892,"32":0.6412805914878845,"33":0.7682521343231201,"34":-0.7371392250061035,"35":-0.07083405554294586,"36":2.32106876373291,"37":1.5728286504745483,"38":-1.1870821714401245,"39":-0.5123206377029419,"40":-0.4517066180706024,"41":0.14390254020690918,"42":-0.6410061120986938,"43":-2.4250712394714355,"44":-0.2323453575372696,"45":-1.259214162826538,"46":-0.6234495043754578,"47":-0.2970750033855438,"48":1.5636693239212036,"49":-0.5334824919700623,"50":1.89688241481781,"51":-0.9784363508224487,"52":-0.981692910194397,"53":-0.37713056802749634,"54":1.1757190227508545,"55":-0.9330571293830872,"56":-1.0159122943878174,"57":-0.3732535243034363,"58":1.6048846244812012,"59":0.9029008746147156,"60":1.6227608919143677,"61":0.48343372344970703,"62":1.2727707624435425,"63":-2.1822621822357178,"64":0.8060530424118042,"65":0.5787490606307983,"66":-0.8278300762176514,"67":-0.9724404811859131,"68":-0.2952263653278351,"69":1.5061053037643433,"70":1.2380620241165161,"71":0.9690269231796265,"72":0.07221685349941254,"73":1.476730227470398,"74":1.91007661819458,"75":-0.8719640970230103,"76":0.6969804167747498,"77":0.5536655187606812,"78":1.9472510814666748,"79":-0.4672801196575165,"80":-1.6245570182800293,"81":0.7983735799789429,"82":-0.9043903350830078,"83":-1.0901191234588623,"84":2.2034225463867188,"85":-0.853682279586792,"86":-1.5444811582565308,"87":-1.051452875137329,"88":0.9464331865310669,"89":-1.6256463527679443,"90":1.54363214969635,"91":-0.830068826675415,"92":-0.05073189735412598,"93":-1.7936629056930542,"94":1.7022186517715454,"95":-2.735830307006836,"96":-0.41982823610305786,"97":1.1569578647613525,"98":1.070769190788269,"99":0.10389216989278793,"100":0.6209189891815186,"101":0.43603771924972534,"102":0.3883259892463684,"103":-0.2942866384983063,"104":1.0504755973815918,"105":0.37522080540657043,"106":-0.7527839541435242,"107":-0.9928662180900574,"108":-0.6300290822982788,"109":0.4938536286354065,"110":-0.09266330301761627,"111":0.5084028840065002,"112":-0.033967286348342896,"113":0.39277383685112,"114":-0.49799951910972595,"115":-1.8778544664382935,"116":0.3445943593978882,"117":1.1097804307937622,"118":-0.5975732207298279,"119":-0.39808130264282227,"120":0.6846839189529419,"121":1.038167119026184,"122":0.7852113246917725,"123":-0.9377373456954956,"124":1.413957118988037,"125":-0.1013873890042305,"126":-1.131926417350769,"127":-1.898176670074463,"128":0.5125839710235596,"129":0.8684093952178955,"130":1.869744896888733,"131":0.39913472533226013,"132":-0.5220507979393005,"133":0.7828835248947144,"134":2.3832507133483887,"135":-0.9671058654785156,"136":-0.16980770230293274,"137":0.7211559414863586,"138":1.791616439819336,"139":0.5805782675743103,"140":1.455934762954712,"141":-1.3098678588867188,"142":1.1428357362747192,"143":-0.5550980567932129,"144":1.833242416381836,"145":0.908066987991333,"146":-0.18052121996879578,"147":-0.6815845966339111,"148":0.45143333077430725,"149":1.1210346221923828,"150":0.22821296751499176,"151":0.9371093511581421,"152":0.8909876346588135,"153":1.1283642053604126,"154":0.6096546053886414,"155":-0.38993269205093384,"156":1.0877289772033691,"157":2.2466483116149902,"158":0.6102527379989624,"159":-1.0023155212402344,"160":0.053074080497026443,"161":-0.24833619594573975,"162":-0.02192665822803974,"163":0.6926792860031128,"164":-0.2327759712934494,"165":0.1727040857076645,"166":-0.678264856338501,"167":-0.40971702337265015,"168":-1.8947447538375854,"169":-0.21419744193553925,"170":-1.832053542137146,"171":0.53514564037323,"172":0.34820839762687683,"173":-0.21702757477760315,"174":-0.09885195642709732,"175":1.322996973991394,"176":0.5074565410614014,"177":0.6669340133666992,"178":0.05823952332139015,"179":-0.5157996416091919,"180":0.14830856025218964,"181":0.7863938212394714,"182":0.09430045634508133,"183":-0.7138845324516296,"184":1.4132596254348755,"185":-1.4889644384384155,"186":-0.871475338935852,"187":-1.7313413619995117,"188":1.768297791481018,"189":0.16119933128356934,"190":0.8644267916679382,"191":-0.39395618438720703,"192":-1.3655898571014404,"193":0.020841356366872787,"194":-1.3193023204803467,"195":0.6577857732772827,"196":-1.1531965732574463,"197":0.9382176399230957,"198":-1.3087823390960693,"199":1.7890634536743164,"200":-0.2172163426876068,"201":-0.3071407079696655,"202":-0.268484890460968,"203":0.2092253565788269,"204":0.9736334085464478,"205":0.3960314393043518,"206":-1.2127037048339844,"207":-0.8772953748703003,"208":-0.6330278515815735,"209":-0.34906429052352905,"210":-0.6809813976287842,"211":0.09301687031984329,"212":0.2591061294078827,"213":-0.37634792923927307,"214":-0.6518955230712891,"215":-0.3934251368045807,"216":0.9083083271980286,"217":1.3425917625427246,"218":-0.9232925772666931,"219":-0.4842991530895233,"220":-0.0061228638514876366,"221":-0.22401012480258942,"222":-0.23815791308879852,"223":-0.5780106782913208,"224":0.6633205413818359,"225":-0.602954089641571,"226":-1.088276982307434,"227":-1.2476698160171509,"228":0.5205819010734558,"229":-0.15521100163459778,"230":0.11382054537534714,"231":-0.17116114497184753,"232":-0.4460403025150299,"233":-0.28444111347198486,"234":1.8366316556930542,"235":-1.0758923292160034,"236":-0.0051914700306952,"237":0.5818131566047668,"238":1.785383701324463,"239":0.5704851746559143,"240":0.8285168409347534,"241":1.3721553087234497,"242":0.7230949997901917,"243":-0.7915204763412476,"244":0.24869489669799805,"245":-0.9770433902740479,"246":-0.5623248815536499,"247":-0.4136999845504761,"248":2.0170397758483887,"249":0.6359633803367615,"250":1.4360870122909546,"251":0.4191187024116516,"252":-0.5510511994361877,"253":0.7210932970046997,"254":0.8883579969406128,"255":0.323878675699234,"256":-1.7695063352584839,"257":1.3676632642745972,"258":1.0494638681411743,"259":1.3971428871154785,"260":0.6064662337303162,"261":-0.9853612184524536,"262":0.3993728458881378,"263":-0.7629731893539429,"264":0.7596753239631653,"265":0.6256623864173889,"266":-0.6385289430618286,"267":-0.4093371033668518,"268":-0.6103328466415405,"269":0.49332737922668457,"270":-0.6393928527832031,"271":0.24681618809700012,"272":1.0627671480178833,"273":0.4528895318508148,"274":-0.5721630454063416,"275":-0.6742515563964844,"276":2.7521417140960693,"277":0.6396908760070801,"278":-1.1143550872802734,"279":-0.8008294105529785,"280":1.065970540046692,"281":-0.2535782754421234,"282":0.8844499588012695,"283":-1.356911063194275,"284":2.1352834701538086,"285":0.27298301458358765,"286":-1.7022631168365479,"287":-1.4495338201522827,"288":0.27476444840431213,"289":0.9345834255218506,"290":-0.3336198329925537,"291":0.8566765189170837,"292":1.1015764474868774,"293":0.9586232304573059,"294":-0.8869476318359375,"295":-0.6192352175712585,"296":2.365349054336548,"297":1.8760368824005127,"298":-2.178880214691162,"299":-0.448813259601593,"300":0.48497259616851807,"301":0.9366354942321777,"302":0.3574293553829193,"303":-1.2044914960861206,"304":1.3041880130767822,"305":-0.18702954053878784,"306":-0.06569166481494904,"307":-0.13277126848697662,"308":0.4795570969581604,"309":0.43975508213043213,"310":-0.3572111129760742,"311":0.3427433669567108,"312":0.5291424989700317,"313":0.3741895258426666,"314":-1.0597145557403564,"315":0.14045721292495728,"316":0.08716973662376404,"317":0.8955260515213013,"318":-1.5076298713684082,"319":-0.05907450616359711,"320":1.3033313751220703,"321":1.6700574159622192,"322":1.2361217737197876,"323":-1.6047335863113403,"324":1.409397006034851,"325":-0.3423662781715393,"326":-0.6076768636703491,"327":-1.2873152494430542,"328":1.1669745445251465,"329":1.1709493398666382,"330":1.1527869701385498,"331":0.6597445607185364,"332":-0.23952877521514893,"333":1.1095205545425415,"334":1.2273693084716797,"335":-2.1863198280334473,"336":0.32334765791893005,"337":0.6782596707344055,"338":1.2324048280715942,"339":0.13268126547336578,"340":-0.6193124055862427,"341":-0.49995532631874084,"342":-0.43965843319892883,"343":-0.8081689476966858,"344":1.8327909708023071,"345":-0.5364832282066345,"346":-1.351109266281128,"347":-1.3381344079971313,"348":0.4671722948551178,"349":-0.7348870038986206,"350":-0.5922253131866455,"351":-0.33954253792762756,"352":-0.8506271243095398,"353":-0.7037282586097717,"354":-0.5509733557701111,"355":-1.3630902767181396,"356":-0.3245515823364258,"357":1.4669239521026611,"358":-0.7435964941978455,"359":0.457146555185318,"360":-0.13475599884986877,"361":-0.2530478835105896,"362":-0.1800534725189209,"363":-1.598180890083313,"364":-0.15110673010349274,"365":-0.4513261914253235,"366":-0.5508707761764526,"367":-0.46258383989334106,"368":1.1120554208755493,"369":-0.2119409739971161,"370":1.9029875993728638,"371":-0.4835006892681122,"372":-0.7407802939414978,"373":-0.11025061458349228,"374":0.7253707647323608,"375":-0.911851704120636,"376":-0.5476469397544861,"377":-0.38128897547721863,"378":1.3109312057495117,"379":0.513054370880127,"380":-0.6556768417358398,"381":1.0333144664764404,"382":-0.838483452796936,"383":0.18645523488521576,"384":0.898927628993988,"385":-1.517093539237976,"386":-1.7352796792984009,"387":-1.5473986864089966,"388":0.9581085443496704,"389":-0.7872238159179688,"390":1.5910416841506958,"391":-0.7394945621490479,"392":-0.9331931471824646,"393":-0.7933589220046997,"394":1.3220229148864746,"395":0.720504641532898,"396":-0.38667064905166626,"397":0.9545984268188477,"398":1.687697410583496,"399":1.3088314533233643}},"inputHidden":{"rows":20,"columns":20,"weights":{"0":0.6803886890411377,"1":0.15867546200752258,"2":2.2186858654022217,"3":-1.0235515832901,"4":-0.385058730840683,"5":-0.5653918981552124,"6":1.8271292448043823,"7":-0.34197530150413513,"8":-2.192214012145996,"9":0.9598845839500427,"10":0.1856086254119873,"11":1.3389972448349,"12":0.3739052414894104,"13":-0.027331698685884476,"14":-1.1236923933029175,"15":0.8735451698303223,"16":-0.2988838851451874,"17":-1.4500852823257446,"18":-0.6652320027351379,"19":-1.4791518449783325,"20":1.7152419090270996,"21":-0.18858419358730316,"22":-0.03307659178972244,"23":0.07302200794219971,"24":-0.4667162597179413,"25":-0.6728643774986267,"26":0.6151761412620544,"27":1.4949861764907837,"28":0.8456414937973022,"29":-0.9458216428756714,"30":0.5130683183670044,"31":1.1753839254379272,"32":-0.8532539010047913,"33":-0.34848999977111816,"34":0.6617946028709412,"35":0.27062851190567017,"36":-0.44117751717567444,"37":-0.8819359540939331,"38":-0.49411606788635254,"39":-2.556805372238159,"40":0.34457260370254517,"41":-0.4823279082775116,"42":0.2115764319896698,"43":-0.41549360752105713,"44":0.0906105637550354,"45":-0.59504634141922,"46":1.6678394079208374,"47":0.2429591864347458,"48":-0.8860687017440796,"49":1.5984981060028076,"50":-1.072255253791809,"51":-2.288966417312622,"52":-0.44883036613464355,"53":-0.5010582804679871,"54":-0.6650794744491577,"55":-0.5208902359008789,"56":-1.3604621887207031,"57":2.5101816654205322,"58":-0.32466253638267517,"59":2.246188163757324,"60":0.5952380895614624,"61":0.12788337469100952,"62":-0.4821930229663849,"63":-0.4342419505119324,"64":2.0685946941375732,"65":0.8639092445373535,"66":1.6076651811599731,"67":-0.8778323531150818,"68":0.0543462410569191,"69":-0.2636650800704956,"70":-1.2187942266464233,"71":-1.445330023765564,"72":0.5850669145584106,"73":-0.19037076830863953,"74":-0.5353021621704102,"75":-0.045948877930641174,"76":-0.48197388648986816,"77":1.8424420356750488,"78":1.1849299669265747,"79":1.8834373950958252,"80":1.4378857612609863,"81":0.27036333084106445,"82":-2.133652448654175,"83":0.38518625497817993,"84":-1.197354793548584,"85":-1.5268526077270508,"86":-0.7327532768249512,"87":0.6185247898101807,"88":-1.4576573371887207,"89":0.5998400449752808,"90":-0.8562848567962646,"91":-3.6120541095733643,"92":-0.23906923830509186,"93":0.0020192605443298817,"94":0.7392987608909607,"95":2.469879150390625,"96":0.7907205820083618,"97":-0.7371112704277039,"98":-0.6214487552642822,"99":-2.095001459121704,"100":-2.475414276123047,"101":0.712192952632904,"102":0.26707831025123596,"103":-0.7579506635665894,"104":0.9713644981384277,"105":0.09494660794734955,"106":0.09540066123008728,"107":-0.5072311162948608,"108":1.7924171686172485,"109":-2.5683066844940186,"110":1.4553947448730469,"111":0.7592290639877319,"112":-0.16005952656269073,"113":1.0484230518341064,"114":1.5529476404190063,"115":-0.7984025478363037,"116":-0.1690807342529297,"117":-0.19422708451747894,"118":-0.07447437942028046,"119":-1.9491053819656372,"120":1.0776584148406982,"121":-1.7211575508117676,"122":-0.7035362720489502,"123":-0.037896886467933655,"124":-0.10009339451789856,"125":-0.2207230180501938,"126":0.5514427423477173,"127":-0.07236838340759277,"128":-0.8862050175666809,"129":0.8886268734931946,"130":-0.8477624654769897,"131":0.7490324378013611,"132":-1.0269228219985962,"133":-0.7665034532546997,