{"type":"LSTM","options":{"inputSize":31,"inputRange":31,"hiddenLayers":[20,20],"outputSize":31,"decayRate":0.999,"smoothEps":1e-8,"regc":0.000001,"clipval":5,"maxPredictionLength":100,"dataFormatter":{"values":["StringArray","List String","NumberArray","List Number","BooleanArray","List Boolean","AnyArray","List Any","Date","Map<number, boolean>","Map<Int, Boolean>","Map<number, any>","Map<Int, Any>","boolean","Boolean","Map<number, Date>","Map<Int, Date>","DateArray","List Date","Map<number, number>","Map<Int, Float>","number","Float","Map<number, string>","Map<Int, String>","string","String","any","Any"],"indexTable":{"S":0,"t":1,"r":2,"i":3,"n":4,"g":5,"A":6,"a":7,"y":8,"L":9,"s":10," ":11,"N":12,"u":13,"m":14,"b":15,"e":16,"B":17,"o":18,"l":19,"D":20,"M":21,"p":22,"<":23,",":24,">":25,"I":26,"F":27,"stop-input":28,"start-output":29,"unrecognized":30},"characterTable":{"0":"S","1":"t","2":"r","3":"i","4":"n","5":"g","6":"A","7":"a","8":"y","9":"L","10":"s","11":" ","12":"N","13":"u","14":"m","15":"b","16":"e","17":"B","18":"o","19":"l","20":"D","21":"M","22":"p","23":"<","24":",","25":">","26":"I","27":"F","28":null,"29":null,"30":null},"characters":["S","t","r","i","n","g","A","a","y","L","s"," ","N","u","m","b","e","B","o","l","D","M","p","<",",",">","I","F","stop-input","start-output","unrecognized"],"specialIndexes":[28,29,30]}},"input":{"rows":32,"columns":31,"weights":{"0":0.4938286244869232,"1":1.2003549337387085,"2":-0.5811647772789001,"3":-1.731757640838623,"4":1.4064222574234009,"5":1.2137629985809326,"6":-3.9711408615112305,"7":-0.44264912605285645,"8":-3.1665263175964355,"9":0.31652411818504333,"10":0.3855009377002716,"11":-1.5591938495635986,"12":-1.1317741870880127,"13":0.09487519413232803,"14":0.5131745934486389,"15":1.151539921760559,"16":0.9343383312225342,"17":1.623154640197754,"18":-1.505318522453308,"19":2.2535715103149414,"20":2.4848358631134033,"21":4.1603779792785645,"22":1.0085541009902954,"23":-0.8912530541419983,"24":0.22812335193157196,"25":-1.751640796661377,"26":1.5582727193832397,"27":0.4073256850242615,"28":2.056051731109619,"29":-0.4557264447212219,"30":0.7868024110794067,"31":-6.473701477050781,"32":-4.378083229064941,"33":-2.8548977375030518,"34":-1.3771371841430664,"35":-6.17526912689209,"36":-6.335186958312988,"37":0.8331708312034607,"38":7.68999719619751,"39":-1.8589227199554443,"40":-1.3207201957702637,"41":4.625687599182129,"42":-4.155221939086914,"43":-0.12260926514863968,"44":-1.4132013320922852,"45":-3.7915971279144287,"46":-0.5767703652381897,"47":1.992169976234436,"48":4.676654815673828,"49":3.397526741027832,"50":-0.20990905165672302,"51":1.5200636386871338,"52":3.913416862487793,"53":0.8215529322624207,"54":-0.5432136058807373,"55":3.5595569610595703,"56":4.8236260414123535,"57":0.8596504926681519,"58":0.1300370693206787,"59":3.044081211090088,"60":1.5440518856048584,"61":-3.975377082824707,"62":-0.07178635150194168,"63":-1.864035964012146,"64":0.07796243578195572,"65":0.6959963440895081,"66":0.6566135883331299,"67":-4.479241847991943,"68":0.5977336168289185,"69":1.4915558099746704,"70":1.6922049522399902,"71":4.204280853271484,"72":-0.6908000707626343,"73":-0.24410247802734375,"74":1.1285130977630615,"75":1.121597409248352,"76":-1.6354085206985474,"77":0.03303070366382599,"78":-0.7105157375335693,"79":-2.3659443855285645,"80":0.6135251522064209,"81":0.7277424931526184,"82":-1.3848298788070679,"83":-1.9138298034667969,"84":-1.3729922771453857,"85":-0.40934938192367554,"86":1.6538804769515991,"87":-1.7244815826416016,"88":-0.4308144748210907,"89":-0.3533886969089508,"90":-3.774637222290039,"91":0.09501022100448608,"92":0.13919697701931,"93":-0.006121621001511812,"94":-1.3210300207138062,"95":1.6988794803619385,"96":1.3508245944976807,"97":2.2067389488220215,"98":1.3080494403839111,"99":-0.20978766679763794,"100":-0.15151642262935638,"101":-1.0788785219192505,"102":-3.812908172607422,"103":2.155421495437622,"104":-1.0822398662567139,"105":-3.027177572250366,"106":-0.8113299012184143,"107":-0.041392773389816284,"108":-1.2932865619659424,"109":-0.299047589302063,"110":0.6498088240623474,"111":1.6067101955413818,"112":0.2639666199684143,"113":-0.43741998076438904,"114":0.11104415357112885,"115":0.8337523341178894,"116":-1.2402820587158203,"117":-0.060330022126436234,"118":-0.17101451754570007,"119":0.5449341535568237,"120":0.41859304904937744,"121":-0.5741058588027954,"122":-0.8679807186126709,"123":-0.6780514121055603,"124":-1.1521031856536865,"125":0.17301660776138306,"126":0.09706627577543259,"127":0.8549405336380005,"128":3.0605690479278564,"129":5.0670905113220215,"130":-4.565529823303223,"131":-1.59026038646698,"132":3.5653066635131836,"133":-1.0543707609176636,"134":0.4300321638584137,"135":0.6533238291740417,"136":1.660082459449768,"137":-0.17958900332450867,"138":1.1285887956619263,"139":0.4522326588630676,"140":0.4198670983314514,"141":-0.8524179458618164,"142":0.4872211515903473,"143":-0.12223441898822784,"144":-1.2850069999694824,"145":-0.39123839139938354,"146":-2.939650774002075,"147":-1.7366454601287842,"148":-1.0749804973602295,"149":0.39423641562461853,"150":1.9750951528549194,"151":-1.421105146408081,"152":-1.9880083799362183,"153":-2.6191675662994385,"154":-1.7740869522094727,"155":2.3954617977142334,"156":0.016954535618424416,"157":-1.3189541101455688,"158":-0.6135050058364868,"159":-1.121337652206421,"160":-0.5231807231903076,"161":-0.5108792185783386,"162":-1.2822352647781372,"163":-3.514009952545166,"164":-0.61566162109375,"165":0.17776121199131012,"166":-2.147334098815918,"167":-4.013481616973877,"168":0.4709181785583496,"169":-0.8487608432769775,"170":0.9280170202255249,"171":1.4325886964797974,"172":3.1610844135284424,"173":-2.779179334640503,"174":2.650158643722534,"175":2.2060158252716064,"176":1.9349104166030884,"177":2.4760236740112305,"178":-0.7001202702522278,"179":1.5053293704986572,"180":-1.3309190273284912,"181":0.7641360759735107,"182":0.6266284584999084,"183":2.7630956172943115,"184":-0.6203523874282837,"185":1.7344744205474854,"186":2.6835131645202637,"187":-5.113158702850342,"188":-3.215423345565796,"189":6.054670333862305,"190":6.120728492736816,"191":1.5251576900482178,"192":-4.922598361968994,"193":-2.6499874591827393,"194":-1.5171977281570435,"195":1.2468384504318237,"196":0.7544183731079102,"197":-7.214145183563232,"198":-6.524798393249512,"199":0.5935857892036438,"200":-0.15752379596233368,"201":-3.501513719558716,"202":1.0450133085250854,"203":-0.17547579109668732,"204":-1.9857611656188965,"205":4.223001480102539,"206":0.8814569711685181,"207":2.8228864669799805,"208":0.0036354882176965475,"209":-0.6122393608093262,"210":6.889761447906494,"211":2.8067126274108887,"212":4.418901443481445,"213":-1.315259575843811,"214":-1.488412618637085,"215":-0.44632765650749207,"216":3.4987049102783203,"217":2.0862460136413574,"218":-0.1574123203754425,"219":-1.1140788793563843,"220":2.760958194732666,"221":3.9089136123657227,"222":1.148025393486023,"223":-3.6989643573760986,"224":0.4816662669181824,"225":0.25472092628479004,"226":-0.1670365035533905,"227":-0.35165950655937195,"228":-2.239543914794922,"229":0.5344933867454529,"230":0.6222392916679382,"231":0.06679951399564743,"232":-0.27282753586769104,"233":-1.03640878200531,"234":-0.8159370422363281,"235":-1.2359802722930908,"236":2.105706214904785,"237":1.618346929550171,"238":0.7141345739364624,"239":-2.368478775024414,"240":-0.749717116355896,"241":0.9848529696464539,"242":-1.891119360923767,"243":0.8825833201408386,"244":-2.0125513076782227,"245":-1.0600318908691406,"246":6.001100540161133,"247":1.0896058082580566,"248":-2.088029384613037,"249":-0.3248043358325958,"250":-1.43806791305542,"251":1.6243629455566406,"252":1.386318564414978,"253":-0.2052614390850067,"254":-0.6149599552154541,"255":0.49459680914878845,"256":0.9933176636695862,"257":0.06349966675043106,"258":-1.4966683387756348,"259":-2.560269594192505,"260":-0.5534554719924927,"261":-0.41543814539909363,"262":0.4229418933391571,"263":-2.051272392272949,"264":2.9132096767425537,"265":0.46689745783805847,"266":2.305528402328491,"267":1.212566614151001,"268":-0.2700254023075104,"269":-1.4690179824829102,"270":-1.6523298025131226,"271":-2.003520965576172,"272":0.9894814491271973,"273":1.5109773874282837,"274":0.0438820980489254,"275":0.2972997725009918,"276":-1.1884056329727173,"277":0.5669430494308472,"278":-0.3784011900424957,"279":-4.399007797241211,"280":3.4386239051818848,"281":1.547804594039917,"282":-1.7728688716888428,"283":-1.563401699066162,"284":2.676295280456543,"285":0.4045865535736084,"286":2.4762184619903564,"287":3.0348849296569824,"288":-0.12233951687812805,"289":5.791289329528809,"290":-0.6254473328590393,"291":2.6283047199249268,"292":-0.06960900127887726,"293":3.2376585006713867,"294":2.831699848175049,"295":0.07538487017154694,"296":-0.7526410818099976,"297":1.401139736175537,"298":-0.13342063128948212,"299":2.380467414855957,"300":-2.0238449573516846,"301":-2.659630298614502,"302":-1.6008864641189575,"303":-2.7548482418060303,"304":1.3747663497924805,"305":-2.3961753845214844,"306":3.0695745944976807,"307":-2.7390196323394775,"308":0.6172558665275574,"309":-3.9608185291290283,"310":-0.428081750869751,"311":-5.102113723754883,"312":-1.219361662864685,"313":3.7977306842803955,"314":1.4658747911453247,"315":-2.32808256149292,"316":-1.9526301622390747,"317":-0.871399462223053,"318":-0.25137728452682495,"319":0.9178895950317383,"320":-1.0987364053726196,"321":-1.074300765991211,"322":-2.4117989540100098,"323":0.6976714134216309,"324":-1.119702696800232,"325":-1.4523749351501465,"326":-0.40534764528274536,"327":2.631512403488159,"328":1.7402496337890625,"329":-2.990187406539917,"330":-1.6110559701919556,"331":-0.0613599456846714,"332":-1.460050106048584,"333":1.9515446424484253,"334":1.7155290842056274,"335":1.1357336044311523,"336":0.3379749059677124,"337":-2.5360610485076904,"338":-0.2876114249229431,"339":1.2881797552108765,"340":-0.909010648727417,"341":1.3963741064071655,"342":-1.0749669075012207,"343":1.4152456521987915,"344":-2.2370145320892334,"345":3.1520183086395264,"346":2.6376614570617676,"347":-0.18936164677143097,"348":0.5162744522094727,"349":-1.4583348035812378,"350":-2.218315601348877,"351":1.522017002105713,"352":-0.830549955368042,"353":-2.443617820739746,"354":-2.2206807136535645,"355":1.6926333904266357,"356":-0.5195013284683228,"357":0.9136135578155518,"358":1.2638416290283203,"359":2.4555375576019287,"360":3.388441562652588,"361":2.7630631923675537,"362":-3.412766695022583,"363":1.0751153230667114,"364":-3.2922682762145996,"365":0.32723507285118103,"366":-0.9331027865409851,"367":2.053454875946045,"368":3.036231756210327,"369":-0.5386479496955872,"370":-1.28105890750885,"371":-0.31843510270118713,"372":-2.335440158843994,"373":-1.4391802549362183,"374":-0.8174547553062439,"375":0.3928225636482239,"376":-0.8307937979698181,"377":-0.5320783257484436,"378":-2.1175589561462402,"379":0.7752222418785095,"380":-0.1427631378173828,"381":0.8615033030509949,"382":0.012508961372077465,"383":2.679417610168457,"384":1.902830719947815,"385":2.7792394161224365,"386":-1.6873676776885986,"387":-1.1419647932052612,"388":-1.8412421941757202,"389":-0.024915054440498352,"390":1.5566023588180542,"391":-0.7591601014137268,"392":0.1719631850719452,"393":2.0032479763031006,"394":-2.414746046066284,"395":2.6902174949645996,"396":-0.28041693568229675,"397":-1.6772716045379639,"398":1.1340246200561523,"399":-4.375575065612793,"400":1.1344950199127197,"401":3.250819683074951,"402":-2.211796760559082,"403":0.13993608951568604,"404":-7.5105767250061035,"405":-8.003314018249512,"406":3.615290641784668,"407":-2.1881308555603027,"408":7.988818645477295,"409":-7.8207221031188965,"410":4.5697407722473145,"411":-0.09657794237136841,"412":-5.526379585266113,"413":6.600979328155518,"414":0.22420085966587067,"415":-0.7212527394294739,"416":-4.938132286071777,"417":2.918750286102295,"418":-4.9296698570251465,"419":3.385606527328491,"420":3.1683309078216553,"421":0.5099954009056091,"422":-0.38893184065818787,"423":-1.1210289001464844,"424":3.199449062347412,"425":0.07877378165721893,"426":4.351787567138672,"427":8.555948257446289,"428":-2.272916078567505,"429":9.955282211303711,"430":3.396650791168213,"431":4.345503330230713,"432":-1.4726289510726929,"433":-3.2192745208740234,"434":2.9289557933807373,"435":3.323723554611206,"436":-0.029444154351949692,"437":-4.301770210266113,"438":-1.037369728088379,"439":-0.7341387271881104,"440":-3.6654210090637207,"441":-1.6920756101608276,"442":-1.5408191680908203,"443":-1.271809697151184,"444":-2.222829818725586,"445":-2.079439878463745,"446":-1.3057440519332886,"447":1.8246015310287476,"448":-2.848090648651123,"449":-2.7621726989746094,"450":-1.4323471784591675,"451":3.8979055881500244,"452":-2.905076742172241,"453":4.37147855758667,"454":2.9087283611297607,"455":-1.726224422454834,"456":1.500542163848877,"457":-2.1624107360839844,"458":1.5135773420333862,"459":-2.0702717304229736,"460":-0.0698360726237297,"461":-0.7462529540061951,"462":3.5170481204986572,"463":1.8493632078170776,"464":4.638546943664551,"465":0.8887261748313904,"466":3.769987106323242,"467":2.340270757675171,"468":-4.532137393951416,"469":2.352804660797119,"470":0.8910566568374634,"471":0.05006212741136551,"472":1.9513403177261353,"473":3.510382652282715,"474":0.554223358631134,"475":0.07975894212722778,"476":5.209105014801025,"477":5.853795051574707,"478":1.1646051406860352,"479":-0.7897855043411255,"480":1.1021357774734497,"481":-3.7995944023132324,"482":1.688612937927246,"483":-1.1845735311508179,"484":-3.3695316314697266,"485":3.2765467166900635,"486":-2.4743309020996094,"487":-2.3134725093841553,"488":2.98832368850708,"489":-4.0930495262146,"490":-4.977949619293213,"491":-4.05260705947876,"492":-0.6190704703330994,"493":1.6907232999801636,"494":6.641238212585449,"495":-0.9139019846916199,"496":2.9965946674346924,"497":-0.41991689801216125,"498":-0.6511861681938171,"499":-2.4488911628723145,"500":-1.5048985481262207,"501":-4.723076820373535,"502":-0.6565664410591125,"503":-1.3046503067016602,"504":0.17736971378326416,"505":3.1947572231292725,"506":-5.667655944824219,"507":-0.08878728747367859,"508":0.3046630620956421,"509":6.862666606903076,"510":-3.532120943069458,"511":-1.4598592519760132,"512":-0.2769140601158142,"513":2.095060348510742,"514":-6.764524459838867,"515":0.6298940181732178,"516":-1.060606598854065,"517":-1.4858921766281128,"518":0.5044893026351929,"519":1.9957836866378784,"520":-1.2575368881225586,"521":-7.768285751342773,"522":-0.9529187083244324,"523":-1.17599356174469,"524":-0.9024456739425659,"525":0.9197325706481934,"526":5.901435852050781,"527":1.0387554168701172,"528":-1.2120757102966309,"529":-1.535176396369934,"530":2.7749011516571045,"531":2.319672107696533,"532":3.1537513732910156,"533":-0.9600051641464233,"534":-0.4393359124660492,"535":-2.5845870971679688,"536":-1.903234601020813,"537":2.0648560523986816,"538":-2.3165674209594727,"539":-3.375396490097046,"540":-2.88775372505188,"541":1.6021090745925903,"542":-1.25620436668396,"543":-0.4372956454753876,"544":1.3718596696853638,"545":0.2144702523946762,"546":-1.6238248348236084,"547":1.526719570159912,"548":2.2149817943573,"549":0.857100784778595,"550":-1.0854109525680542,"551":1.7079193592071533,"552":2.1195333003997803,"553":0.9416216611862183,"554":1.6127705574035645,"555":2.8080108165740967,"556":-1.0508829355239868,"557":-0.14498989284038544,"558":6.188207149505615,"559":6.246052265167236,"560":1.4121601581573486,"561":-3.633131504058838,"562":0.9549757838249207,"563":-3.8248331546783447,"564":3.5284926891326904,"565":-5.629980564117432,"566":4.244945049285889,"567":-0.5951693654060364,"568":-3.0774810314178467,"569":6.6178975105285645,"570":-0.30852699279785156,"571":3.577300786972046,"572":-2.6816394329071045,"573":0.9954514503479004,"574":-4.817277431488037,"575":-1.7543531656265259,"576":-5.740192890167236,"577":-3.0311880111694336,"578":-2.005755662918091,"579":-5.007036209106445,"580":-2.620492696762085,"581":0.4288964569568634,"582":-3.0161566734313965,"583":-4.787092685699463,"584":-6.667148113250732,"585":-4.664373874664307,"586":-2.2266621589660645,"587":-0.3604316711425781,"588":2.6216909885406494,"589":0.4777792990207672,"590":-2.414811849594116,"591":0.19237688183784485,"592":3.758967399597168,"593":3.8817310333251953,"594":5.509485721588135,"595":-6.9467267990112305,"596":-1.4977089166641235,"597":0.36192578077316284,"598":-0.49832645058631897,"599":4.247677326202393,"600":-4.697595596313477,"601":-1.00296151638031,"602":-1.2293341159820557,"603":0.896024763584137,"604":-0.47866421937942505,"605":1.1001873016357422,"606":-0.5655962824821472,"607":-3.349541425704956,"608":4.4751739501953125,"609":1.1812447309494019,"610":1.3883239030838013,"611":1.4498018026351929,"612":-4.404092311859131,"613":-0.31010279059410095,"614":3.126862049102783,"615":8.097245216369629,"616":-0.577199399471283,"617":-1.1767196655273438,"618":-2.1264591217041016,"619":1.0601122379302979,"620":1.9240401983261108,"621":0.6777690649032593,"622":0.01891457475721836,"623":0.9642859101295471,"624":-0.7204062342643738,"625":11.405767440795898,"626":-4.018060684204102,"627":1.0650445222854614,"628":-1.034661889076233,"629":-0.6676554679870605,"630":3.445214033126831,"631":1.0981725454330444,"632":0.6479942202568054,"633":-6.24236536026001,"634":2.448854923248291,"635":0.9813636541366577,"636":-1.9759429693222046,"637":0.32529136538505554,"638":0.6282951831817627,"639":2.3320398330688477,"640":6.829622268676758,"641":2.126538038253784,"642":-1.7636075019836426,"643":1.9947583675384521,"644":-1.923802375793457,"645":1.0703070163726807,"646":3.049098253250122,"647":2.6205646991729736,"648":3.55884051322937,"649":0.7016546726226807,"650":-1.9268559217453003,"651":4.0603556632995605,"652":2.678518533706665,"653":6.204984664916992,"654":-1.3694801330566406,"655":7.124022483825684,"656":-0.9063536524772644,"657":-4.967165946960449,"658":-4.5751824378967285,"659":2.016272783279419,"660":0.3332001268863678,"661":-3.57950758934021,"662":-2.6717529296875,"663":-0.19477839767932892,"664":-0.8092862963676453,"665":3.908905029296875,"666":2.092371702194214,"667":-6.513356685638428,"668":-6.3546342849731445,"669":2.5216224193573,"670":1.8394577503204346,"671":5.29036808013916,"672":-2.267894744873047,"673":2.0998728275299072,"674":-3.9433538913726807,"675":-1.2522352933883667,"676":-0.22386623919010162,"677":1.6015403270721436,"678":4.779839992523193,"679":-3.4890780448913574,"680":1.5105592012405396,"681":2.982135534286499,"682":7.1250901222229,"683":2.640852451324463,"684":4.308654308319092,"685":-5.456792831420898,"686":1.250829815864563,"687":-2.648188352584839,"688":-0.27785223722457886,"689":-3.294107437133789,"690":-0.9784563779830933,"691":-0.5739622116088867,"692":-3.7322709560394287,"693":0.5271357893943787,"694":1.2715044021606445,"695":1.7244112491607666,"696":-3.26352596282959,"697":0.9946413636207581,"698":2.0742902755737305,"699":0.48373210430145264,"700":-7.539670467376709,"701":0.7649070024490356,"702":-3.905928134918213,"703":-6.302661418914795,"704":-0.4678691327571869,"705":2.6948680877685547,"706":0.08978564292192459,"707":-7.462141990661621,"708":-5.533977508544922,"709":-4.232454299926758,"710":1.2510329484939575,"711":4.29484748840332,"712":5.516599178314209,"713":-0.9346333146095276,"714":-2.4515867233276367,"715":4.3738274574279785,"716":-10.436406135559082,"717":-6.841511249542236,"718":-4.107635974884033,"719":7.837375640869141,"720":4.0278239250183105,"721":-2.4100987911224365,"722":3.7183103561401367,"723":6.600566864013672,"724":6.932224750518799,"725":-1.720015048980713,"726":-3.6709022521972656,"727":0.40531593561172485,"728":3.8400392532348633,"729":-1.3322505950927734,"730":2.7181105613708496,"731":2.9980344772338867,"732":-0.28711193799972534,"733":-1.1026911735534668,"734":-0.9078196287155151,"735":6.740424633026123,"736":2.630941152572632,"737":2.8403162956237793,"738":-2.129969358444214,"739":-4.377597808837891,"740":2.3349146842956543,"741":0.6714932322502136,"742":-6.385452747344971,"743":-1.0153311491012573,"744":8.78037166595459,"745":2.8510239124298096,"746":-0.8313368558883667,"747":-5.205105304718018,"748":-3.893665075302124,"749":-1.4774367809295654,"750":3.840397596359253,"751":-1.9704879522323608,"752":-0.03297603875398636,"753":-5.643481731414795,"754":-4.589299201965332,"755":5.59187650680542,"756":3.7163474559783936,"757":-0.4496152997016907,"758":-0.8525530695915222,"759":0.9496763944625854,"760":-3.685887336730957,"761":1.9275825023651123,"762":-3.2936651706695557,"763":5.078364372253418,"764":-2.2930657863616943,"765":-3.5642142295837402,"766":-2.0910255908966064,"767":5.278204917907715,"768":-0.02740185707807541,"769":-10.961618423461914,"770":0.3352462947368622,"771":0.5864366292953491,"772":-1.4108988046646118,"773":-2.6250710487365723,"774":3.5650386810302734,"775":-1.991304874420166,"776":-3.8561933040618896,"777":7.769169807434082,"778":-6.402822494506836,"779":-0.7752978205680847,"780":-8.087709426879883,"781":5.834604740142822,"782":2.032119035720825,"783":-2.1973018646240234,"784":1.8950505256652832,"785":2.7011139392852783,"786":-0.7369667887687683,"787":-0.1370505392551422,"788":5.619040489196777,"789":-5.908724308013916,"790":-1.990977168083191,"791":0.7927545309066772,"792":4.493912220001221,"793":-3.4572343826293945,"794":2.711190938949585,"795":-2.022322654724121,"796":-4.597991466522217,"797":2.768319606781006,"798":-1.9131633043289185,"799":-4.849189281463623,"800":-5.283993244171143,"801":-1.3088101148605347,"802":0.7982186675071716,"803":3.0507073402404785,"804":-3.085958480834961,"805":4.546171188354492,"806":-1.6044034957885742,"807":-4.062073707580566,"808":1.3851871490478516,"809":3.1325454711914062,"810":-0.6410917043685913,"811":3.147252082824707,"812":5.463164806365967,"813":1.6888052225112915,"814":-5.230467796325684,"815":-9.061617851257324,"816":5.536670207977295,"817":-2.2736587524414062,"818":-7.072297096252441,"819":-3.047562599182129,"820":-0.7833014130592346,"821":-8.011693954467773,"822":-1.251641035079956,"823":5.099935054779053,"824":4.544851779937744,"825":6.450272560119629,"826":0.5286102294921875,"827":-4.9953107833862305,"828":4.049098968505859,"829":-0.9051927328109741,"830":-4.352186679840088,"831":-5.432696342468262,"832":-2.4840872287750244,"833":-0.852409303188324,"834":0.9149081110954285,"835":-9.581162452697754,"836":-4.054804801940918,"837":0.04412898048758507,"838":6.362267017364502,"839":8.59086799621582,"840":-2.3567521572113037,"841":-0.85538649559021,"842":-0.44635534286499023,"843":4.033487319946289,"844":-8.078991889953613,"845":1.167647123336792,"846":-5.293042182922363,"847":0.12483832985162735,"848":2.608077049255371,"849":4.698448657989502,"850":1.5962984561920166,"851":1.0217411518096924,"852":3.5658140182495117,"853":-3.006513833999634,"854":-1.8001495599746704,"855":-3.1205062866210938,"856":-3.5688867568969727,"857":1.8852518796920776,"858":-4.0586442947387695,"859":4.192342758178711,"860":4.371182441711426,"861":-9.414916038513184,"862":1.1624200344085693,"863":-6.484432697296143,"864":-4.396569728851318,"865":-3.949669599533081,"866":-1.851496696472168,"867":5.127533435821533,"868":0.2856997549533844,"869":4.81022310256958,"870":-7.748363971710205,"871":4.488710880279541,"872":-7.331045627593994,"873":0.7165440320968628,"874":-6.146493911743164,"875":-9.381673812866211,"876":-5.385885238647461,"877":-0.9203977584838867,"878":-5.280848503112793,"879":-6.95724630355835,"880":-2.4367785453796387,"881":7.64188289642334,"882":-4.483835220336914,"883":0.07531333714723587,"884":2.5498039722442627,"885":2.8563640117645264,"886":-7.07997465133667,"887":3.602616548538208,"888":1.1127136945724487,"889":-3.1163294315338135,"890":2.746263265609741,"891":-2.7646589279174805,"892":2.740705728530884,"893":3.2056970596313477,"894":7.583313941955566,"895":-5.54085111618042,"896":2.604893922805786,"897":-2.0755462646484375,"898":10.243840217590332,"899":-0.6481029987335205,"900":1.1243664026260376,"901":0.2662902772426605,"902":-0.85680091381073,"903":-2.6077613830566406,"904":0.28176137804985046,"905":0.3932977318763733,"906":-0.2471567988395691,"907":0.45572757720947266,"908":0.4085855484008789,"909":-0.39927688241004944,"910":0.7093383073806763,"911":0.8141730427742004,"912":-0.6857622861862183,"913":2.041116952896118,"914":1.0962580442428589,"915":0.012506633065640926,"916":-0.9899044036865234,"917":-0.6876617074012756,"918":-0.4273979067802429,"919":-0.1390911191701889,"920":0.3600676655769348,"921":2.374988555908203,"922":0.4171214699745178,"923":0.20991000533103943,"924":-1.0058130025863647,"925":-0.504345178604126,"926":1.0156376361846924,"927":-0.45393601059913635,"928":-1.9635320901870728,"929":-0.45738959312438965,"930":-1.5407048463821411,"931":0.2805415093898773,"932":-0.5343557000160217,"933":-1.5258067846298218,"934":0.27562180161476135,"935":1.514581322669983,"936":-1.5882924795150757,"937":1.0677231550216675,"938":1.4943455457687378,"939":0.46394574642181396,"940":0.5640323758125305,"941":0.315471351146698,"942":1.4817742109298706,"943":-1.829489827156067,"944":2.5334391593933105,"945":1.5441879034042358,"946":2.7360646724700928,"947":-1.2347983121871948,"948":1.5524077415466309,"949":0.8259909749031067,"950":1.2475918531417847,"951":0.230637326836586,"952":-1.1847738027572632,"953":-3.1840643882751465,"954":0.4998267590999603,"955":1.9159176349639893,"956":0.5310695767402649,"957":1.8345059156417847,"958":-1.4887268543243408,"959":-0.892663300037384,"960":-1.456803321838379,"961":-0.04246316850185394,"962":0.04772438481450081,"963":-0.05533917620778084,"964":0.017000000923871994,"965":-0.01836126297712326,"966":0.04150834307074547,"967":0.017369309440255165,"968":-0.06683149933815002,"969":0.031229155138134956,"970":0.07188468426465988,"971":0.008508696220815182,"972":0.04394722357392311,"973":0.008279841393232346,"974":-0.018817102536559105,"975":-0.017368558794260025,"976":0.028385980054736137,"977":0.002306113950908184,"978":0.07558339089155197,"979":0.04626444727182388,"980":0.01629013754427433,"981":0.016544809564948082,"982":0.07229254394769669,"983":0.037724580615758896,"984":0.020581470802426338,"985":-0.04677581042051315,"986":0.06158556044101715,"987":0.011502520181238651,"988":0.06925822049379349,"989":-0.028543267399072647,"990":0.06497533619403839,"991":-0.05245008319616318}},"hiddenLayers":[{"inputMatrix":{"rows":20,"columns":31,"weights":{"0":-0.205010324716568,"1":0.6080053448677063,"2":0.9106160402297974,"3":-1.8787022829055786,"4":-1.0738534927368164,"5":1.2324265241622925,"6":-0.20086851716041565,"7":0.17553232610225677,"8":-0.34161466360092163,"9":-0.5647534728050232,"10":2.847308397293091,"11":2.1000702381134033,"12":0.18777938187122345,"13":-1.7979973554611206,"14":1.2159889936447144,"15":0.8830897212028503,"16":0.28389161825180054,"17":0.15411442518234253,"18":0.6174373626708984,"19":0.13203419744968414,"20":1.3193954229354858,"21":0.2543472349643707,"22":1.0607547760009766,"23":0.9827543497085571,"24":-0.9563990831375122,"25":1.1088374853134155,"26":0.3281085193157196,"27":1.4084749221801758,"28":1.6470073461532593,"29":-1.0725919008255005,"30":-0.1408439576625824,"31":1.1759448051452637,"32":-1.5348519086837769,"33":-0.08312714844942093,"34":-1.388608694076538,"35":-3.2864320278167725,"36":-1.2181220054626465,"37":-0.1717972606420517,"38":-0.5123263001441956,"39":0.03972044587135315,"40":1.2188005447387695,"41":-0.21443399786949158,"42":3.770688533782959,"43":1.3289364576339722,"44":0.8651140928268433,"45":-0.5091918110847473,"46":1.3478295803070068,"47":-2.2234914302825928,"48":-0.5501859188079834,"49":-1.8423006534576416,"50":-3.3459243774414062,"51":-2.5375726222991943,"52":0.6226349472999573,"53":0.6038063764572144,"54":2.0656962394714355,"55":-0.30828049778938293,"56":-2.1470882892608643,"57":-0.3311071991920471,"58":0.4825649857521057,"59":-1.1196608543395996,"60":-0.9573062658309937,"61":1.5729178190231323,"62":0.42053037881851196,"63":-0.853991687297821,"64":-0.3459881544113159,"65":-0.20963126420974731,"66":0.25493934750556946,"67":-2.7983152866363525,"68":-0.30843108892440796,"69":-2.782731294631958,"70":0.35165733098983765,"71":1.7232168912887573,"72":-2.9081132411956787,"73":-1.4617692232131958,"74":-1.2774962186813354,"75":0.08486128598451614,"76":-0.495240718126297,"77":1.0345591306686401,"78":0.7866644859313965,"79":-1.0361249446868896,"80":-0.9372504949569702,"81":-0.11429143697023392,"82":-0.7288926243782043,"83":-2.2402496337890625,"84":1.5384860038757324,"85":-0.8399569392204285,"86":2.425581455230713,"87":-0.8387751579284668,"88":-1.162827491760254,"89":0.10708262771368027,"90":-2.2038748264312744,"91":0.45022305846214294,"92":1.8026764392852783,"93":1.3242242336273193,"94":0.5068936347961426,"95":-0.6476807594299316,"96":-5.231478691101074,"97":-2.4097352027893066,"98":-2.7468583583831787,"99":0.6761457324028015,"100":2.969611167907715,"101":-0.5056756734848022,"102":1.4577760696411133,"103":-0.21237778663635254,"104":0.696282684803009,"105":-0.8902537226676941,"106":-0.07403672486543655,"107":0.5337709188461304,"108":0.7888854742050171,"109":0.4056718051433563,"110":-0.5634319186210632,"111":-0.36982324719429016,"112":0.24430666863918304,"113":0.38576945662498474,"114":0.07879430800676346,"115":1.5552953481674194,"116":-0.6665073037147522,"117":1.1395444869995117,"118":-1.5750765800476074,"119":0.02475806139409542,"120":2.6245436668395996,"121":-0.1770939975976944,"122":0.2821851074695587,"123":0.48118072748184204,"124":-1.0318973064422607,"125":-0.3841019570827484,"126":-1.4647352695465088,"127":0.6438124775886536,"128":0.7839714884757996,"129":0.248626247048378,"130":-1.0333250761032104,"131":1.2489148378372192,"132":0.5498464703559875,"133":-1.2345099449157715,"134":0.5536811351776123,"135":-0.4649960696697235,"136":-1.2339096069335938,"137":-0.8704001903533936,"138":1.3071271181106567,"139":-0.8112775087356567,"140":1.036120891571045,"141":1.526458740234375,"142":2.4178307056427,"143":0.13105036318302155,"144":-0.08968231081962585,"145":-1.0810798406600952,"146":-1.0464056730270386,"147":-1.2405749559402466,"148":-0.24645790457725525,"149":1.5011729001998901,"150":1.3110766410827637,"151":0.8991906642913818,"152":0.1984475702047348,"153":-0.05422881618142128,"154":-1.2814537286758423,"155":-0.3370914161205292,"156":1.1607130765914917,"157":1.8278887271881104,"158":-1.9387444257736206,"159":0.48890185356140137,"160":-1.9774234294891357,"161":1.8248727321624756,"162":-0.3798157870769501,"163":1.2846146821975708,"164":1.5333303213119507,"165":-1.0268994569778442,"166":1.2694424390792847,"167":2.111990451812744,"168":0.7595579624176025,"169":-1.5750713348388672,"170":-1.3128890991210938,"171":-1.401450514793396,"172":-1.6896378993988037,"173":0.19945873320102692,"174":-1.6098839044570923,"175":-1.5212217569351196,"176":-1.420722484588623,"177":-0.9288585186004639,"178":0.29382652044296265,"179":-2.9213411808013916,"180":-1.09745192527771,"181":-2.086160898208618,"182":-0.8393557071685791,"183":-1.0959805250167847,"184":1.0337073802947998,"185":0.07237079739570618,"186":-1.138040542602539,"187":-0.9022107720375061,"188":-0.07846816629171371,"189":-0.3269117772579193,"190":-0.5303789377212524,"191":-0.8267126679420471,"192":0.38900965452194214,"193":0.7039219737052917,"194":1.3095388412475586,"195":2.6301119327545166,"196":-0.0018476194236427546,"197":-0.06043928861618042,"198":0.2505691349506378,"199":0.18718303740024567,"200":-0.39028650522232056,"201":0.013344859704375267,"202":0.5772340297698975,"203":-1.957789659500122,"204":2.9504804611206055,"205":-0.9964308142662048,"206":0.07503391057252884,"207":-0.009201622568070889,"208":-2.3221793174743652,"209":-0.6808881759643555,"210":0.39580386877059937,"211":2.0822746753692627,"212":-0.15606090426445007,"213":0.034518763422966,"214":-1.6442922353744507,"215":-0.027143148705363274,"216":-2.2522757053375244,"217":-1.671376347541809,"218":-2.3336942195892334,"219":-1.2695711851119995,"220":0.725766658782959,"221":-0.5410549640655518,"222":1.3167600631713867,"223":-0.11546681821346283,"224":1.3750799894332886,"225":0.22563624382019043,"226":-1.0431956052780151,"227":2.423905611038208,"228":0.4404546022415161,"229":-1.44224214553833,"230":-1.6426026821136475,"231":1.8420170545578003,"232":-2.336596965789795,"233":0.555915355682373,"234":0.39142629504203796,"235":3.6857426166534424,"236":-0.5967636108398438,"237":-0.10345356166362762,"238":0.14145509898662567,"239":-1.8944116830825806,"240":0.04533052444458008,"241":0.5438713431358337,"242":3.4651267528533936,"243":0.5349434018135071,"244":0.6613531112670898,"245":0.41348832845687866,"246":-0.7854354381561279,"247":-2.2522599697113037,"248":-0.27096205949783325,"249":4.401148319244385,"250":0.9439430832862854,"251":-1.733934760093689,"252":-0.522471010684967,"253":0.17385904490947723,"254":-1.0884859561920166,"255":-0.6097668409347534,"256":0.02028012089431286,"257":0.12606702744960785,"258":-0.9556049704551697,"259":1.1798464059829712,"260":0.6395084857940674,"261":-0.12349823117256165,"262":0.06749822944402695,"263":-0.20106138288974762,"264":0.6335780620574951,"265":1.2207165956497192,"266":-1.8894637823104858,"267":2.198854684829712,"268":0.30924317240715027,"269":-1.9540526866912842,"270":1.2454968690872192,"271":-0.05740486830472946,"272":-2.105149745941162,"273":-1.6553516387939453,"274":-0.2582266330718994,"275":0.8177380561828613,"276":2.417543411254883,"277":-0.9350990653038025,"278":0.8921923637390137,"279":-1.1182618141174316,"280":1.623863935470581,"281":0.5327784419059753,"282":-0.25666579604148865,"283":0.629853367805481,"284":3.251014232635498,"285":-0.418928861618042,"286":-0.03194252401590347,"287":0.5273873805999756,"288":0.7783602476119995,"289":-0.5707088708877563,"290":-0.13473111391067505,"291":-0.15542761981487274,"292":-3.9639813899993896,"293":3.0834381580352783,"294":-0.2319522500038147,"295":-0.7777295112609863,"296":-0.4229603409767151,"297":1.5141074657440186,"298":-0.587675929069519,"299":-0.4152008593082428,"300":0.05540449917316437,"301":-0.5310202836990356,"302":-0.8456705808639526,"303":-0.19670771062374115,"304":1.5765094757080078,"305":-0.34440168738365173,"306":2.033743143081665,"307":-0.1071641817688942,"308":-1.3867154121398926,"309":-1.5214029550552368,"310":-0.057938624173402786,"311":0.0721139907836914,"312":-1.2760796546936035,"313":2.875101089477539,"314":1.0302202701568604,"315":-0.9375866055488586,"316":0.27426010370254517,"317":-1.488696575164795,"318":0.9998680353164673,"319":1.2763532400131226,"320":-1.0310550928115845,"321":-0.8912914395332336,"322":0.3927761912345886,"323":2.256704330444336,"324":-1.228922724723816,"325":-0.9946462512016296,"326":1.3835052251815796,"327":0.38064560294151306,"328":-1.9409339427947998,"329":0.5715985894203186,"330":-2.625704526901245,"331":-1.2028263807296753,"332":-1.530232548713684,"333":-0.2798144221305847,"334":-0.002903368091210723,"335":1.5626477003097534,"336":-0.05850352719426155,"337":-3.439530372619629,"338":-0.9974172711372375,"339":0.2958829402923584,"340":2.4779655933380127,"341":-2.0943689346313477,"342":0.5796800851821899,"343":-0.668563187122345,"344":0.4005352854728699,"345":0.9374685287475586,"346":-0.602766752243042,"347":-0.09905139356851578,"348":1.51932954788208,"349":1.1647883653640747,"350":0.35100510716438293,"351":-0.05914571136236191,"352":0.5209448933601379,"353":2.6691651344299316,"354":-0.12158460915088654,"355":-1.1672329902648926,"356":-0.06959902495145798,"357":1.7474192380905151,"358":0.9235325455665588,"359":-0.08854392915964127,"360":0.7166438698768616,"361":-1.1859402656555176,"362":-0.8603569269180298,"363":-2.844799280166626,"364":-0.8759756684303284,"365":-0.29151982069015503,"366":-0.030503232032060623,"367":-2.4175007343292236,"368":-1.624675989151001,"369":-2.085556745529175,"370":1.8818373680114746,"371":-2.043302059173584,"372":-1.045102596282959,"373":0.7839041948318481,"374":0.3773866295814514,"375":-2.7927215099334717,"376":-1.248496413230896,"377":1.3305068016052246,"378":2.259204864501953,"379":0.6625264286994934,"380":1.852623701095581,"381":-0.6947071552276611,"382":1.8476449251174927,"383":2.4780893325805664,"384":1.7462407350540161,"385":-0.8958483338356018,"386":1.7013132572174072,"387":1.0868028402328491,"388":-0.29527103900909424,"389":-0.6989790797233582,"390":-0.08930753171443939,"391":0.2656775116920471,"392":0.554663360118866,"393":0.20634739100933075,"394":-1.0078150033950806,"395":0.4375605881214142,"396":-2.7239253520965576,"397":0.4385611414909363,"398":-0.7907185554504395,"399":1.2991681098937988,"400":-0.7065182328224182,"401":-2.449772357940674,"402":-0.6474142670631409,"403":-0.7084057331085205,"404":0.8705746531486511,"405":-1.5534169673919678,"406":-0.0006047688657417893,"407":1.4588593244552612,"408":2.408768653869629,"409":-0.996131181716919,"410":0.4728245437145233,"411":1.0180381536483765,"412":-0.16646423935890198,"413":1.3998273611068726,"414":-0.7677760124206543,"415":0.8100427985191345,"416":-2.5638232231140137,"417":3.7341954708099365,"418":1.181881070137024,"419":1.4588834047317505,"420":-2.2794911861419678,"421":1.2924821376800537,"422":0.07840188592672348,"423":1.1223593950271606,"424":1.2767757177352905,"425":-0.9097439050674438,"426":-1.8344683647155762,"427":0.05048748105764389,"428":0.3243475556373596,"429":1.6851367950439453,"430":1.3132537603378296,"431":-2.3951523303985596,"432":-0.5272428393363953,"433":-0.9096217751502991,"434":2.203415632247925,"435":-0.0516841858625412,"436":2.520362377166748,"437":0.8021032810211182,"438":1.2728029489517212,"439":0.20627637207508087,"440":-2.573429584503174,"441":-2.3962197303771973,"442":0.8295164108276367,"443":0.48106756806373596,"444":-0.2496660053730011,"445":1.593536615371704,"446":0.26014313101768494,"447":1.1391005516052246,"448":-0.49337998032569885,"449":0.20312082767486572,"450":-1.6925183534622192,"451":-0.2608214020729065,"452":0.3904294967651367,"453":-3.1371376514434814,"454":0.525265097618103,"455":0.7124228477478027,"456":0.1406387984752655,"457":2.4482226371765137,"458":-2.682168960571289,"459":2.226557731628418,"460":0.9520975351333618,"461":-1.7088395357131958,"462":-0.15910056233406067,"463":1.6410377025604248,"464":-0.17143681645393372,"465":2.186302900314331,"466":0.5942919850349426,"467":0.7560858726501465,"468":-2.6106109619140625,"469":0.20623470842838287,"470":-0.9896272420883179,"471":0.40326371788978577,"472":2.381624937057495,"473":1.9547295570373535,"474":0.9430299401283264,"475":-1.056614637374878,"476":0.217265322804451,"477":1.811843991279602,"478":0.5549874305725098,"479":0.4924742877483368,"480":1.698319435119629,"481":-0.5254725813865662,"482":-1.160527229309082,"483":-3.2389135360717773,"484":-0.684637725353241,"485":-0.1777229607105255,"486":-1.5105674266815186,"487":-0.0943201333284378,"488":0.1698044091463089,"489":0.8675713539123535,"490":-1.9139184951782227,"491":-1.9081225395202637,"492":1.446096420288086,"493":-2.288468599319458,"494":1.8142648935317993,"495":2.7928643226623535,"496":0.9364789724349976,"497":1.3873358964920044,"498":1.9535421133041382,"499":-1.5293604135513306,"500":1.515252947807312,"501":-2.1425347328186035,"502":2.9490578174591064,"503":-1.835939884185791,"504":1.8556451797485352,"505":0.7952032685279846,"506":-0.6357065439224243,"507":0.5155522227287292,"508":1.718526840209961,"509":0.7170605063438416,"510":-0.07361926138401031,"511":0.4258273243904114,"512":-1.0378021001815796,"513":-3.1004745960235596,"514":-2.004786252975464,"515":-2.5316720008850098,"516":-1.724731206893921,"517":-2.1681089401245117,"518":-0.26916518807411194,"519":2.407548189163208,"520":-2.5008130073547363,"521":0.17464609444141388,"522":-3.793259620666504,"523":0.769919216632843,"524":-3.1089212894439697,"525":0.8633976578712463,"526":1.2671853303909302,"527":0.8366672396659851,"528":-1.2097702026367188,"529":-1.0463042259216309,"530":-0.702396810054779,"531":1.0440958738327026,"532":2.7817482948303223,"533":-2.247576951980591,"534":0.4550173878669739,"535":-2.661870241165161,"536":-1.755751132965088,"537":3.459113359451294,"538":-1.6713206768035889,"539":-0.28120294213294983,"540":0.20891845226287842,"541":0.40896981954574585,"542":1.5814549922943115,"543":-0.48744016885757446,"544":0.9669147729873657,"545":-0.12159428745508194,"546":0.8446046710014343,"547":3.4470036029815674,"548":1.2125771045684814,"549":-0.11471191793680191,"550":-0.6148067712783813,"551":-2.0716283321380615,"552":1.3823758363723755,"553":3.1684138774871826,"554":-0.3189895451068878,"555":2.3918662071228027,"556":-0.1528010368347168,"557":-1.0617481470108032,"558":-2.6257498264312744,"559":1.712916374206543,"560":-1.235948085784912,"561":-1.348042368888855,"562":-2.5055487155914307,"563":-0.653251051902771,"564":-1.9047266244888306,"565":1.6945717334747314,"566":0.13899628818035126,"567":1.9300044775009155,"568":0.5020010471343994,"569":0.3996273875236511,"570":2.4950857162475586,"571":0.8953344821929932,"572":-0.5414223074913025,"573":2.985417604446411,"574":1.5429664850234985,"575":1.3755520582199097,"576":-0.8185588717460632,"577":3.319352626800537,"578":0.7855862379074097,"579":0.5976448059082031,"580":0.2467222362756729,"581":-0.17840975522994995,"582":0.8799319863319397,"583":0.6614121198654175,"584":1.6451345682144165,"585":-0.3331478238105774,"586":1.9313961267471313,"587":1.3461788892745972,"588":1.554221272468567,"589":-0.14389042556285858,"590":2.5370395183563232,"591":2.075268507003784,"592":-1.3156486749649048,"593":0.4826536476612091,"594":1.2070119380950928,"595":1.0726556777954102,"596":0.8231031894683838,"597":1.439076542854309,"598":-0.37732934951782227,"599":0.34946003556251526,"600":1.9535164833068848,"601":1.4482731819152832,"602":-0.872684895992279,"603":2.0461177825927734,"604":1.4735071659088135,"605":1.0842841863632202,"606":0.7460857033729553,"607":-0.20466072857379913,"608":1.2158751487731934,"609":0.2486683428287506,"610":-0.8619352579116821,"611":0.9152724742889404,"612":0.22369638085365295,"613":-1.5291287899017334,"614":-0.8762602210044861,"615":-1.6537476778030396,"616":1.118674397468567,"617":1.9505982398986816,"618":-0.7357407808303833,"619":-0.6124365925788879}},"inputHidden":{"rows":20,"columns":20,"weights":{"0":-0.5916782021522522,"1":-0.2460237741470337,"2":-1.515384554862976,"3":0.14387665688991547,"4":-1.0156114101409912,"5":3.405880928039551,"6":1.5442758798599243,"7":3.081303358078003,"8":2.463164806365967,"9":1.8087211847305298,"10":1.8105534315109253,"11":1.0527714490890503,"12":3.232825994491577,"13":-1.204830288887024,"14":1.436920166015625,"15":-2.049560546875,"16":0.9549587965011597,"17":-0.43606680631637573,"18":2.386528730392456,"19":-0.5804358720779419,"20":-0.8259885907173157,"21":-0.022450264543294907,"22":1.0545405149459839,"23":0.3914077579975128,"24":-1.1321872472763062,"25":0.38007867336273193,"26":0.5651588439941406,"27":2.0264790058135986,"28":-0.36346733570098877,"29":0.6518285274505615,"30":-2.2970945835113525,"31":0.3880581855773926,"32":-1.293533205986023,"33":-3.545011520385742,"34":-1.2183504104614258,"35":-1.5695849657058716,"36":1.2366368770599365,"37":0.04560714587569237,"38":-0.5102065801620483,"39":0.7783973217010498,"40":0.8286268711090088,"41":-2.2749383449554443,"42":-0.019848426803946495,"43":0.31416457891464233,"44":-1.8179094791412354,"45":2.28326416015625,"46":3.0000715255737305,"47":-0.835797131061554,"48":0.3974326550960541,"49":-0.009140637703239918,"50":1.0493193864822388,"51":-0.7563133835792542,"52":2.5098965167999268,"53":-2.4314424991607666,"54":0.6090655326843262,"55":-0.3608493208885193,"56":-2.719308614730835,"57":-2.4313368797302246,"58":-0.8963459730148315,"59":1.6421196460723877,"60":1.901052713394165,"61":0.6322157382965088,"62":-0.0025847835931926966,"63":-0.7946416735649109,"64":2.2997004985809326,"65":0.39299479126930237,"66":-0.9003250598907471,"67":-0.992047131061554,"68":1.3950949907302856,"69":-1.7120331525802612,"70":-0.07349934428930283,"71":0.481040894985199,"72":0.41090795397758484,"73":0.547288179397583,"74":-0.011171096935868263,"75":-0.9868578910827637,"76":0.5419529676437378,"77":-2.1696319580078125,"78":-0.18316832184791565,"79":-0.8022969365119934,"80":2.484665632247925,"81":-0.5421676635742188,"82":-4.534362316131592,"83":-3.7780258655548096,"84":2.4951484203338623,"85":6.245699882507324,"86":-3.2904164791107178,"87":0.3468773365020752,"88":3.153848171234131,"89":-1.4048871994018555,"90":2.054927110671997,"91":-0.585616409778595,"92":1.6812858581542969,"93":0.6560678482055664,"94":-0.7671206593513489,"95":-2.3297743797302246,"96":-0.6356081962585449,"97":0.7551892399787903,"98":-3.4825730323791504,"99":-2.951233386993408,"100":-1.008892297744751,"101":0.4377772808074951,"102":0.8634403944015503,"103":-1.7253670692443848,"104":1.0966414213180542,"105":0.027921773493289948,"106":0.47900810837745667,"107":-0.44220593571662903,"108":-0.9233248233795166,"109":0.874064028263092,"110":-1.1181422472000122,"111":1.8550357818603516,"112":-0.3384760618209839,"113":-2.039567232131958,"114":-0.3131476640701294,"115":0.5781952142715454,"116":0.8639876842498779,"117":-0.6883726716041565,"118":2.0890073776245117,"119":-1.5502856969833374,"120":-0.46681109070777893,"121":0.9986233115196228,"122":1.881528615951538,"123":0.9694069623947144,"124":2.081512928009033,"125":0.327366441488266,"126":-1.6802297830581665,"127":-0.5184903740882874,"128":4.918459415435791,"129":-1.5417661666870117,"130":0.7398818135261536,"131":-1.4658561944961548,"132":-0.3537873327732086,"133":1.718824028968811,"134":-1.2682870626449585,"135":-0.002032390097156167,"136":-0.9149894118309021,"137":-3.590343475341797,"138":3.0092179775238037,"139":-4.512388706207275,"140":-0.7337265610694885,"141":1.8688801527023315,"142":1.4594295024871826,"143":3.3153393268585205,"144":-0.6543419361114502,"145":-0.8639404773712158,"146":-0.4077399671077728,"147":-1.6818385124206543,"148":-1.2453867197036743,"149":1.5076024532318115,"150":-4.1505608558654785,"151":3.7291293144226074,"152":-0.7811468839645386,"153":-2.5155560970306396,"154":-0.2976807951927185,"155":-2.2843899726867676,"156":0.28109270334243774,"157":-0.9524936676025391,"158":-1.0022833347320557,"159":0.7176123261451721,"160":0.49639442563056946,"161":0.3425312638282776,"162":0.186512291431427,"163":-0.05623475834727287,"164":0.3087139129638672,"165":1.1984370946884155,"166":-3.6405043601989746,"167":-0.5188167095184326,"168":1.2146193981170654,"169":-1.6288999319076538,"170":-0.2934553027153015,"171":0.12116633355617523,"172":-0.6412568092346191,"173":0.44330111145973206,"174":-0.6531059741973877,"175":1.075952410697937,"176":1.1277271509170532,"177":1.1138193607330322,"178":-0.5618535280227661,"179":0.1352671980857849,"180":1.1159613132476807,"181":0.4510780870914459,"182":-1.6841425895690918,"183":-1.331779956817627,"184":-1.9100061655044556,"185":1.5806753635406494,"186":0.15847516059875488,"187":1.6526856422424316,"188":2.653905153274536,"189":2.581568956375122,"190":2.1770286560058594,"191":1.5140893459320068,"192":1.937453031539917,"193":0.4980579614639282,"194":1.39777410030365,"195":1.9516767263412476,"196":0.9677655696868896,"197":-3.5169756412506104,"198":1.381879210472107,"199":-1.2976454496383667,"200":2.28696346282959,"201":-0.2898910641670227,"202":0.8846015334129333,"203":1.917006492614746,"204":0.4734257459640503,"205":-0.18606190383434296,"206":-0.314241886138916,"207":0.9311733841896057,"208":-1.5183097124099731,"209":-0.5180916786193848,"210":-1.6022377014160156,"211":2.7793545722961426,"212":0.04176700487732887,"213":-0.43550828099250793,"214":-0.07811208814382553,"215":2.1879193782806396,"216":0.3307074010372162,"217":-1.2121806144714355,"218":0.9921063780784607,"219":1.172558307647705,"220":-0.35796311497688293,"221":1.1545937061309814,"222":0.7945842146873474,"223":0.3594232201576233,"224":-1.1793791055679321,"225":0.6546886563301086,"226":0.7644138336181641,"227":0.8543761372566223,"228":-3.7748401165008545,"229":-0.5579386353492737,"230":0.14561285078525543,"231":0.5876333713531494,"232":1.3630326986312866,"233":1.9989525079727173,"234":1.103500247001648,"235":0.12559598684310913,"236":0.5029371976852417,"237":-0.018587414175271988,"238":-1.479481816291809,"239":1.1232844591140747,"240":2.207094669342041,"241":-1.0831407308578491,"242":0.9161671996116638,"243":3.431135892868042,"244":0.832283616065979,"245":-0.7126359939575195,"246":-4.401841640472412,"247":-0.5006950497627258,"248":-0.4591342508792877,"249":-0.49523553252220154,"250":-1.973845362663269,"251":2.156872272491455,"252":-0.8105502724647522,"253":0.9522330164909363,"254":0.7541602849960327,"255":-0.24070195853710175,"256":-0.06964557617902756,"257":-1.3940285444259644,"258":-0.6114745140075684,"259":-1.7328470945358276,"260":-0.9567956328392029,"261":1.8211369514465332,"262":-0.5970876216888428,"263":0.6812485456466675,"264":0.5657002925872803,"265":0.7253721952438354,"266":-0.13036924600601196,"267":-0.8294211030006409,"268":0.17702257633209229,"269":1.1057976484298706,"270":0.8716526031494141,"271":0.5832116007804871,"272":1.727354645729065,"273":0.05818840116262436,"274":-1.0945101976394653,"275":0.5533803105354309,"276":-1.4096477031707764,"277":0.3614653944969177,"278":0.07308977097272873,"279":-1.5072954893112183,"280":2.5317389965057373,"281":-2.716773748397827,"282":2.448284149169922,"283":2.3145267963409424,"284":0.08255478739738464,"285":-0.2038729339838028,"286":-1.7109161615371704,"287":-0.0020189411006867886,"288":0.8436552286148071,"289":0.7793099880218506,"290":-1.8088209629058838,"291":2.7775557041168213,"292":2.730421781539917,"293":2.804755926132202,"294":0.4261122941970825,"295":-1.857059359550476,"296":-1.798836588859558,"297":0.16320638358592987,"298":0.1630738526582718,"299":-3.0250260829925537,"300":1.0553287267684937,"301":-1.3157504796981812,"302":-2.232211112976074,"303":-1.9911607503890991,"304":-0.8373603224754333,"305":0.8794329762458801,"306":-0.7386732697486877,"307":-0.7622866034507751,"308":1.889845609664917,"309":1.5429461002349854,"310":1.456480860710144,"311":-2.244112730026245,"312":2.259953498840332,"313":-1.7805063724517822,"314":1.0962907075881958,"315":0.4616776704788208,"316":1.7864612340927124,"317":-1.170037031173706,"318":-2.4479904174804688,"319":2.8812789916992188,"320":0.9619484543800354,"321":0.6392834782600403,"322":0.23617392778396606,"323":0.7356391549110413,"324":0.69537752866745,"325":-0.026632068678736687,"326":-1.346727967262268,"327":-0.3271726667881012,"328":-0.4919598400592804,"329":-1.2322860956192017,"330":-1.6628140211105347,"331":0.29377415776252747,"332":-1.7880972623825073,"333":-0.22535228729248047,"334":0.696678102016449,"335":0.7156334519386292,"336":0.7461329698562622,"337":-0.9853388667106628,"338":-0.6563807725906372,"339":-2.3714165687561035,"340":0.8032821416854858,"341":-0.16655321419239044,"342":-0.6411285400390625,"343":-1.049701452255249,"344":0.20560570061206818,"345":1.573390245437622,"346":-0.3016917407512665,"347":-0.07562395930290222,"348":-1.1207411289215088,"349":0.0659516304731369,"350":1.5512523651123047,"351":0.5486328601837158,"352":0.4858459234237671,"353":-0.16907694935798645,"354":0.3437861502170563,"355":0.2760378122329712,"356":-1.897528052330017,"357":1.045203447341919,"358":-1.3145118951797485,"359":-0.7748460173606873,"360":-0.8217597007751465,"361":-0.34465163946151733,"362":-0.732150137424469,"363":-3.201537847518921,"364":1.5523511171340942,"365":1.2913964986801147,"366":-1.1407334804534912,"367":0.4058741629123688,"368":-0.35928308963775635,"369":-1.8557218313217163,"370":0.8443573713302612,"371":-3.205988883972168,"372":-0.6360147595405579,"373":1.2923535108566284,"374":2.008127450942993,"375":0.5708638429641724,"376":1.6768364906311035,"377":-0.3742174804210663,"378":-1.261788010597229,"379":1.6445053815841675,"380":0.13478483259677887,"381":-0.8992701768875122,"382":-1.9078398942947388,"383":-0.6330245733261108,"384":-0.8757416605949402,"385":0.9480683207511902,"386":-1.2927836179733276,"387":1.0516973733901978,"388":1.3039036989212036,"389":-0.16289138793945312,"390":-0.6677160859107971,"391":-0.3103211522102356,"392":1.5500760078430176,"393":-0.4660029113292694,"394":2.19675612449646,"395":-0.8880242705345154,"396":1.8124158382415771,"397":-0.6722546815872192,"398":-0.6319867968559265,"399":-0.18279054760932922}},"inputBias":{"rows":20,"columns":1,"weights":{"0":-0.35813742876052856,"1":0.19767966866493225,"2":0.43756458163261414,"3":-3.1472506523132324,"4":-2.583167791366577,"5":-0.16166312992572784,"6":1.594588041305542,"7":-1.491001844406128,"8":-1.1986896991729736,"9":1.2947759628295898,"10":-0.6475740671157837,"11":0.8702116012573242,"12":-0.01928429678082466,"13":0.6226592659950256,"14":-0.6228731870651245,"15":0.6156942248344421,"16":-0.3202701210975647,"17":-1.0866087675094604,"18":0.2954055070877075,"19":-0.06178845092654228}},"forgetMatrix":{"rows":20,"columns":31,"weights":{"0":0.4302630126476288,"1":0.7948166728019714,"2":0.9086645841598511,"3":2.8326518535614014,"4":0.6609596610069275,"5":-0.46551966667175293,"6":1.0395140647888184,"7":-1.4478223323822021,"8":0.6974768042564392,"9":0.1449587196111679,"10":-1.4067147970199585,"11":-1.0270897150039673,"12":0.024290507659316063,"13":-0.4551473557949066,"14":-0.8049939274787903,"15":-0.9121345281600952,"16":0.5174965262413025,"17":-2.309112071990967,"18":-0.4293125867843628,"19":-0.043608032166957855,"20":-1.8014273643493652,"21":0.47821319103240967,"22":-0.9324038028717041,"23":0.13525991141796112,"24":0.1754845380783081,"25":2.9968247413635254,"26":-1.7695200443267822,"27":-0.8051016330718994,"28":-1.4245637655258179,"29":0.9353007674217224,"30":1.3236873149871826,"31":1.0562406778335571,"32":0.8657777905464172,"33":-2.2813708782196045,"34":-0.7363538146018982,"35":-1.437697410583496,"36":-1.2969841957092285,"37":-0.14429080486297607,"38":0.3812408447265625,"39":0.8397278189659119,"40":0.0658087432384491,"41":0.7473053336143494,"42":-0.47035089135169983,"43":1.9579392671585083,"44":2.4686717987060547,"45":-1.357362151145935,"46":0.09981676936149597,"47":0.5383895039558411,"48":-0.7611694931983948,"49":-1.5826281309127808,"50":-0.6949102878570557,"51":-1.054386854171753,"52":-0.515953004360199,"53":-0.14221517741680145,"54":1.5268125534057617,"55":-0.14101636409759521,"56":-0.9880549907684326,"57":0.12616130709648132,"58":-1.6558525562286377,"59":-0.5992842316627502,"60":0.8693419098854065,"61":1.4969508647918701,"62":1.3013925552368164,"63":0.7549546360969543,"64":0.7623983025550842,"65":-0.4371298849582672,"66":0.08731639385223389,"67":-0.9499897360801697,"68":0.265908420085907,"69":-1.43412184715271,"70":0.5811465382575989,"71":1.3554118871688843,"72":-1.6888929605484009,"73":-1.3174504041671753,"74":0.5028470158576965,"75":1.3622181415557861,"76":-2.328397274017334,"77":2.339954137802124,"78":0.36042436957359314,"79":-0.324645072221756,"80":-2.9440853595733643,"81":0.028946734964847565,"82":0.19589543342590332,"83":-0.20605607330799103,"84":1.5168428421020508,"85":-0.5967344641685486,"86":-1.1307952404022217,"87":-0.046130839735269547,"88":-0.67193204164505,"89":-1.136938452720642,"90":-0.1478627324104309,"91":0.3102247416973114,"92":2.1416423320770264,"93":0.10912144184112549,"94":2.3179166316986084,"95":1.039656162261963,"96":-2.051227569580078,"97":-1.523990511894226,"98":0.11718103289604187,"99":1.24993097782135,"100":-1.2664823532104492,"101":-0.40343108773231506,"102":-0.8395216464996338,"103":-1.1486049890518188,"104":0.3911752998828888,"105":0.703119158744812,"106":-0.13971717655658722,"107":-0.8093687295913696,"108":-1.5638482570648193,"109":-1.9256428480148315,"110":0.14018525183200836,"111":-2.961169719696045,"112":0.3682420551776886,"113":0.3658309578895569,"114":-1.9304312467575073,"115":0.1402740776538849,"116":1.7690544128417969,"117":-1.10568368434906,"118":-1.7756154537200928,"119":-1.3366483449935913,"120":0.9133662581443787,"121":2.096957206726074,"122":-0.6574957370758057,"123":3.33504319190979,"124":-0.2945345640182495,"125":-1.3803727626800537,"126":-1.3562344312667847,"127":0.31417715549468994,"128":-2.880807638168335,"129":-1.0841399431228638,"130":1.5401691198349,"131":0.3302280902862549,"132":-0.46112242341041565,"133":0.7112789750099182,"134":-1.6339560747146606,"135":-0.8349298238754272,"136":-2.6690120697021484,"137":0.4105033576488495,"138":0.06645434349775314,"139":0.41972869634628296,"140":1.3190687894821167,"141":0.7911790013313293,"142":0.2884036898612976,"143":0.400973379611969,"144":-1.0609625577926636,"145":-1.2492780685424805,"146":1.549447774887085,"147":-0.33822768926620483,"148":2.7494375705718994,"149":-1.0961894989013672,"150":-0.5534783601760864,"151":-0.5257519483566284,"152":0.10263898223638535,"153":-0.8711026906967163,"154":1.4838199615478516,"155":-0.9030585289001465,"156":1.7198959589004517,"157":0.37380027770996094,"158":-1.4699697494506836,"159":-1.1525518894195557,"160":-2.241811752319336,"161":0.4335145652294159,"162":-0.46637558937072754,"163":0.12187778949737549,"164":1.7138437032699585,"165":-3.606006383895874,"166":0.8404953479766846,"167":0.12209255993366241,"168":2.499133586883545,"169":-2.2263705730438232,"170":-0.7850459814071655,"171":0.0628279373049736,"172":0.6021106243133545,"173":-2.1252152919769287,"174":-0.22046731412410736,"175":-0.02044352889060974,"176":-0.3327915370464325,"177":0.7591673135757446,"178":0.1867026537656784,"179":0.3238145411014557,"180":-1.1352730989456177,"181":-1.858177661895752,"182":-1.1496449708938599,"183":1.1865863800048828,"184":0.5659815073013306,"185":0.9218188524246216,"186":-1.983519196510315,"187":0.9043499231338501,"188":1.5022000074386597,"189":-0.34669825434684753,"190":1.1635141372680664,"191":-0.8191338181495667,"192":0.4557866156101227,"193":1.8778047561645508,"194":1.6754016876220703,"195":0.43504229187965393,"196":0.17971983551979065,"197":-0.014545606449246407,"198":1.6807880401611328,"199":0.11472868919372559,"200":-0.2560846209526062,"201":0.4357590079307556,"202":1.23554527759552,"203":-1.3564746379852295,"204":1.7856073379516602,"205":-0.21299606561660767,"206":-0.25503233075141907,"207":-0.06099050119519234,"208":-2.6794235706329346,"209":-1.4757050275802612,"210":-0.08292525261640549,"211":1.4574376344680786,"212":-1.114317536354065,"213":-0.7335790395736694,"214":-0.2598882019519806,"215":2.402268171310425,"216":-2.5217738151550293,"217":2.2315728664398193,"218":1.6516742706298828,"219":0.015710540115833282,"220":-1.6426849365234375,"221":-1.8648980855941772,"222":-0.2630097270011902,"223":1.9968336820602417,"224":0.20007891952991486,"225":-0.3782033622264862,"226":0.08687783032655716,"227":-1.9465079307556152,"228":1.1530336141586304,"229":-0.22036205232143402,"230":-0.7413071393966675,"231":1.5327417850494385,"232":0.6214277744293213,"233":-0.8581995368003845,"234":-1.3315843343734741,"235":-0.31167811155319214,"236":2.6037821769714355,"237":2.4287636280059814,"238":-2.3979389667510986,"239":0.5123276114463806,"240":-1.7185498476028442,"241":-0.03894106298685074,"242":-2.336160659790039,"243":-1.3705289363861084,"244":2.5664026737213135,"245":1.2147787809371948,"246":-0.3838040828704834,"247":-0.057760123163461685,"248":-0.18912361562252045,"249":-0.13677039742469788,"250":2.407130241394043,"251":-1.1248815059661865,"252":-0.7121844291687012,"253":-1.9171252250671387,"254":2.1201117038726807,"255":0.21670874953269958,"256":-0.39462125301361084,"257":-0.7204648852348328,"258":-0.6558243036270142,"259":-0.2188529372215271,"260":0.2712913751602173,"261":-0.9101335406303406,"262":-1.8159077167510986,"263":-3.0317561626434326,"264":0.3486763536930084,"265":1.1790757179260254,"266":-0.0628981739282608,"267":-0.015407295897603035,"268":-0.7981800436973572,"269":-1.8689453601837158,"270":-0.13193558156490326,"271":0.9387335777282715,"272":-0.22644644975662231,"273":1.1172717809677124,"274":-2.377451181411743,"275":0.5562167763710022,"276":-0.35644373297691345,"277":0.5091930627822876,"278":-0.40519270300865173,"279":-0.45006880164146423,"280":0.04889998957514763,"281":0.23196560144424438,"282":0.7538315057754517,"283":1.622231125831604,"284":-0.44255325198173523,"285":-1.3428035974502563,"286":0.32706573605537415,"287":-1.3846579790115356,"288":-1.6537235975265503,"289":0.11858878284692764,"290":-1.7421250343322754,"291":-0.6335875988006592,"292":0.6782909035682678,"293":-1.4576830863952637,"294":-0.4739411175251007,"295":-0.04795490950345993,"296":2.1536216735839844,"297":-0.3034433424472809,"298":-0.2489383965730667,"299":-0.17724376916885376,"300":0.41969043016433716,"301":-0.0738447904586792,"302":0.25837060809135437,"303":-0.6423310041427612,"304":0.6232883930206299,"305":0.9663878679275513,"306":-0.7107259035110474,"307":2.195666551589966,"308":-0.2769419848918915,"309":-1.2469727993011475,"310":0.6752884984016418,"311":-1.7478951215744019,"312":0.6610317230224609,"313":2.0328562259674072,"314":0.6231613755226135,"315":-0.8389111757278442,"316":-1.6449021100997925,"317":-0.975051999092102,"318":0.3542935848236084,"319":-0.30816027522087097,"320":-0.0008868221193552017,"321":-2.124619722366333,"322":0.5878428816795349,"323":1.7901718616485596,"324":-1.8773521184921265,"325":-1.1113734245300293,"326":-0.3183594048023224,"327":0.08717504143714905,"328":-0.2943682372570038,"329":2.237354040145874,"330":-2.0888559818267822,"331":-0.415097177028656,"332":-1.6242783069610596,"333":-1.5062580108642578,"334":1.0225648880004883,"335":-0.1292957365512848,"336":1.7181669473648071,"337":-2.9063782691955566,"338":-1.6500698328018188,"339":-0.3331277072429657,"340":0.851420521736145,"341":-0.0933249220252037,"342":0.25588396191596985,"343":-1.1536681652069092,"344":0.5025069713592529,"345":1.1283848285675049,"346":1.1057971715927124,"347":-0.6913110613822937,"348":0.1543658822774887,"349":0.360837459564209,"350":0.8763671517372131,"351":0.46173417568206787,"352":-2.241931676864624,"353":-0.651901364326477,"354":-0.5613123178482056,"355":0.5603755116462708,"356":-1.0331372022628784,"357":3.257387399673462,"358":-1.212403416633606,"359":0.1318511664867401,"360":5.315817356109619,"361":-0.32649269700050354,"362":-1.3648715019226074,"363":-1.0041284561157227,"364":-4.945059299468994,"365":0.9423120617866516,"366":-0.18920885026454926,"367":1.0522830486297607,"368":-0.16043484210968018,"369":-1.474838137626648,"370":-1.9714109897613525,"371":0.08021244406700134,"372":-2.020902156829834,"373":-0.8746519088745117,"374":-1.0619277954101562,"375":-0.6317194104194641,"376":-0.8374603986740112,"377":1.9495662450790405,"378":0.8535609245300293,"379":0.7558184266090393,"380":0.6979355216026306,"381":-1.8435736894607544,"382":0.028776198625564575,"383":0.9067789912223816,"384":0.7904397249221802,"385":-2.7456488609313965,"386":2.2718639373779297,"387":0.8535208106040955,"388":0.9683825373649597,"389":0.23161886632442474,"390":0.48657676577568054,"391":-0.14303135871887207,"392":-0.7305701971054077,"393":0.23235034942626953,"394":-0.14967094361782074,"395":1.3379966020584106,"396":1.181984543800354,"397":0.14088106155395508,"398":-0.7686563730239868,"399":1.6508516073226929,"400":0.2481173574924469,"401":-0.8618035316467285,"402":-1.3373197317123413,"403":-0.225556418299675,"404":0.4641377329826355,"405":-0.6896623373031616,"406":0.07018667459487915,"407":-0.3369137942790985,"408":-1.2234653234481812,"409":-0.02618595026433468,"410":1.7398802042007446,"411":2.429842233657837,"412":1.7264926433563232,"413":-0.9014610052108765,"414":-1.1005935668945312,"415":0.5122517347335815,"416":-1.1961228847503662,"417":1.3342233896255493,"418":0.25152701139450073,"419":1.4379528760910034,"420":-2.0289933681488037,"421":0.5043054819107056,"422":-0.41292816400527954,"423":-1.0439280271530151,"424":0.43299418687820435,"425":-1.7124531269073486,"426":-0.602095365524292,"427":1.5009543895721436,"428":0.04962822049856186,"429":-0.45125189423561096,"430":1.4901959896087646,"431":-2.2717154026031494,"432":1.1111711263656616,"433":-0.7367470264434814,"434":0.11624161154031754,"435":1.6160215139389038,"436":-1.496769666671753,"437":-1.0956792831420898,"438":-1.6053245067596436,"439":-1.2919161319732666,"440":-0.4338494539260864,"441":0.20961767435073853,"442":-0.17186659574508667,"443":0.20890772342681885,"444":-1.0971428155899048,"445":-0.16772831976413727,"446":1.142393946647644,"447":1.3610683679580688,"448":-0.9483771324157715,"449":0.48897039890289307,"450":-0.679829478263855,"451":0.13592451810836792,"452":-1.2192480564117432,"453":-0.663529098033905,"454":-0.7661632299423218,"455":-0.19625994563102722,"456":1.0944119691848755,"457":0.6160868406295776,"458":0.3195749521255493,"459":-2.709728240966797,"460":-0.6325516104698181,"461":-0.1486109495162964,"462":0.4021366536617279,"463":-0.2589387595653534,"464":1.1119797229766846,"465":-1.409570574760437,"466":0.8936541080474854,"467":1.57596755027771,"468":-1.0297120809555054,"469":-1.2176433801651,"470":-1.7056635618209839,"471":2.1440162658691406,"472":-0.6768016815185547,"473":1.3817390203475952,"474":0.28854092955589294,"475":-0.09893745183944702,"476":1.0349189043045044,"477":-0.021828528493642807,"478":0.7239442467689514,"479":-0.34292733669281006,"480":0.1444227397441864,"481":1.2176873683929443,"482":0.4478047490119934,"483":-0.39200666546821594,"484":-0.2060217261314392,"485":-0.098342664539814,"486":-1.4120675325393677,"487":1.2050421237945557,"488":-0.041661061346530914,"489":-1.2020164728164673,"490":0.5788586735725403,"491":-2.7613704204559326,"492":-0.46275320649147034,"493":0.17914395034313202,"494":-0.2352234572172165,"495":0.5147197842597961,"496":0.7373550534248352,"497":-1.7292051315307617,"498":0.2558896839618683,"499":2.2117056846618652,"500":1.0383907556533813,"501":-0.7405266165733337,"502":-2.4846608638763428,"503":1.2683416604995728,"504":-0.5884748697280884,"505":0.4508229196071625,"506":1.0460845232009888,"507":1.1525062322616577,"508":-1.4615983963012695,"509":-1.174965739250183,"510":0.9432362914085388,"511":-1.8504862785339355,"512":-2.352855682373047,"513":1.0079154968261719,"514":3.6157400608062744,"515":0.8533514738082886,"516":1.0127679109573364,"517":-1.3438477516174316,"518":-1.2522876262664795,"519":0.09824439883232117,"520":0.06231556832790375,"521":-0.026125170290470123,"522":1.6184476613998413,"523":1.9101191759109497,"524":-0.8099396228790283,"525":0.8871138691902161,"526":-2.563039779663086,"527":-0.14766991138458252,"528":-0.871968686580658,"529":-0.9258553981781006,"530":0.33456358313560486,"531":2.6336405277252197,"532":-0.17913390696048737,"533":-1.5517908334732056,"534":0.2577372193336487,"535":-2.677156925201416,"536":-1.1764322519302368,"537":0.11985527724027634,"538":-0.37117746472358704,"539":-2.2822988033294678,"540":0.0744721069931984,"541":0.06919412314891815,"542":-1.5666481256484985,"543":-0.18647082149982452,"544":2.483238697052002,"545":0.29430845379829407,"546":1.8305587768554688,"547":0.11838201433420181,"548":0.7646338939666748,"549":0.7996308207511902,"550":-1.3351140022277832,"551":1.2755728960037231,"552":0.5193969011306763,"553":2.130845069885254,"554":0.5238680243492126,"555":1.3095399141311646,"556":-2.1760971546173096,"557":1.1761025190353394,"558":1.5167245864868164,"559":2.5130958557128906,"560":-0.46697452664375305,"561":-2.0993621349334717,"562":0.24163617193698883,"563":1.6431981325149536,"564":-2.4511451721191406,"565":-0.702921986579895,"566":-1.4871561527252197,"567":-1.5279533863067627,"568":-1.8728240728378296,"569":-0.11612328141927719,"570":0.5985772609710693,"571":-0.7272191047668457,"572":1.1109846830368042,"573":0.950047492980957,"574":0.19126631319522858,"575":0.7578641772270203,"576":-1.3600174188613892,"577":-0.28976982831954956,"578":2.8387451171875,"579":0.6675692796707153,"580":2.7652833461761475,"581":0.050456367433071136,"582":-0.245433047413826,"583":-1.360796332359314,"584":1.5803215503692627,"585":0.6519551277160645,"586":2.463347911834717,"587":-0.4661807715892792,"588":1.3454625606536865,"589":0.9231358170509338,"590":2.486560344696045,"591":0.6504432559013367,"592":-3.5546975135803223,"593":0.526256263256073,"594":-0.2831871807575226,"595":0.13685956597328186,"596":-1.5764529705047607,"597":-0.005621310323476791,"598":-0.9992937445640564,"599":-0.3971654772758484,"600":0.3274235129356384,"601":0.42352259159088135,"602":0.4969053566455841,"603":0.9423258900642395,"604":1.3193470239639282,"605":-1.829012393951416,"606":0.368586003780365,"607":-2.0241732597351074,"608":-1.6620393991470337,"609":-0.4342825412750244,"610":-0.6902690529823303,"611":2.031963348388672,"612":1.8719632625579834,"613":-1.0579861402511597,"614":-0.1470368206501007,"615":0.4405621588230133,"616":0.6436730623245239,"617":-0.09730900824069977,"618":-0.9613485932350159,"619":2.1235315799713135}},"forgetHidden":{"rows":20,"columns":20,"weights":{"0":0.5388910174369812,"1":0.5473477840423584,"2":-0.6937187314033508,"3":-1.2288249731063843,"4":-0.1282457709312439,"5":0.7169880867004395,"6":-1.1237231492996216,"7":-0.03075649030506611,"8":1.7981339693069458,"9":0.8430624604225159,"10":-0.6491562128067017,"11":0.39750516414642334,"12":0.4066142439842224,"13":-0.27890366315841675,"14":-0.7324225306510925,"15":1.1699903011322021,"16":1.1700878143310547,"17":-1.442313551902771,"18":-0.41860243678092957,"19":-1.2235174179077148,"20":1.0272834300994873,"21":-0.7702664732933044,"22":-1.0961285829544067,"23":-0.261072039604187,"24":-1.2791941165924072,"25":0.6460554599761963,"26":1.0698407888412476,"27":0.734144926071167,"28":1.58085036277771,"29":0.22075417637825012,"30":-0.620785653591156,"31":-1.3428536653518677,"32":0.6904661655426025,"33":-0.7796041369438171,"34":-0.27561885118484497,"35":-0.4682934880256653,"36":0.6706685423851013,"37":-1.8430700302124023,"38":0.11816968023777008,"39":-0.30366960167884827,"40":0.4240540862083435,"41":1.1261550188064575,"42":0.07253528386354446,"43":-0.891302227973938,"44":-0.5711644291877747,"45":0.9160841703414917,"46":-0.023076770827174187,"47":0.7224960327148438,"48":0.8441507816314697,"49":0.22858981788158417,"50":-0.4833645224571228,"51":-0.35546204447746277,"52":-0.6015241742134094,"53":-0.6520036458969116,"54":0.747759222984314,"55":-0.4211271405220032,"56":-0.210383340716362,"57":-0.5124000310897827,"58":0.8958592414855957,"59":0.010807462967932224,"60":-1.252052903175354,"61":-1.661412000656128,"62":-0.9046722054481506,"63":-1.0737147331237793,"64":1.3585697412490845,"65":1.2734391689300537,"66":1.0971875190734863,"67":0.19458195567131042,"68":0.43181124329566956,"69":1.3535382747650146,"70":1.4111549854278564,"71":-1.991401195526123,"72":0.7804396152496338,"73":-0.28029149770736694,"74":2.281675338745117,"75":-0.5187513828277588,"76":-2.2289724349975586,"77":-0.007392492610961199,"78":-0.6262314319610596,"79":0.6358652114868164,"80":0.9745609164237976,"81":0.6628830432891846,"82":-0.7771658301353455,"83":-1.3393629789352417,"84":-1.111401081085205,"85":0.7647694945335388,"86":1.2049951553344727,"87":-0.28307825326919556,"88":1.6576108932495117,"89":0.9484978914260864,"90":0.7236121296882629,"91":-2.18416428565979,"92":-0.12630367279052734,"93":0.04911111667752266,"94":0.6172281503677368,"95":1.1904486417770386,"96":0.8792497515678406,"97":-1.3336538076400757,"98":-0.5587348341941833,"99":1.3370684385299683,"100":-1.660907506942749,"101":1.9727561473846436,"102":0.4285285770893097,"103":-0.0035603393334895372,"104":-0.12174560129642487,"105":-1.4877893924713135,"106":-0.27218160033226013,"107":1.8000332117080688,"108":1.0484219789505005,"109":0.2907257080078125,"110":-0.007044591940939426,"111":-0.712505042552948,"112":-0.6632061004638672,"113":-0.26392874121665955,"114":1.2634950876235962,"115":1.2499916553497314,"116":-1.431667685508728,"117":-0.21236716210842133,"118":1.322624921798706,"119":0.8818626999855042,"120":-1.1174319982528687,"121":0.04520096257328987,"122":-0.060547977685928345,"123":1.4609397649765015,"124":-1.9843250513076782,"125":0.011414063163101673,"126":1.0534311532974243,"127":3.3107616901397705,"128":-0.13973385095596313,"129":2.058738946914673,"130":0.9820480346679688,"131":0.4160037338733673,"132":-1.91835618019104,"133":-1.3280020952224731,"134":0.19379287958145142,"135":0.21188271045684814,"136":-1.8666311502456665,"137":-1.27314293384552,"138":4.416479110717773,"139":-1.7814401388168335,"140":0.1941334754228592,"141":2.0459201335906982,"142":0.37635961174964905,"143":-1.6609934568405151,"144":-0.18789918720722198,"145":-0.8577862977981567,"146":-0.454321950674057,"147":0.16268719732761383,"148":-0.961911678314209,"149":-2.2215335369110107,"150":-2.065032958984375,"151":-0.3118334114551544,"152":0.38863301277160645,"153":0.4258277714252472,"154":0.06600960344076157,"155":-1.5847804546356201,"156":-0.7459134459495544,"157":-1.519773006439209,"158":-1.0728681087493896,"159":0.646250307559967,"160":-0.8581253886222839,"161":-0.9014889001846313,"162":-1.184362530708313,"163":-0.5573745369911194,"164":-0.2597956657409668,"165":0.6946502327919006,"166":0.22489184141159058,"167":-0.17516186833381653,"168":0.718380868434906,"169":0.1228773295879364,"170":0.04928427189588547,"171":1.0490727424621582,"172":0.7074026465415955,"173":0.03299223631620407,"174":0.5396831035614014,"175":-0.3148566782474518,"176":-0.5680589079856873,"177":-0.9918116331100464,"178":0.7385151386260986,"179":-2.6041553020477295,"180":-2.4466469287872314,"181":-0.08832859247922897,"182":-0.7372332811355591,"183":0.8869624733924866,"184":-2.0477099418640137,"185":0.6858555674552917,"186":1.1899851560592651,"187":2.302023410797119,"188":0.5153391361236572,"189":0.0737367570400238,"190":-0.8315085768699646,"191":-0.6994374990463257,"192":0.2604835331439972,"193":-0.4786249101161957,"194":0.3894129991531372,"195":0.24834990501403809,"196":0.46853575110435486,"197":1.1657902002334595,"198":1.7361736297607422,"199":-2.7706656455993652,"200":0.49748995900154114,"201":0.001445859088562429,"202":0.22641313076019287,"203":-0.6333661675453186,"204":-0.2988697290420532,"205":-0.44569331407546997,"206":0.7963828444480896,"207":-0.5196762681007385,"208":0.19868052005767822,"209":-1.039678931236267,"210":0.2558864653110504,"211":-0.20492476224899292,"212":-0.6772077083587646,"213":2.694504737854004,"214":1.0862374305725098,"215":2.054952383041382,"216":2.9686241149902344,"217":1.7746058702468872,"218":-0.02168014459311962,"219":-0.5847411751747131,"220":1.037946105003357,"221":-0.3158273696899414,"222":-0.9430001378059387,"223":-2.374422073364258,"224":-1.1940007209777832,"225":1.3406982421875,"226":0.5420935750007629,"227":0.1918632984161377,"228":0.20736320316791534,"229":2.1932790279388428,"230":0.6868289113044739,"231":-3.225182056427002,"232":0.9490037560462952,"233":0.5035979151725769,"234":0.5171332359313965,"235":0.6680954098701477,"236":0.4293696880340576,"237":0.559425413608551,"238":-0.1410912573337555,"239":0.3300931751728058,"240":-0.2826685607433319,"241":0.285104900598526,"242":1.3121699094772339,"243":0.9459781050682068,"244":-1.3763034343719482,"245":-1.4632431268692017,"246":-0.5709707140922546,"247":0.7087628245353699,"248":0.07985372096300125,"249":0.5823251605033875,"250":-1.2088284492492676,"251":-0.385345458984375,"252":-0.15051545202732086,"253":0.7810189723968506,"254":0.8715747594833374,"255":0.24311479926109314,"256":-0.4122079312801361,"257":0.24877233803272247,"258":0.06575030833482742,"259":-0.367176353931427,"260":-0.7174203991889954,"261":0.3222692608833313,"262":-0.712848424911499,"263":-0.22761425375938416,"264":-0.07890836894512177,"265":0.7279631495475769,"266":-0.591461181640625,"267":-0.8074870109558105,"268":2.186349391937256,"269":-1.191257357597351,"270":-1.0320602655410767,"271":-1.1078503131866455,"272":1.5597448348999023,"273":-1.3796876668930054,"274":1.8605045080184937,"275":-2.7122511863708496,"276":2.229717493057251,"277":-1.6347795724868774,"278":-0.6641294956207275,"279":1.3623234033584595,"280":-0.37725406885147095,"281":0.15276214480400085,"282":0.761978805065155,"283":0.33010387420654297,"284":0.9621782898902893,"285":0.2095058262348175,"286":-0.10189227014780045,"287":0.44936931133270264,"288":0.17585086822509766,"289":0.0329514779150486,"290":-0.18331031501293182,"291":0.6159153580665588,"292":-0.5128132700920105,"293":1.1671276092529297,"294":-0.012357542291283607,"295":0.536224901676178,"296":-1.1877275705337524,"297":-0.29770317673683167,"298":0.4233604073524475,"299":0.5329426527023315,"300":-0.9255452752113342,"301":1.2269871234893799,"302":-2.1488609313964844,"303":-1.8538833856582642,"304":0.15776103734970093,"305":1.2279280424118042,"306":0.7444756627082825,"307":0.8403947353363037,"308":2.9334781169891357,"309":1.9663081169128418,"310":0.6446672081947327,"311":-0.674647331237793,"312":-0.7060858011245728,"313":-0.01203532237559557,"314":0.19532497227191925,"315":-0.9574205279350281,"316":0.16957689821720123,"317":-0.03620268031954765,"318":2.5713937282562256,"319":-0.5696468949317932,"320":0.7787767052650452,"321":-1.298660159111023,"322":2.3662049770355225,"323":0.7039759159088135,"324":-1.4545265436172485,"325":-1.3856260776519775,"326":3.1301205158233643,"327":1.2100505828857422,"328":-0.8844048976898193,"329":-0.22559581696987152,"330":0.8379690647125244,"331":-4.065849781036377,"332":-1.8439571857452393,"333":1.5364089012145996,"334":1.5989937782287598,"335":1.7087054252624512,"336":1.1703380346298218,"337":-0.9486255645751953,"338":0.7808679342269897,"339":1.0915858745574951,"340":0.9043291211128235,"341":0.7151911854743958,"342":-0.13722260296344757,"343":2.8057734966278076,"344":-0.8209520578384399,"345":-0.8634515404701233,"346":-0.14933113753795624,"347":-2.0647647380828857,"348":2.433302879333496,"349":0.02285996451973915,"350":3.5049798488616943,"351":-4.027588367462158,"352":2.5604169368743896,"353":2.6496224403381348,"354":0.32847145199775696,"355":-1.4441759586334229,"356":1.253597378730774,"357":2.395339012145996,"358":1.5891848802566528,"359":-2.84051513671875,"360":1.2426456212997437,"361":-0.2783118188381195,"362":1.3409347534179688,"363":-0.5215689539909363,"364":2.698463201522827,"365":0.9322846531867981,"366":-1.8812974691390991,"367":-4.554380416870117,"368":1.483291506767273,"369":-3.6754231452941895,"370":-1.0518500804901123,"371":0.2957040071487427,"372":0.28183311223983765,"373":0.2559918463230133,"374":-0.09395906329154968,"375":0.1485782116651535,"376":-1.4222221374511719,"377":-2.10905385017395,"378":-0.5508097410202026,"379":-1.598082184791565,"380":-0.4112902879714966,"381":0.7062948942184448,"382":0.24084223806858063,"383":-0.01664179377257824,"384":0.5552515983581543,"385":-0.003167823189869523,"386":-0.5638664960861206,"387":-0.5912399291992188,"388":-0.37420397996902466,"389":-1.0342772006988525,"390":-0.6993897557258606,"391":0.3806883692741394,"392":0.45744332671165466,"393":0.4704797565937042,"394":0.1934218555688858,"395":1.4458035230636597,"396":-1.7920684814453125,"397":-1.0009242296218872,"398":-1.250341534614563,"399":1.019112467765808}},"forgetBias":{"rows":20,"columns":1,"weights":{"0":0,"1":0,"2":0,"3":0,"4":0,"5":0,"6":0,"7":0,"8":0,"9":0,"10":0,"11":0,"12":0,"13":0,"14":0,"15":0,"16":0,"17":0,"18":0,"19":0}},"outputMatrix":{"rows":20,"columns":31,"weights":{"0":-1.7200208902359009,"1":-1.9353852272033691,"2":-0.8511704206466675,"3":0.8154790997505188,"4":0.07116316258907318,"5":-1.8177015781402588,"6":0.3086300492286682,"7":0.8642666935920715,"8":1.0354419946670532,"9":2.9882988929748535,"10":-1.2240848541259766,"11":-1.2939344644546509,"12":3.03904390335083,"13":0.5207672715187073,"14":-0.8434223532676697,"15":-1.7645045518875122,"16":1.1502940654754639,"17":-0.8781920671463013,"18":1.7167500257492065,"19":0.5967065691947937,"20":-0.018569333478808403,"21":2.2675702571868896,"22":-0.5276249051094055,"23":0.5036535859107971,"24":2.5449626445770264,"25":1.1539751291275024,"26":0.4329284429550171,"27":0.45217210054397583,"28":0.10494111478328705,"29":1.90473210811615,"30":-0.8085430860519409,"31":0.5123395919799805,"32":0.5557224154472351,"33":0.6721422076225281,"34":-0.5668990015983582,"35":-0.21436232328414917,"36":-0.4560679793357849,"37":-0.20166853070259094,"38":1.598265528678894,"39":1.3498053550720215,"40":0.8626627922058105,"41":0.7986620664596558,"42":2.5226213932037354,"43":1.9385815858840942,"44":0.16205252707004547,"45":0.8498371243476868,"46":1.240017056465149,"47":-3.3120834827423096,"48":-0.5317709445953369,"49":-0.4467565715312958,"50":0.423382967710495,"51":-0.44457587599754333,"52":-1.7404147386550903,"53":-0.3953036069869995,"54":2.4035749435424805,"55":0.4912363588809967,"56":-3.6718592643737793,"57":-0.9221031069755554,"58":-0.23297108709812164,"59":-0.4443676471710205,"60":0.5892605185508728,"61":1.1147187948226929,"62":-0.25084173679351807,"63":0.3443877696990967,"64":-0.4104580283164978,"65":0.5193242430686951,"66":-1.4516448974609375,"67":-2.105360746383667,"68":1.440765380859375,"69":-0.3483476936817169,"70":1.429878830909729,"71":0.49498340487480164,"72":-2.8002431392669678,"73":-0.2573487162590027,"74":0.7865391373634338,"75":2.315211057662964,"76":-2.009751558303833,"77":-2.098567485809326,"78":0.8868648409843445,"79":-0.7876260876655579,"80":-0.7225900888442993,"81":-1.0958106517791748,"82":-2.435330629348755,"83":-1.0633310079574585,"84":-1.2496795654296875,"85":0.8370621800422668,"86":-0.6296716928482056,"87":0.4627492129802704,"88":0.15457847714424133,"89":-2.179112672805786,"90":-1.1788315773010254,"91":1.2982577085494995,"92":0.005065763834863901,"93":0.24889686703681946,"94":-0.4646834433078766,"95":-0.9493260979652405,"96":-0.827792763710022,"97":-3.0316648483276367,"98":-0.3633153438568115,"99":0.8148329257965088,"100":0.2494811862707138,"101":-3.5996530055999756,"102":-1.061170220375061,"103":-0.6020455360412598,"104":-0.703192412853241,"105":-0.5497859716415405,"106":-0.5356889963150024,"107":-0.9842278957366943,"108":-1.1258049011230469,"109":0.8483070135116577,"110":2.41875958442688,"111":-0.9685399532318115,"112":1.3552491664886475,"113":-0.5005278587341309,"114":0.48141205310821533,"115":4.475454807281494,"116":0.03550535440444946,"117":1.51522696018219,"118":-1.5333728790283203,"119":0.8104559779167175,"120":0.7340768575668335,"121":2.1416642665863037,"122":-0.29422321915626526,"123":1.099231481552124,"124":-3.837604522705078,"125":-0.46566179394721985,"126":-2.4286701679229736,"127":0.0418250635266304,"128":-1.2298890352249146,"129":-0.6821785569190979,"130":-0.6372679471969604,"131":0.7674561142921448,"132":1.7459841966629028,"133":1.8798437118530273,"134":-0.9578976035118103,"135":0.7783447504043579,"136":0.21239425241947174,"137":-1.3123000860214233,"138":0.980260968208313,"139":0.281381219625473,"140":1.6348594427108765,"141":-2.481473684310913,"142":1.430098533630371,"143":-1.4845359325408936,"144":-2.5962555408477783,"145":0.27199193835258484,"146":-0.3932028114795685,"147":0.649255096912384,"148":2.587494134902954,"149":1.676372766494751,"150":-0.38360607624053955,"151":0.264750212430954,"152":-1.9103682041168213,"153":-1.5997563600540161,"154":-1.520591139793396,"155":0.7555032968521118,"156":0.6886820793151855,"157":1.0167685747146606,"158":-1.3169689178466797,"159":0.9150251746177673,"160":-2.685110569000244,"161":-0.05615029111504555,"162":-0.26871851086616516,"163":0.04765115678310394,"164":2.1546947956085205,"165":-2.3113820552825928,"166":-0.10288520902395248,"167":0.6380214691162109,"168":4.9997477531433105,"169":-3.609013557434082,"170":1.020018219947815,"171":-0.4235924780368805,"172":0.7421494722366333,"173":-2.328490972518921,"174":-1.6398688554763794,"175":1.590811014175415,"176":0.39775872230529785,"177":0.6704896092414856,"178":-0.2147812396287918,"179":-0.45127397775650024,"180":-0.6485046148300171,"181":0.15821291506290436,"182":-2.025402307510376,"183":0.6107122302055359,"184":1.3765355348587036,"185":1.2443801164627075,"186":-2.169267416000366,"187":-0.6711915135383606,"188":-2.4826905727386475,"189":-0.1388176679611206,"190":-0.426496297121048,"191":1.3489980697631836,"192":-0.7553619146347046,"193":3.1496100425720215,"194":0.17386819422245026,"195":0.5298874378204346,"196":0.9730733036994934,"197":0.11859364062547684,"198":2.664240837097168,"199":-0.2726389169692993,"200":0.17209307849407196,"201":-0.34607693552970886,"202":2.3930656909942627,"203":-2.4681825637817383,"204":-1.6625531911849976,"205":1.7192968130111694,"206":-0.29773634672164917,"207":1.3532637357711792,"208":-1.3178293704986572,"209":-0.35102254152297974,"210":0.8913533091545105,"211":-1.026759386062622,"212":-0.010955890640616417,"213":0.5387974381446838,"214":-0.4084866940975189,"215":-0.4186050295829773,"216":-0.8674880862236023,"217":-0.8015756607055664,"218":1.3170599937438965,"219":-2.105642557144165,"220":-1.2254114151000977,"221":-0.9781569838523865,"222":1.5552303791046143,"223":-1.6812688112258911,"224":-0.02588905394077301,"225":0.18242104351520538,"226":-0.30311673879623413,"227":-1.2119250297546387,"228":-0.8905325531959534,"229":0.5513548851013184,"230":-1.5181151628494263,"231":3.1030144691467285,"232":1.8070303201675415,"233":2.0737926959991455,"234":-0.22766435146331787,"235":-0.13254414498806,"236":0.7783130407333374,"237":3.9061968326568604,"238":0.35579201579093933,"239":-0.8150347471237183,"240":-2.5884039402008057,"241":1.7966744899749756,"242":1.3566317558288574,"243":1.4131355285644531,"244":1.2976315021514893,"245":1.1496614217758179,"246":0.04539056122303009,"247":0.20362286269664764,"248":-0.8523373007774353,"249":2.8951029777526855,"250":-1.3409342765808105,"251":-0.9259467124938965,"252":-2.0263264179229736,"253":-1.1655219793319702,"254":0.28282085061073303,"255":-1.178834080696106,"256":-1.117313027381897,"257":-0.6190029382705688,"258":-1.0155208110809326,"259":1.6449182033538818,"260":0.6849372386932373,"261":1.2810721397399902,"262":-0.9555391073226929,"263":0.7275709509849548,"264":1.0519286394119263,"265":1.375565528869629,"266":-2.1417691707611084,"267":-0.6774730682373047,"268":-0.24690350890159607,"269":1.601129412651062,"270":2.271986722946167,"271":2.435821533203125,"272":-0.6131429672241211,"273":-0.5541054606437683,"274":-0.7735377550125122,"275":-0.8495315313339233,"276":1.7418508529663086,"277":0.15874698758125305,"278":0.5021759867668152,"279":-1.1148885488510132,"280":0.5397223830223083,"281":-0.5171758532524109,"282":-0.3520848751068115,"283":-3.3677687644958496,"284":-1.4781025648117065,"285":1.997565746307373,"286":-0.6830942034721375,"287":1.224729299545288,"288":1.8986533880233765,"289":-1.6148093938827515,"290":0.793241560459137,"291":1.8622726202011108,"292":1.974244475364685,"293":-1.6433449983596802,"294":0.7615699172019958,"295":0.4480934143066406,"296":-1.0382710695266724,"297":-1.0506221055984497,"298":-1.257049798965454,"299":-2.4782145023345947,"300":0.9556722640991211,"301":1.7562415599822998,"302":1.78281831741333,"303":0.6275636553764343,"304":-0.7220208048820496,"305":-0.536975085735321,"306":-1.6039464473724365,"307":-0.6063418984413147,"308":-1.8669545650482178,"309":0.35834044218063354,"310":-0.9541069269180298,"311":-0.7849925756454468,"312":2.1248600482940674,"313":3.2757489681243896,"314":1.5022332668304443,"315":0.5892593264579773,"316":0.04202913120388985,"317":-0.4316498935222626,"318":1.3668347597122192,"319":0.05981341004371643,"320":0.15432174503803253,"321":-2.4361343383789062,"322":-0.5036444067955017,"323":1.7797209024429321,"324":-2.1092467308044434,"325":-0.9105854034423828,"326":2.191345691680908,"327":-1.667912244796753,"328":-0.8419939875602722,"329":0.013134836219251156,"330":-2.7336585521698,"331":-1.0711125135421753,"332":1.750242829322815,"333":-1.260124683380127,"334":-2.7170233726501465,"335":0.8377338647842407,"336":-0.4859893321990967,"337":-1.7340787649154663,"338":-2.940732479095459,"339":-0.504105269908905,"340":1.4202818870544434,"341":-0.2444184571504593,"342":-0.7599233388900757,"343":1.6262013912200928,"344":3.5188283920288086,"345":3.491344451904297,"346":0.4162414073944092,"347":-0.10717346519231796,"348":0.09576402604579926,"349":1.7616978883743286,"350":1.2065948247909546,"351":0.3872964382171631,"352":-2.3984386920928955,"353":-0.4546996057033539,"354":-0.9157649874687195,"355":0.15715019404888153,"356":-0.5134291648864746,"357":0.9673888087272644,"358":-1.9753401279449463,"359":1.408180832862854,"360":-0.5915325284004211,"361":-0.5524963736534119,"362":-1.0058542490005493,"363":-0.5065164566040039,"364":-1.8210972547531128,"365":0.43760010600090027,"366":2.0104596614837646,"367":-0.6263667345046997,"368":0.9149801135063171,"369":-2.6077020168304443,"370":1.3027713298797607,"371":-0.7273002862930298,"372":-0.013562818989157677,"373":3.791524887084961,"374":0.74626225233078,"375":-0.5513603687286377,"376":-0.28721848130226135,"377":2.4291913509368896,"378":0.16597004234790802,"379":-2.052757501602173,"380":2.6613621711730957,"381":-1.1372791528701782,"382":-1.176478385925293,"383":1.2955143451690674,"384":1.3836182355880737,"385":-1.4850685596466064,"386":1.768306851387024,"387":1.2207049131393433,"388":0.7560118436813354,"389":-2.998206615447998,"390":-0.9169641137123108,"391":-2.1311633586883545,"392":-1.0143615007400513,"393":-0.28780171275138855,"394":-0.9277793765068054,"395":1.5599427223205566,"396":-0.23389673233032227,"397":0.025687200948596,"398":-0.8056625723838806,"399":0.2071344256401062,"400":-1.1722564697265625,"401":-0.367829293012619,"402":0.17110951244831085,"403":0.3704223930835724,"404":2.9974353313446045,"405":-0.05227707326412201,"406":-2.9125120639801025,"407":0.3305648863315582,"408":2.5269699096679688,"409":-1.7808822393417358,"410":-0.7146305441856384,"411":1.7966508865356445,"412":0.22934554517269135,"413":0.5825570225715637,"414":-0.04435623064637184,"415":2.155128240585327,"416":-0.28407925367355347,"417":1.766704797744751,"418":2.5044257640838623,"419":-0.45838966965675354,"420":-2.0436344146728516,"421":-1.5154317617416382,"422":1.5975977182388306,"423":2.56523060798645,"424":1.039235234260559,"425":-1.1542303562164307,"426":-1.2123327255249023,"427":-2.6186447143554688,"428":-0.6818105578422546,"429":1.562690019607544,"430":0.03383257985115051,"431":-1.4732489585876465,"432":0.4239882528781891,"433":0.11608903110027313,"434":-0.19217713177204132,"435":2.6604743003845215,"436":1.248602032661438,"437":-1.1840310096740723,"438":-0.20966455340385437,"439":1.0807983875274658,"440":0.5615583062171936,"441":-1.17169988155365,"442":1.206557035446167,"443":-0.9089234471321106,"444":0.47534459829330444,"445":1.2188550233840942,"446":0.9050233960151672,"447":-0.7049770355224609,"448":2.2700040340423584,"449":1.7078500986099243,"450":0.19212590157985687,"451":-2.033231496810913,"452":-1.0818012952804565,"453":-1.7241472005844116,"454":0.9942873120307922,"455":0.2335001677274704,"456":-1.7105401754379272,"457":1.3786678314208984,"458":-2.520918846130371,"459":1.1845937967300415,"460":-1.5514990091323853,"461":0.2900031507015228,"462":-0.13885703682899475,"463":-0.34304389357566833,"464":-0.04485253617167473,"465":1.7933764457702637,"466":3.081212043762207,"467":-0.683428168296814,"468":-0.013116074725985527,"469":-1.3251742124557495,"470":1.3582425117492676,"471":-1.3171870708465576,"472":-1.6751514673233032,"473":0.8483858108520508,"474":-1.0361568927764893,"475":-0.5231141448020935,"476":0.9055091738700867,"477":1.4953447580337524,"478":-1.0502336025238037,"479":1.2729113101959229,"480":2.3937978744506836,"481":-2.735241174697876,"482":0.29466867446899414,"483":-2.159850835800171,"484":-0.751114010810852,"485":1.4156783819198608,"486":-0.9083532094955444,"487":0.009561470709741116,"488":2.762211322784424,"489":-1.0413053035736084,"490":-2.215932846069336,"491":-0.31338658928871155,"492":-0.2537763714790344,"493":-0.6862078905105591,"494":2.124755620956421,"495":1.1178535223007202,"496":-0.635906457901001,"497":-0.30560410022735596,"498":1.7863661050796509,"499":0.7140290141105652,"500":2.0004937648773193,"501":-0.22674879431724548,"502":-0.8312142491340637,"503":0.6194572448730469,"504":0.46501123905181885,"505":-0.33302533626556396,"506":-0.18940043449401855,"507":-0.7000464797019958,"508":0.7851986885070801,"509":0.3251211643218994,"510":-0.9234668612480164,"511":-1.0525474548339844,"512":-1.050444483757019,"513":0.023889796808362007,"514":0.72173011302948,"515":2.445892572402954,"516":-0.7930116057395935,"517":-3.95119047164917,"518":-1.0498846769332886,"519":-0.2138793170452118,"520":-2.754218101501465,"521":-0.517792820930481,"522":-0.6248127818107605,"523":-1.0897363424301147,"524":-2.0275349617004395,"525":0.427346408367157,"526":-0.1741890013217926,"527":-1.8191251754760742,"528":0.4843066930770874,"529":-1.3499373197555542,"530":-0.8898624181747437,"531":-0.18571500480175018,"532":2.145536422729492,"533":-1.1775891780853271,"534":0.15282049775123596,"535":-1.1564713716506958,"536":-2.0541062355041504,"537":3.0500850677490234,"538":-1.0090007781982422,"539":-0.6217094659805298,"540":-0.3452657461166382,"541":0.329213410615921,"542":0.42260658740997314,"543":2.590153694152832,"544":3.27352237701416,"545":-0.8181337714195251,"546":1.173222303390503,"547":0.21528036892414093,"548":0.4259655475616455,"549":1.8152409791946411,"550":-2.0559260845184326,"551":0.3454585373401642,"552":1.0567026138305664,"553":1.4284683465957642,"554":1.3664847612380981,"555":1.7108746767044067,"556":-2.694796085357666,"557":0.8129294514656067,"558":0.3751499652862549,"559":-0.47399911284446716,"560":0.07014892250299454,"561":-1.1229299306869507,"562":-0.38196346163749695,"563":2.429729461669922,"564":-0.7734019756317139,"565":-0.4458828568458557,"566":-1.7435383796691895,"567":-1.7906279563903809,"568":1.9663869142532349,"569":-0.11404574662446976,"570":-0.33279359340667725,"571":-1.3776265382766724,"572":2.0185532569885254,"573":2.5440833568573,"574":-0.25931814312934875,"575":1.8048142194747925,"576":0.27174240350723267,"577":0.5336303114891052,"578":2.199934482574463,"579":0.03948310762643814,"580":2.3891654014587402,"581":-0.20559632778167725,"582":0.7657197713851929,"583":2.3423337936401367,"584":1.3123165369033813,"585":1.7590622901916504,"586":2.4348387718200684,"587":-1.199501395225525,"588":0.3220992982387543,"589":-1.8486223220825195,"590":1.137062430381775,"591":-0.42002296447753906,"592":-1.0449639558792114,"593":-3.5807104110717773,"594":-0.10967458784580231,"595":2.6876683235168457,"596":0.36991357803344727,"597":0.386691689491272,"598":-0.9011400938034058,"599":0.5866996049880981,"600":2.644531726837158,"601":2.14490008354187,"602":1.208742380142212,"603":-1.106160283088684,"604":0.18767251074314117,"605":-0.763322651386261,"606":0.45901310443878174,"607":-0.7806514501571655,"608":-1.8390671014785767,"609":-0.2659890949726105,"610":-0.2071193903684616,"611":1.8439161777496338,"612":1.4934594631195068,"613":-1.659202218055725,"614":-2.234226942062378,"615":-1.0183885097503662,"616":-1.0406889915466309,"617":0.42905840277671814,"618":-0.9762590527534485,"619":0.11371739953756332}},"outputHidden":{"rows":20,"columns":20,"weights":{"0":-0.18153420090675354,"1":-0.8190417885780334,"2":-0.7294788956642151,"3":-0.32679447531700134,"4":-0.33315181732177734,"5":0.11361749470233917,"6":-2.24599289894104,"7":-0.7206110954284668,"8":0.10626111179590225,"9":0.6440386772155762,"10":0.42836230993270874,"11":1.5333633422851562,"12":0.45080724358558655,"13":-1.0251909494400024,"14":0.7003963589668274,"15":-0.057518575340509415,"16":0.8129242658615112,"17":-2.279064178466797,"18":1.1897451877593994,"19":-1.1022694110870361,"20":-2.2805373668670654,"21":-0.879549503326416,"22":2.8726375102996826,"23":-0.5787568688392639,"24":0.7628285884857178,"25":-2.3103957176208496,"26":3.323667287826538,"27":0.43990558385849,"28":-0.989656925201416,"29":0.7493845820426941,"30":3.004441976547241,"31":-3.3251993656158447,"32":-1.030894160270691,"33":-0.535557210445404,"34":0.2612508237361908,"35":-1.395317554473877,"36":0.45402881503105164,"37":0.7244099378585815,"38":-0.7588735818862915,"39":1.4380130767822266,"40":0.07264014333486557,"41":-1.3206228017807007,"42":0.785264790058136,"43":1.7658355236053467,"44":-0.7942606806755066,"45":3.881739854812622,"46":3.742658853530884,"47":1.1312918663024902,"48":0.9068698883056641,"49":1.0397796630859375,"50":-2.3174855709075928,"51":0.33908072113990784,"52":3.8684446811676025,"53":-5.044536590576172,"54":-0.49219101667404175,"55":0.4586777091026306,"56":-1.5507980585098267,"57":-5.653733730316162,"58":-0.12714619934558868,"59":-1.5680385828018188,"60":0.08737270534038544,"61":-1.7923089265823364,"62":-0.5953909754753113,"63":-0.9202545285224915,"64":2.676283359527588,"65":-2.8237030506134033,"66":0.4662972390651703,"67":-2.0839834213256836,"68":0.6920217275619507,"69":1.0971304178237915,"70":2.740319013595581,"71":-1.1971259117126465,"72":2.485422372817993,"73":-1.0629968643188477,"74":0.463215172290802,"75":-2.8927102088928223,"76":-0.09998351335525513,"77":1.707166314125061,"78":-1.8470901250839233,"79":0.3660127818584442,"80":1.6047477722167969,"81":-1.181879997253418,"82":-2.8430912494659424,"83":-0.4625099301338196,"84":0.07017450779676437,"85":4.675379276275635,"86":-1.1581171751022339,"87":1.5856517553329468,"88":1.1415059566497803,"89":-0.0506846122443676,"90":-2.4362785816192627,"91":-2.1744508743286133,"92":1.5746451616287231,"93":-0.5319495797157288,"94":-0.3952839970588684,"95":0.19173763692378998,"96":1.8774625062942505,"97":-3.999112129211426,"98":1.466807246208191,"99":1.055571436882019,"100":0.7154632210731506,"101":-1.2724026441574097,"102":-0.3907688558101654,"103":-0.7481861710548401,"104":-0.6354213356971741,"105":0.8524394631385803,"106":0.010860001668334007,"107":-1.7107619047164917,"108":1.4091734886169434,"109":0.6320275068283081,"110":0.5544437170028687,"111":-2.321326732635498,"112":-0.05123865231871605,"113":0.6887034177780151,"114":0.37267646193504333,"115":-0.08597131818532944,"116":-0.1688036322593689,"117":0.7017672657966614,"118":-0.09928132593631744,"119":-0.8352628946304321,"120":0.3230055272579193,"121":0.6833407878875732,"122":1.139513611793518,"123":-1.6507012844085693,"124":-1.837003231048584,"125":-0.3040144741535187,"126":1.7844849824905396,"127":-1.2591016292572021,"128":-0.05712840333580971,"129":0.9260571599006653,"130":1.283075213432312,"131":-1.562992811203003,"132":-3.0978188514709473,"133":0.4477022588253021,"134":1.4234026670455933,"135":0.34218651056289673,"136":2.000704288482666,"137":0.7461104393005371,"138":1.835693359375,"139":-0.6739592552185059,"140":2.420456647872925,"141":0.17049859464168549,"142":-1.1127597093582153,"143":-3.2848880290985107,"144":3.1372501850128174,"145":1.3105428218841553,"146":-2.450331687927246,"147":-1.5155491828918457,"148":1.320462703704834,"149":1.075387716293335,"150":-1.0585370063781738,"151":0.02286686562001705,"152":0.9116634726524353,"153":0.9271508455276489,"154":-0.31181326508522034,"155":-1.0936486721038818,"156":0.194630429148674,"157":-0.4614527225494385,"158":-2.5193886756896973,"159":1.9860389232635498,"160":-2.0349650382995605,"161":0.053696632385253906,"162":-2.5724315643310547,"163":-0.10734494030475616,"164":1.0089157819747925,"165":1.9132345914840698,"166":-0.20880720019340515,"167":0.15340380370616913,"168":3.991119623184204,"169":-0.946308970451355,"170":0.9250950813293457,"171":-1.1915615797042847,"172":3.7795588970184326,"173":-0.5423830151557922,"174":-0.964605450630188,"175":-0.3447985351085663,"176":0.8912138938903809,"177":4.883307933807373,"178":4.989614963531494,"179":-2.5713133811950684,"180":2.0271151065826416,"181":-2.055663585662842,"182":-1.4664909839630127,"183":3.4374780654907227,"184":-3.5067830085754395,"185":0.46895864605903625,"186":2.2525858879089355,"187":3.416843891143799,"188":1.8027368783950806,"189":2.3056633472442627,"190":1.2180519104003906,"191":-0.19954907894134521,"192":4.13784646987915,"193":-0.34027135372161865,"194":2.118544101715088,"195":0.1145634576678276,"196":4.0645670890808105,"197":-4.995843887329102,"198":2.4099814891815186,"199":1.2537776231765747,"200":2.8902623653411865,"201":-1.6689876317977905,"202":0.12225425988435745,"203":-0.5344957113265991,"204":1.3667150735855103,"205":0.7848731875419617,"206":-0.3678170144557953,"207":-2.1363418102264404,"208":0.28620609641075134,"209":0.25281238555908203,"210":1.4761477708816528,"211":0.676105260848999,