{"sizes":[6,100,6],"layers":[{"isArr":{},"isNull":{},"isBoolean":{},"isString":{},"isNumber":{},"isAny":{}},{"0":{"bias":-0.015062389895319939,"weights":{"isArr":-0.3464373052120209,"isNull":-0.4770655632019043,"isBoolean":0.31643304228782654,"isString":0.5627503395080566,"isNumber":-0.7804529070854187,"isAny":0.5985151529312134}},"1":{"bias":-0.10095114260911942,"weights":{"isArr":-0.5044375658035278,"isNull":0.5781067609786987,"isBoolean":0.4460102319717407,"isString":0.5512043237686157,"isNumber":-0.6491249799728394,"isAny":-0.13372641801834106}},"2":{"bias":0.10872643440961838,"weights":{"isArr":0.540215253829956,"isNull":-0.12982875108718872,"isBoolean":-0.2828522026538849,"isString":-0.26777440309524536,"isNumber":-0.6269493699073792,"isAny":0.21486921608448029}},"3":{"bias":0.08732344210147858,"weights":{"isArr":-0.34862908720970154,"isNull":-0.11121317744255066,"isBoolean":0.20109301805496216,"isString":-0.17802931368350983,"isNumber":-0.08270510286092758,"isAny":0.05279377102851868}},"4":{"bias":0.018328240141272545,"weights":{"isArr":0.09157314896583557,"isNull":0.3873317837715149,"isBoolean":0.11647407710552216,"isString":-0.49831482768058777,"isNumber":0.43568140268325806,"isAny":-0.8778085112571716}},"5":{"bias":-0.12158278375864029,"weights":{"isArr":0.1904556304216385,"isNull":-0.2974463701248169,"isBoolean":-0.3956349790096283,"isString":-0.35432231426239014,"isNumber":0.004537360742688179,"isAny":0.7549439072608948}},"6":{"bias":-0.11147557944059372,"weights":{"isArr":0.5095695853233337,"isNull":-0.41034871339797974,"isBoolean":-0.19072967767715454,"isString":-0.22880978882312775,"isNumber":0.028482355177402496,"isAny":-0.2780286371707916}},"7":{"bias":-0.08724403381347656,"weights":{"isArr":-0.28735265135765076,"isNull":0.47552943229675293,"isBoolean":0.5628232359886169,"isString":0.422997385263443,"isNumber":-0.5068964958190918,"isAny":-0.6244516372680664}},"8":{"bias":-0.07832780480384827,"weights":{"isArr":-0.5481026768684387,"isNull":0.21532972157001495,"isBoolean":0.36112672090530396,"isString":-0.3026231825351715,"isNumber":-0.3445100486278534,"isAny":0.8175681829452515}},"9":{"bias":0.06884317845106125,"weights":{"isArr":0.2109600454568863,"isNull":0.12958687543869019,"isBoolean":-0.8820826411247253,"isString":0.21209917962551117,"isNumber":-0.13325533270835876,"isAny":0.5790910124778748}},"10":{"bias":-0.18052402138710022,"weights":{"isArr":-0.16166572272777557,"isNull":-0.06629392504692078,"isBoolean":0.25453999638557434,"isString":0.570054829120636,"isNumber":-0.18449002504348755,"isAny":-0.36041808128356934}},"11":{"bias":0.06050080433487892,"weights":{"isArr":-0.3422449827194214,"isNull":-0.7226378917694092,"isBoolean":0.7563311457633972,"isString":-0.29504507780075073,"isNumber":0.35146576166152954,"isAny":0.046723295003175735}},"12":{"bias":-0.010695605538785458,"weights":{"isArr":0.23949095606803894,"isNull":0.2933908998966217,"isBoolean":-0.579537570476532,"isString":0.33399757742881775,"isNumber":-0.03310008347034454,"isAny":-0.1375887244939804}},"13":{"bias":-0.060610271990299225,"weights":{"isArr":-0.35967734456062317,"isNull":-0.4863109886646271,"isBoolean":0.5630846619606018,"isString":-0.32026416063308716,"isNumber":0.24519586563110352,"isAny":-0.1003866121172905}},"14":{"bias":-0.22193975746631622,"weights":{"isArr":-0.03827430307865143,"isNull":0.06070192530751228,"isBoolean":-0.21326246857643127,"isString":0.6754388809204102,"isNumber":-0.270686537027359,"isAny":-0.1663515418767929}},"15":{"bias":-0.01584058441221714,"weights":{"isArr":0.6084980964660645,"isNull":-0.03786852955818176,"isBoolean":-0.519141674041748,"isString":0.0387633815407753,"isNumber":-0.6588106155395508,"isAny":0.30994129180908203}},"16":{"bias":-0.0732816755771637,"weights":{"isArr":0.4454590380191803,"isNull":0.2009112685918808,"isBoolean":-0.5897222757339478,"isString":-0.2972370982170105,"isNumber":-0.24263331294059753,"isAny":0.04410548508167267}},"17":{"bias":-0.016376061365008354,"weights":{"isArr":-0.5263055562973022,"isNull":0.4939109981060028,"isBoolean":0.22544658184051514,"isString":-0.7317614555358887,"isNumber":0.5428570508956909,"isAny":-0.15177275240421295}},"18":{"bias":-0.08221312612295151,"weights":{"isArr":-0.14932039380073547,"isNull":0.07060903310775757,"isBoolean":0.45912712812423706,"isString":0.3934207260608673,"isNumber":0.1363179236650467,"isAny":-0.9860817790031433}},"19":{"bias":0.09034425020217896,"weights":{"isArr":-0.28749746084213257,"isNull":0.5390701293945312,"isBoolean":-0.195420041680336,"isString":-0.2535083591938019,"isNumber":0.11034855246543884,"isAny":-0.04895821586251259}},"20":{"bias":-0.031794674694538116,"weights":{"isArr":-0.5233175754547119,"isNull":0.8599698543548584,"isBoolean":0.20311239361763,"isString":-0.38498175144195557,"isNumber":-0.6762019991874695,"isAny":0.30822449922561646}},"21":{"bias":0.10003867745399475,"weights":{"isArr":0.5869460105895996,"isNull":-0.6495078802108765,"isBoolean":-0.05978900194168091,"isString":0.3879300355911255,"isNumber":-1.0354735851287842,"isAny":0.6348874568939209}},"22":{"bias":-0.029436100274324417,"weights":{"isArr":-0.3295251727104187,"isNull":0.14047813415527344,"isBoolean":0.3841138184070587,"isString":0.23722925782203674,"isNumber":0.21514427661895752,"isAny":-0.5163831114768982}},"23":{"bias":0.057548001408576965,"weights":{"isArr":-0.5953745245933533,"isNull":-0.30948448181152344,"isBoolean":0.14578403532505035,"isString":0.06664958596229553,"isNumber":0.13550877571105957,"isAny":0.28984495997428894}},"24":{"bias":-0.15143169462680817,"weights":{"isArr":0.16535641252994537,"isNull":-0.051894135773181915,"isBoolean":0.20279240608215332,"isString":0.04744119942188263,"isNumber":-0.6754291653633118,"isAny":0.3502076268196106}},"25":{"bias":-0.13028134405612946,"weights":{"isArr":-0.4131931662559509,"isNull":0.09775298088788986,"isBoolean":-0.4858666658401489,"isString":-0.0909988209605217,"isNumber":0.5406545400619507,"isAny":0.2392287254333496}},"26":{"bias":-0.2436639666557312,"weights":{"isArr":0.8921574950218201,"isNull":-0.3572995960712433,"isBoolean":-0.42770513892173767,"isString":-0.015189141035079956,"isNumber":0.29017794132232666,"isAny":0.03456374630331993}},"27":{"bias":-0.21414093673229218,"weights":{"isArr":-0.4872828423976898,"isNull":0.0622955746948719,"isBoolean":-0.25045594573020935,"isString":0.20670360326766968,"isNumber":0.2643756866455078,"isAny":-0.21819886565208435}},"28":{"bias":-0.18059423565864563,"weights":{"isArr":-0.5919894576072693,"isNull":0.1656339019536972,"isBoolean":0.03284703195095062,"isString":-0.3684161603450775,"isNumber":0.14269785583019257,"isAny":0.5518869161605835}},"29":{"bias":0.011850595474243164,"weights":{"isArr":0.6560975909233093,"isNull":0.4618503451347351,"isBoolean":-0.19675858318805695,"isString":-0.26661959290504456,"isNumber":-0.5978819131851196,"isAny":0.07324687391519547}},"30":{"bias":-0.10325361788272858,"weights":{"isArr":-0.503849983215332,"isNull":-0.23555852472782135,"isBoolean":-0.515587329864502,"isString":-0.021497908979654312,"isNumber":0.674349844455719,"isAny":0.36836767196655273}},"31":{"bias":0.05229092761874199,"weights":{"isArr":-0.4485049545764923,"isNull":-0.5312652587890625,"isBoolean":-0.1425597220659256,"isString":0.7053074240684509,"isNumber":0.32511675357818604,"isAny":-0.05138503015041351}},"32":{"bias":-0.15408925712108612,"weights":{"isArr":-0.05646829679608345,"isNull":-0.30844151973724365,"isBoolean":0.14720690250396729,"isString":0.06476280093193054,"isNumber":-0.2802291214466095,"isAny":0.3719114363193512}},"33":{"bias":-0.09906970709562302,"weights":{"isArr":0.05868597328662872,"isNull":0.25137022137641907,"isBoolean":-0.12951350212097168,"isString":-0.3841703534126282,"isNumber":0.15919633209705353,"isAny":0.10339593887329102}},"34":{"bias":0.05288016051054001,"weights":{"isArr":0.7605758309364319,"isNull":-0.29871100187301636,"isBoolean":-0.5030457377433777,"isString":-0.5767337679862976,"isNumber":0.1933630108833313,"isAny":0.46608951687812805}},"35":{"bias":-0.10511913150548935,"weights":{"isArr":0.11494103074073792,"isNull":0.6255385875701904,"isBoolean":-0.4815939962863922,"isString":-0.4247000515460968,"isNumber":0.38788583874702454,"isAny":-0.50710129737854}},"36":{"bias":-0.1678124964237213,"weights":{"isArr":-0.32574528455734253,"isNull":1.2733253240585327,"isBoolean":-0.5736908316612244,"isString":-0.10315132141113281,"isNumber":-0.6213237643241882,"isAny":-0.3583053648471832}},"37":{"bias":0.07503294944763184,"weights":{"isArr":0.3405541181564331,"isNull":0.5386967062950134,"isBoolean":0.3094612658023834,"isString":0.029391314834356308,"isNumber":-0.25667688250541687,"isAny":-0.59392911195755}},"38":{"bias":0.016451116651296616,"weights":{"isArr":-0.23795734345912933,"isNull":-0.1019439846277237,"isBoolean":-0.18814626336097717,"isString":-0.07502493262290955,"isNumber":-0.0367899015545845,"isAny":0.03790128231048584}},"39":{"bias":-0.0371292419731617,"weights":{"isArr":0.16831494867801666,"isNull":-0.16284173727035522,"isBoolean":-0.5005810260772705,"isString":0.4424717426300049,"isNumber":0.20989778637886047,"isAny":0.06998325884342194}},"40":{"bias":-0.03965697064995766,"weights":{"isArr":-0.35349127650260925,"isNull":-0.05975586920976639,"isBoolean":0.4456196427345276,"isString":0.7157724499702454,"isNumber":-0.567643940448761,"isAny":-0.4657551646232605}},"41":{"bias":-0.15312092006206512,"weights":{"isArr":0.5498034358024597,"isNull":0.22616685926914215,"isBoolean":0.2817326486110687,"isString":-0.011872674338519573,"isNumber":-0.7740893959999084,"isAny":-0.4433119595050812}},"42":{"bias":-0.16432350873947144,"weights":{"isArr":0.19024690985679626,"isNull":-0.6325003504753113,"isBoolean":0.2556416988372803,"isString":0.6488466262817383,"isNumber":-0.6914714574813843,"isAny":0.15287990868091583}},"43":{"bias":-0.10333773493766785,"weights":{"isArr":0.11002323776483536,"isNull":0.002498181536793709,"isBoolean":-0.4681338965892792,"isString":0.42499107122421265,"isNumber":0.002847263589501381,"isAny":0.14958558976650238}},"44":{"bias":-0.015660108998417854,"weights":{"isArr":-0.10717183351516724,"isNull":-0.004557889886200428,"isBoolean":0.7839058637619019,"isString":-0.7201951742172241,"isNumber":-0.5074474811553955,"isAny":0.33047062158584595}},"45":{"bias":-0.03231588006019592,"weights":{"isArr":-0.036516882479190826,"isNull":-0.038318879902362823,"isBoolean":-0.2538734972476959,"isString":-0.2235325276851654,"isNumber":0.7489124536514282,"isAny":0.12122976034879684}},"46":{"bias":0.04761992394924164,"weights":{"isArr":0.44459620118141174,"isNull":-0.4943752884864807,"isBoolean":0.06185059994459152,"isString":0.2539457082748413,"isNumber":-0.2622267007827759,"isAny":0.4643680453300476}},"47":{"bias":-0.19862888753414154,"weights":{"isArr":-0.6842058300971985,"isNull":0.3196987807750702,"isBoolean":-0.22992901504039764,"isString":-0.34207773208618164,"isNumber":0.25907397270202637,"isAny":0.5310355424880981}},"48":{"bias":-0.10558384656906128,"weights":{"isArr":-0.4002307653427124,"isNull":-0.02470906265079975,"isBoolean":0.4602198600769043,"isString":-0.6955637335777283,"isNumber":0.9837583303451538,"isAny":-0.48950886726379395}},"49":{"bias":0.004521655384451151,"weights":{"isArr":0.1871897131204605,"isNull":-0.06865870952606201,"isBoolean":0.46549728512763977,"isString":-0.7359856367111206,"isNumber":-0.12067225575447083,"isAny":0.26288631558418274}},"50":{"bias":0.06932087987661362,"weights":{"isArr":0.15246297419071198,"isNull":-0.37777426838874817,"isBoolean":-0.12858937680721283,"isString":0.6337589621543884,"isNumber":-0.2681931257247925,"isAny":-0.25775766372680664}},"51":{"bias":-0.10749084502458572,"weights":{"isArr":-0.3680412471294403,"isNull":-0.10327252745628357,"isBoolean":0.2792718708515167,"isString":0.09836168587207794,"isNumber":-0.04270864650607109,"isAny":-0.03678717091679573}},"52":{"bias":0.0387401357293129,"weights":{"isArr":0.23160302639007568,"isNull":-0.1295483261346817,"isBoolean":-0.33892548084259033,"isString":0.026565516367554665,"isNumber":0.08667732775211334,"isAny":-0.0018837403040379286}},"53":{"bias":0.06255464255809784,"weights":{"isArr":0.06356111913919449,"isNull":0.00848825927823782,"isBoolean":-0.94817054271698,"isString":0.7602302432060242,"isNumber":0.22401833534240723,"isAny":-0.06927838921546936}},"54":{"bias":0.07656805962324142,"weights":{"isArr":0.06700564920902252,"isNull":-0.0908350795507431,"isBoolean":0.263925164937973,"isString":0.6996214985847473,"isNumber":-0.13085311651229858,"isAny":-0.8530716896057129}},"55":{"bias":0.0840064138174057,"weights":{"isArr":0.34896382689476013,"isNull":-0.2292778193950653,"isBoolean":0.36028769612312317,"isString":-0.27587178349494934,"isNumber":-0.26797956228256226,"isAny":0.25961363315582275}},"56":{"bias":-0.1425325572490692,"weights":{"isArr":-0.4607144892215729,"isNull":-0.37985265254974365,"isBoolean":0.1320911943912506,"isString":-0.01746296137571335,"isNumber":0.4556519389152527,"isAny":0.3527948558330536}},"57":{"bias":-0.05312850698828697,"weights":{"isArr":-0.23178379237651825,"isNull":-0.1453532874584198,"isBoolean":0.6166504621505737,"isString":-0.1552295684814453,"isNumber":-0.26416704058647156,"isAny":-0.4972730576992035}},"58":{"bias":0.03773452714085579,"weights":{"isArr":-0.3774614930152893,"isNull":-0.5640718936920166,"isBoolean":-0.2160157412290573,"isString":0.37208807468414307,"isNumber":0.5190564393997192,"isAny":-0.19675977528095245}},"59":{"bias":-0.02717135101556778,"weights":{"isArr":0.2788538932800293,"isNull":-0.6738418340682983,"isBoolean":0.16080279648303986,"isString":0.22216640412807465,"isNumber":0.5214844942092896,"isAny":-0.6143336296081543}},"60":{"bias":-0.23206225037574768,"weights":{"isArr":0.025925545021891594,"isNull":-0.2769416570663452,"isBoolean":0.461370587348938,"isString":-0.20434938371181488,"isNumber":-0.0557703860104084,"isAny":0.018445046618580818}},"61":{"bias":-0.06077791750431061,"weights":{"isArr":-0.026777340099215508,"isNull":-0.06451244652271271,"isBoolean":0.1214086189866066,"isString":0.4714391529560089,"isNumber":0.23886819183826447,"isAny":-0.6964634656906128}},"62":{"bias":0.02111392840743065,"weights":{"isArr":-0.6354932188987732,"isNull":0.2068321406841278,"isBoolean":-0.38200119137763977,"isString":0.03932346776127815,"isNumber":-0.16683995723724365,"isAny":0.5441176891326904}},"63":{"bias":0.05052758753299713,"weights":{"isArr":0.07281835377216339,"isNull":-0.03487762063741684,"isBoolean":0.5794638991355896,"isString":-0.24467788636684418,"isNumber":0.29408279061317444,"isAny":-0.20622535049915314}},"64":{"bias":0.05999137833714485,"weights":{"isArr":0.260457307100296,"isNull":0.2162904292345047,"isBoolean":0.3964463472366333,"isString":-0.09107980132102966,"isNumber":-0.48506465554237366,"isAny":-0.37060606479644775}},"65":{"bias":-0.184305340051651,"weights":{"isArr":-0.2543092966079712,"isNull":-0.4048922061920166,"isBoolean":0.07861340045928955,"isString":0.01882103830575943,"isNumber":0.0791732519865036,"isAny":0.3048606812953949}},"66":{"bias":-0.12134336680173874,"weights":{"isArr":-0.0814589187502861,"isNull":0.3840894401073456,"isBoolean":-0.031124787405133247,"isString":-0.4970530569553375,"isNumber":-0.4989004135131836,"isAny":0.7241875529289246}},"67":{"bias":0.0646417886018753,"weights":{"isArr":-0.23350770771503448,"isNull":0.2703564763069153,"isBoolean":-0.575304388999939,"isString":0.38506653904914856,"isNumber":0.23491919040679932,"isAny":-0.23937702178955078}},"68":{"bias":0.07200675457715988,"weights":{"isArr":0.4817720651626587,"isNull":-0.251585453748703,"isBoolean":-0.7171228528022766,"isString":-0.5802978873252869,"isNumber":0.3268715739250183,"isAny":0.47635525465011597}},"69":{"bias":0.008894523605704308,"weights":{"isArr":0.039102062582969666,"isNull":0.23899435997009277,"isBoolean":-0.6594643592834473,"isString":0.8096209764480591,"isNumber":-0.021501442417502403,"isAny":-0.277231901884079}},"70":{"bias":0.01380921807140112,"weights":{"isArr":-0.4253038465976715,"isNull":0.5557542443275452,"isBoolean":-0.6971865892410278,"isString":0.5414131879806519,"isNumber":-0.5521597862243652,"isAny":0.33047881722450256}},"71":{"bias":-0.0641588419675827,"weights":{"isArr":-0.5136728882789612,"isNull":0.17952127754688263,"isBoolean":0.036143213510513306,"isString":0.21756777167320251,"isNumber":0.23834183812141418,"isAny":-0.05910814553499222}},"72":{"bias":0.08981393277645111,"weights":{"isArr":-0.6098717451095581,"isNull":-0.5004628300666809,"isBoolean":0.47309133410453796,"isString":0.6642158627510071,"isNumber":0.15577714145183563,"isAny":-0.7099288702011108}},"73":{"bias":0.08772604167461395,"weights":{"isArr":-0.41031748056411743,"isNull":0.4725140631198883,"isBoolean":-0.6167942881584167,"isString":-0.0370991975069046,"isNumber":0.18298380076885223,"isAny":-0.0892026349902153}},"74":{"bias":-0.018988167867064476,"weights":{"isArr":-0.24293865263462067,"isNull":-0.7270737290382385,"isBoolean":0.6006937623023987,"isString":0.2077660709619522,"isNumber":-0.1659911870956421,"isAny":0.11064380407333374}},"75":{"bias":-0.00815498922020197,"weights":{"isArr":-0.7611843943595886,"isNull":0.32557323575019836,"isBoolean":-0.27228599786758423,"isString":-0.3500857949256897,"isNumber":0.6670223474502563,"isAny":0.5061994194984436}},"76":{"bias":-0.18427088856697083,"weights":{"isArr":-0.5986975431442261,"isNull":-0.595251202583313,"isBoolean":0.4630908966064453,"isString":-0.04616975039243698,"isNumber":0.6762189269065857,"isAny":0.2530292570590973}},"77":{"bias":-0.0985000729560852,"weights":{"isArr":-0.13437099754810333,"isNull":-0.3185900151729584,"isBoolean":-0.8379363417625427,"isString":0.6104364395141602,"isNumber":0.33950671553611755,"isAny":0.44889000058174133}},"78":{"bias":-0.02347140945494175,"weights":{"isArr":0.5669832825660706,"isNull":-0.467912495136261,"isBoolean":0.1995340883731842,"isString":-0.5999276638031006,"isNumber":0.5566264986991882,"isAny":-0.4596693217754364}},"79":{"bias":-0.03565884754061699,"weights":{"isArr":0.9433611035346985,"isNull":-0.3224364221096039,"isBoolean":-0.14389312267303467,"isString":0.07291492819786072,"isNumber":-0.1486797332763672,"isAny":-0.5008335709571838}},"80":{"bias":0.05473877489566803,"weights":{"isArr":0.5824323296546936,"isNull":-0.2766532003879547,"isBoolean":0.6895470023155212,"isString":-0.6547828912734985,"isNumber":-0.07327929139137268,"isAny":-0.29144012928009033}},"81":{"bias":-0.19294847548007965,"weights":{"isArr":0.7576895952224731,"isNull":0.2676793932914734,"isBoolean":0.24284595251083374,"isString":-0.3553079664707184,"isNumber":-0.4322848320007324,"isAny":-0.554232656955719}},"82":{"bias":-0.1568044275045395,"weights":{"isArr":0.3616195619106293,"isNull":0.34059199690818787,"isBoolean":-0.10810712724924088,"isString":-0.30612698197364807,"isNumber":0.07245373725891113,"isAny":-0.5601274967193604}},"83":{"bias":-0.10019358992576599,"weights":{"isArr":0.17923414707183838,"isNull":-0.655022144317627,"isBoolean":0.10463707149028778,"isString":0.6538410186767578,"isNumber":-0.40857961773872375,"isAny":0.3314651846885681}},"84":{"bias":0.07427383959293365,"weights":{"isArr":-0.13652126491069794,"isNull":-0.3906215727329254,"isBoolean":-0.36307770013809204,"isString":-0.4391612112522125,"isNumber":0.5349475741386414,"isAny":0.23475807905197144}},"85":{"bias":0.005044030491262674,"weights":{"isArr":0.31360897421836853,"isNull":-0.4973713457584381,"isBoolean":-0.15642939507961273,"isString":-0.4990488886833191,"isNumber":0.4763730466365814,"isAny":-0.1056068018078804}},"86":{"bias":0.07835128158330917,"weights":{"isArr":0.05450696870684624,"isNull":0.4647813141345978,"isBoolean":-0.36081480979919434,"isString":0.18423554301261902,"isNumber":-0.5592625737190247,"isAny":0.004567281808704138}},"87":{"bias":-0.11427615582942963,"weights":{"isArr":0.3856237828731537,"isNull":0.46901383996009827,"isBoolean":-0.20199432969093323,"isString":-0.4416485130786896,"isNumber":0.2220652550458908,"isAny":-0.5753077268600464}},"88":{"bias":0.004611459095031023,"weights":{"isArr":0.00437200115993619,"isNull":0.8035516142845154,"isBoolean":-0.6460852026939392,"isString":-0.40680786967277527,"isNumber":0.20316888391971588,"isAny":-0.38988474011421204}},"89":{"bias":0.018123840913176537,"weights":{"isArr":-0.07497439533472061,"isNull":0.6150156855583191,"isBoolean":-0.14420615136623383,"isString":-0.5872403979301453,"isNumber":0.22741824388504028,"isAny":-0.11258593201637268}},"90":{"bias":-0.19210897386074066,"weights":{"isArr":0.5390373468399048,"isNull":-0.3532778024673462,"isBoolean":-0.048966918140649796,"isString":-0.6334301233291626,"isNumber":-0.034381967037916183,"isAny":0.850269079208374}},"91":{"bias":-0.23140399158000946,"weights":{"isArr":-0.01684475690126419,"isNull":-0.566686749458313,"isBoolean":0.006388266105204821,"isString":0.13471977412700653,"isNumber":0.5352223515510559,"isAny":0.3784779906272888}},"92":{"bias":0.024357439950108528,"weights":{"isArr":-0.2731795608997345,"isNull":0.08719474077224731,"isBoolean":0.6077504754066467,"isString":0.2993106245994568,"isNumber":-0.6492413282394409,"isAny":-0.027322357520461082}},"93":{"bias":0.001133900717832148,"weights":{"isArr":0.7463643550872803,"isNull":0.4384998381137848,"isBoolean":0.21224406361579895,"isString":-0.5537183284759521,"isNumber":0.11338286846876144,"isAny":-0.600299060344696}},"94":{"bias":-0.03460470959544182,"weights":{"isArr":-0.34306490421295166,"isNull":0.3646942675113678,"isBoolean":-0.1535022109746933,"isString":-0.09659992158412933,"isNumber":-0.007064747624099255,"isAny":-0.3165353238582611}},"95":{"bias":-0.2535989582538605,"weights":{"isArr":0.09748699516057968,"isNull":0.15298905968666077,"isBoolean":0.258048951625824,"isString":-0.2545057535171509,"isNumber":-0.13266922533512115,"isAny":-0.1169920265674591}},"96":{"bias":-0.15243664383888245,"weights":{"isArr":0.3720235228538513,"isNull":-0.3158015310764313,"isBoolean":-0.1973665952682495,"isString":-0.3888162672519684,"isNumber":0.48379847407341003,"isAny":-0.1915883868932724}},"97":{"bias":-0.11198654025793076,"weights":{"isArr":0.43402838706970215,"isNull":-0.0554547980427742,"isBoolean":-0.2512858808040619,"isString":0.11247975379228592,"isNumber":-0.07174686342477798,"isAny":-0.017887573689222336}},"98":{"bias":-0.08553048968315125,"weights":{"isArr":0.59517502784729,"isNull":-0.5647434592247009,"isBoolean":0.25121375918388367,"isString":-0.05462539568543434,"isNumber":0.04550552740693092,"isAny":-0.6299672722816467}},"99":{"bias":0.0008021637331694365,"weights":{"isArr":-0.7760321497917175,"isNull":0.39022043347358704,"isBoolean":0.7004663944244385,"isString":-0.8012416958808899,"isNumber":-0.1572316735982895,"isAny":0.4790119528770447}}},{"isArr":{"bias":-0.2911289930343628,"weights":{"0":-0.3482421636581421,"1":-0.6212151646614075,"2":0.5204340815544128,"3":-0.36234450340270996,"4":0.12284236401319504,"5":0.10430649667978287,"6":0.643296480178833,"7":-0.38875553011894226,"8":-0.5624419450759888,"9":0.2491127848625183,"10":-0.2072296440601349,"11":-0.3974432051181793,"12":0.248402938246727,"13":-0.27921798825263977,"14":-0.17259535193443298,"15":0.4879001975059509,"16":0.5247745513916016,"17":-0.6132572889328003,"18":-0.11838047206401825,"19":-0.3079819679260254,"20":-0.611137866973877,"21":0.57328861951828,"22":-0.4521711468696594,"23":-0.6136012673377991,"24":0.09460873901844025,"25":-0.3766816556453705,"26":0.7744591236114502,"27":-0.5046513080596924,"28":-0.6836155652999878,"29":0.6383530497550964,"30":-0.46407970786094666,"31":-0.47421860694885254,"32":0.012052308768033981,"33":-0.021615201607346535,"34":0.7535108327865601,"35":0.09305191785097122,"36":-0.37513500452041626,"37":0.2561304569244385,"38":-0.18989655375480652,"39":0.18368251621723175,"40":-0.32240334153175354,"41":0.4654160737991333,"42":0.18300068378448486,"43":0.07022757828235626,"44":-0.048677168786525726,"45":-0.1699695587158203,"46":0.35149794816970825,"47":-0.7080787420272827,"48":-0.48255282640457153,"49":0.07698717713356018,"50":0.13735248148441315,"51":-0.49825313687324524,"52":0.21672101318836212,"53":0.0018542918842285872,"54":-0.028768591582775116,"55":0.2651633322238922,"56":-0.3832799196243286,"57":-0.1221010684967041,"58":-0.3970446288585663,"59":0.22196592390537262,"60":-0.06232314929366112,"61":-0.13961628079414368,"62":-0.6254019141197205,"63":-0.019331950694322586,"64":0.27387136220932007,"65":-0.330108642578125,"66":-0.07229753583669662,"67":-0.31323951482772827,"68":0.6045759916305542,"69":-0.03440839797258377,"70":-0.432975172996521,"71":-0.6070097088813782,"72":-0.624200165271759,"73":-0.4166814088821411,"74":-0.24224041402339935,"75":-0.8342008590698242,"76":-0.6356076598167419,"77":-0.11203330010175705,"78":0.6204390525817871,"79":0.9028359055519104,"80":0.5120097398757935,"81":0.666513979434967,"82":0.29525092244148254,"83":0.09358754009008408,"84":-0.018203459680080414,"85":0.3950299322605133,"86":0.031708985567092896,"87":0.32611432671546936,"88":0.023163720965385437,"89":-0.1591765433549881,"90":0.4758283793926239,"91":-0.07178773730993271,"92":-0.3847559988498688,"93":0.6803964972496033,"94":-0.2707785367965698,"95":0.02002476155757904,"96":0.39038968086242676,"97":0.3517724573612213,"98":0.6366668343544006,"99":-0.8322390913963318}},"isNull":{"bias":-0.0824689269065857,"weights":{"0":-0.5113934278488159,"1":0.4868166446685791,"2":-0.16477318108081818,"3":-0.17436270415782928,"4":0.3886964023113251,"5":-0.3555244207382202,"6":-0.2703586518764496,"7":0.37129873037338257,"8":0.20120278000831604,"9":0.1687416285276413,"10":-0.18236857652664185,"11":-0.786686360836029,"12":0.32985103130340576,"13":-0.4189508855342865,"14":-0.029002074152231216,"15":-0.07557043433189392,"16":0.31595534086227417,"17":0.4162031412124634,"18":0.01589970663189888,"19":0.5548256635665894,"20":0.8435238003730774,"21":-0.6528917551040649,"22":0.09242182970046997,"23":-0.3051893413066864,"24":-0.10194869339466095,"25":0.10054880380630493,"26":-0.5077142119407654,"27":0.07272324711084366,"28":0.03328171372413635,"29":0.5130499601364136,"30":-0.2662448585033417,"31":-0.6280061602592468,"32":-0.21650777757167816,"33":0.14019975066184998,"34":-0.29542276263237,"35":0.6111695170402527,"36":1.3602185249328613,"37":0.4953678846359253,"38":0.007395580876618624,"39":-0.20341794192790985,"40":-0.023335283622145653,"41":0.14595548808574677,"42":-0.6967539191246033,"43":-0.051941879093647,"44":-0.041933324187994,"45":-0.08853332698345184,"46":-0.5425601005554199,"47":0.32469770312309265,"48":-0.09307447075843811,"49":-0.06779834628105164,"50":-0.3531624972820282,"51":-0.23120221495628357,"52":-0.1569853574037552,"53":-0.016581574454903603,"54":-0.17643135786056519,"55":-0.2298206388950348,"56":-0.40610966086387634,"57":-0.06320398300886154,"58":-0.5842977166175842,"59":-0.6958228349685669,"60":-0.3701415956020355,"61":-0.153349831700325,"62":0.2559051811695099,"63":-0.10012960433959961,"64":0.2269512116909027,"65":-0.49282118678092957,"66":0.37420225143432617,"67":0.26348891854286194,"68":-0.0867292508482933,"69":0.12233210355043411,"70":0.5420078039169312,"71":0.06562763452529907,"72":-0.5566035509109497,"73":0.5194666981697083,"74":-0.784834086894989,"75":0.2877488434314728,"76":-0.7344984412193298,"77":-0.31489402055740356,"78":-0.3820548355579376,"79":-0.33628666400909424,"80":-0.37615159153938293,"81":0.20174561440944672,"82":0.290792852640152,"83":-0.7135578393936157,"84":-0.3486345708370209,"85":-0.4429941773414612,"86":0.46418702602386475,"87":0.4409951865673065,"88":0.8472854495048523,"89":0.6079332232475281,"90":-0.44784167408943176,"91":-0.6844843029975891,"92":0.005189843010157347,"93":0.4229567348957062,"94":0.4552757143974304,"95":0.09418580681085587,"96":-0.2611568868160248,"97":-0.14063656330108643,"98":-0.5582848787307739,"99":0.3816949725151062}},"isBoolean":{"bias":-0.206292524933815,"weights":{"0":0.31805482506752014,"1":0.4275290071964264,"2":-0.2809784412384033,"3":0.19799038767814636,"4":0.218474343419075,"5":-0.4956803321838379,"6":-0.03724294528365135,"7":0.5350092649459839,"8":0.3808515667915344,"9":-0.9119146466255188,"10":0.12610352039337158,"11":0.6887913346290588,"12":-0.5111709833145142,"13":0.6497035026550293,"14":-0.3614508807659149,"15":-0.5765942335128784,"16":-0.5341813564300537,"17":0.23914267122745514,"18":0.4568815529346466,"19":-0.09931734949350357,"20":0.14240188896656036,"21":-0.0303836390376091,"22":0.344635546207428,"23":0.05367501080036163,"24":0.17816568911075592,"25":-0.4557575285434723,"26":-0.6274276375770569,"27":-0.29527926445007324,"28":-0.025005964562296867,"29":-0.21715399622917175,"30":-0.538905918598175,"31":-0.2320047914981842,"32":0.14237381517887115,"33":-0.22260752320289612,"34":-0.5244147777557373,"35":-0.4516737759113312,"36":-0.5310024619102478,"37":0.305446982383728,"38":-0.18282519280910492,"39":-0.5759164094924927,"40":0.4817841947078705,"41":0.26336750388145447,"42":0.2348545342683792,"43":-0.5676668286323547,"44":0.8478406667709351,"45":-0.4086698293685913,"46":-0.08503422886133194,"47":-0.25996604561805725,"48":0.3879665732383728,"49":0.43648451566696167,"50":-0.10869918763637543,"51":0.16914375126361847,"52":-0.35102906823158264,"53":-1.0479719638824463,"54":0.18622711300849915,"55":0.31003525853157043,"56":0.1663462370634079,"57":0.753440260887146,"58":-0.2547995448112488,"59":0.14518269896507263,"60":0.42595475912094116,"61":0.08880627900362015,"62":-0.31238916516304016,"63":0.5422373414039612,"64":0.46508628129959106,"65":-0.029591064900159836,"66":-0.09415218979120255,"67":-0.6317352652549744,"68":-0.6157599091529846,"69":-0.71635901927948,"70":-0.7021278142929077,"71":0.02951151877641678,"72":0.47178831696510315,"73":-0.580852746963501,"74":0.5674291253089905,"75":-0.35077232122421265,"76":0.33632543683052063,"77":-0.9194287657737732,"78":0.26906663179397583,"79":-0.26832184195518494,"80":0.6379386782646179,"81":0.23573239147663116,"82":-0.03863128274679184,"83":-0.0012223246740177274,"84":-0.3225327134132385,"85":-0.08708570897579193,"86":-0.37359267473220825,"87":-0.28182822465896606,"88":-0.6322582364082336,"89":-0.12142646312713623,"90":-0.13066616654396057,"91":-0.14425919950008392,"92":0.5677875280380249,"93":0.21867311000823975,"94":-0.08834844082593918,"95":0.15219701826572418,"96":-0.133687362074852,"97":-0.3243143558502197,"98":0.29223719239234924,"99":0.7494430541992188}},"isString":{"bias":-0.09734334796667099,"weights":{"0":0.5909358263015747,"1":0.5615164041519165,"2":-0.29541081190109253,"3":-0.15747806429862976,"4":-0.4518806040287018,"5":-0.4709905982017517,"6":-0.0762074664235115,"7":0.42891544103622437,"8":-0.28071674704551697,"9":0.1389409750699997,"10":0.5002802014350891,"11":-0.3575438857078552,"12":0.36145174503326416,"13":-0.1782398223876953,"14":0.5629777312278748,"15":-0.07576362043619156,"16":-0.2577214539051056,"17":-0.7962692379951477,"18":0.4733112156391144,"19":-0.1955939084291458,"20":-0.40298810601234436,"21":0.3717995882034302,"22":0.18717119097709656,"23":0.06845196336507797,"24":-0.019742583855986595,"25":-0.0889442190527916,"26":-0.22548557817935944,"27":0.26689592003822327,"28":-0.45919978618621826,"29":-0.1730363965034485,"30":-0.016682825982570648,"31":0.6352132558822632,"32":0.1437629610300064,"33":-0.4852730333805084,"34":-0.6483594179153442,"35":-0.4663861095905304,"36":-0.044835325330495834,"37":0.0009131758124567568,"38":0.012735581025481224,"39":0.3856751620769501,"40":0.8074240684509277,"41":0.05102664232254028,"42":0.6201626658439636,"43":0.3787187337875366,"44":-0.6598595976829529,"45":-0.37995055317878723,"46":0.13444437086582184,"47":-0.4075930714607239,"48":-0.777398943901062,"49":-0.7875019311904907,"50":0.6450591087341309,"51":-0.04479554295539856,"52":-0.01456330344080925,"53":0.7125199437141418,"54":0.6718762516975403,"55":-0.3642257750034332,"56":-0.03460874408483505,"57":0.04756322130560875,"58":0.3496481776237488,"59":0.2452404648065567,"60":-0.22215186059474945,"61":0.4529224932193756,"62":0.07978658378124237,"63":-0.26325076818466187,"64":0.03356653451919556,"65":-0.016483910381793976,"66":-0.5670820474624634,"67":0.35797786712646484,"68":-0.5423659086227417,"69":0.7671617865562439,"70":0.5103564262390137,"71":0.1442916989326477,"72":0.6836699843406677,"73":0.020310567691922188,"74":0.24693195521831512,"75":-0.48579174280166626,"76":-0.13316790759563446,"77":0.5613201856613159,"78":-0.5970059037208557,"79":-0.060489460825920105,"80":-0.747462272644043,"81":-0.3770926594734192,"82":-0.2500576376914978,"83":0.5998726487159729,"84":-0.44711074233055115,"85":-0.43593931198120117,"86":0.16203440725803375,"87":-0.4787250757217407,"88":-0.4228156805038452,"89":-0.6185308694839478,"90":-0.7622094750404358,"91":0.07135271281003952,"92":0.2744069993495941,"93":-0.5926318168640137,"94":-0.0011394122848287225,"95":-0.24765127897262573,"96":-0.44203582406044006,"97":0.07423334568738937,"98":-0.08920745551586151,"99":-0.8172242641448975}},"isNumber":{"bias":-0.1406688243150711,"weights":{"0":-0.8066956996917725,"1":-0.6946861147880554,"2":-0.7134012579917908,"3":-0.10166051983833313,"4":0.46351975202560425,"5":-0.18185929954051971,"6":0.13440640270709991,"7":-0.46629565954208374,"8":-0.41170915961265564,"9":-0.20549358427524567,"10":-0.25030869245529175,"11":0.3513873517513275,"12":-0.05075773224234581,"13":0.37227579951286316,"14":-0.31266289949417114,"15":-0.7914428114891052,"16":-0.18432635068893433,"17":0.49400487542152405,"18":0.25129997730255127,"19":0.11962660402059555,"20":-0.7377418875694275,"21":-1.1253838539123535,"22":0.15419726073741913,"23":0.08568263053894043,"24":-0.7695063948631287,"25":0.5038634538650513,"26":0.04537944495677948,"27":0.2829999327659607,"28":0.0748843252658844,"29":-0.657314658164978,"30":0.6835343241691589,"31":0.26767489314079285,"32":-0.23752915859222412,"33":-0.00926908664405346,"34":0.10246917605400085,"35":0.4053800702095032,"36":-0.6056877374649048,"37":-0.3165837228298187,"38":0.028195958584547043,"39":0.1937878429889679,"40":-0.5103060603141785,"41":-0.819490373134613,"42":-0.7303260564804077,"43":-0.0030330282170325518,"44":-0.5009716749191284,"45":0.6553401350975037,"46":-0.4179812967777252,"47":0.23332102596759796,"48":0.9630140662193298,"49":-0.15879160165786743,"50":-0.313449501991272,"51":-0.12800735235214233,"52":0.11229605972766876,"53":0.19983594119548798,"54":-0.11043073236942291,"55":-0.39225608110427856,"56":0.46603089570999146,"57":-0.11527983844280243,"58":0.5626016855239868,"59":0.5329679250717163,"60":-0.11294517666101456,"61":0.2180403769016266,"62":-0.12470848113298416,"63":0.24521058797836304,"64":-0.4199872314929962,"65":-0.018090780824422836,"66":-0.5684608221054077,"67":0.23368202149868011,"68":0.37500160932540894,"69":-0.06454815715551376,"70":-0.5400862693786621,"71":0.17766904830932617,"72":0.2520124316215515,"73":0.19108955562114716,"74":-0.21576613187789917,"75":0.5829653739929199,"76":0.5939216017723083,"77":0.29065078496932983,"78":0.5912021398544312,"79":-0.19174659252166748,"80":-0.2191753089427948,"81":-0.46073538064956665,"82":0.09774255007505417,"83":-0.4107726514339447,"84":0.5752207040786743,"85":0.5338358879089355,"86":-0.5920987725257874,"87":0.09162428975105286,"88":0.21461521089076996,"89":0.216516375541687,"90":-0.17108292877674103,"91":0.4614286720752716,"92":-0.6634726524353027,"93":0.01752687618136406,"94":0.05620778724551201,"95":-0.26300641894340515,"96":0.5017143487930298,"97":-0.15509502589702606,"98":0.13241639733314514,"99":-0.16455970704555511}},"isAny":{"bias":0.058920253068208694,"weights":{"0":0.6134277582168579,"1":-0.19544455409049988,"2":0.10795385390520096,"3":0.009485671296715736,"4":-0.8796475529670715,"5":0.6365310549736023,"6":-0.2381250262260437,"7":-0.6870324015617371,"8":0.8150550723075867,"9":0.5509852766990662,"10":-0.41117820143699646,"11":0.010306594893336296,"12":-0.12352034449577332,"13":0.05624859780073166,"14":-0.22524476051330566,"15":0.19890062510967255,"16":0.008828097954392433,"17":-0.20991624891757965,"18":-0.9778038859367371,"19":-0.10431887954473495,"20":0.30565810203552246,"21":0.5591589212417603,"22":-0.5588181018829346,"23":0.34473416209220886,"24":0.25204920768737793,"25":0.2348727136850357,"26":-0.1562044322490692,"27":-0.1598874181509018,"28":0.4978184103965759,"29":0.07404233515262604,"30":0.4260225296020508,"31":-0.11128463596105576,"32":0.392318993806839,"33":0.06819061189889908,"34":0.3948685824871063,"35":-0.5516487956047058,"36":-0.3421424329280853,"37":-0.6277894973754883,"38":0.14598864316940308,"39":0.03614046052098274,"40":-0.44886818528175354,"41":-0.5021171569824219,"42":0.0739632397890091,"43":0.1561528742313385,"44":0.36633720993995667,"45":0.04393870010972023,"46":0.3459120988845825,"47":0.5025009512901306,"48":-0.5049706697463989,"49":0.150896355509758,"50":-0.2585602104663849,"51":-0.14042483270168304,"52":0.0399252325296402,"53":-0.13231749832630157,"54":-0.9102993011474609,"55":0.23042050004005432,"56":0.39341768622398376,"57":-0.37519723176956177,"58":-0.13689135015010834,"59":-0.6035474538803101,"60":-0.0073259552009403706,"61":-0.7135360836982727,"62":0.6252057552337646,"63":-0.20294907689094543,"64":-0.3863295018672943,"65":0.30223119258880615,"66":0.6576966047286987,"67":-0.29785263538360596,"68":0.566987931728363,"69":-0.3728789687156677,"70":0.37427449226379395,"71":-0.08755845576524734,"72":-0.6708388328552246,"73":-0.08165512979030609,"74":0.10417372733354568,"75":0.4613495469093323,"76":0.20424023270606995,"77":0.44179004430770874,"78":-0.4279346168041229,"79":-0.6113079786300659,"80":-0.41205525398254395,"81":-0.6470925211906433,"82":-0.5926463007926941,"83":0.2695518434047699,"84":0.346413791179657,"85":0.025084398686885834,"86":0.03832365572452545,"87":-0.6803051829338074,"88":-0.38013702630996704,"89":-0.0739593431353569,"90":0.7620308995246887,"91":0.34232276678085327,"92":-0.030679229646921158,"93":-0.6690027117729187,"94":-0.2620216906070709,"95":-0.19785690307617188,"96":-0.20336614549160004,"97":-0.1594681590795517,"98":-0.6109095811843872,"99":0.45447880029678345}}}],"outputLookup":true,"inputLookup":true,"activation":"sigmoid","trainOpts":{"iterations":20000,"errorThresh":0.005,"log":false,"logPeriod":10,"learningRate":0.3,"momentum":0.1,"callbackPeriod":10,"beta1":0.9,"beta2":0.999,"epsilon":1e-8}}