{"type":"LSTM","options":{"inputSize":45,"inputRange":45,"hiddenLayers":[20,20],"outputSize":45,"decayRate":0.999,"smoothEps":1e-8,"regc":0.000001,"clipval":5,"maxPredictionLength":100,"dataFormatter":{"values":["boolean","Boolean","boolean | undefined","boolean[]","List<Boolean>","boolean[] | undefined","Promise<boolean>","Call<Boolean>","Promise<boolean[]>","Call<List<Boolean>>","Response<boolean>","Response<boolean[]>","Promise<Response<boolean>>","Promise<Response<boolean[]>>","string","String","string | undefined","string[]","List<String>","string[] | undefined","Promise<string>","Call<String>","Promise<string[]>","Call<List<String>>","Response<string>","Response<string[]>","Promise<Response<string>>","Promise<Response<string[]>>","number","Float","number | undefined","number[]","List<Float>","number[] | undefined","Promise<number>","Call<Float>","Promise<number[]>","Call<List<Float>>","Response<number>","Response<number[]>","Promise<Response<number>>","Promise<Response<number[]>>","any","Any","any | undefined","any[]","List<Any>","any[] | undefined","Promise<any>","Call<Any>","Promise<any[]>","Call<List<Any>>","Response<any>","Response<any[]>","Promise<Response<any>>","Promise<Response<any[]>>","[string, number]","Map<String, Float>","[string, number] | undefined","[string, number][]","List<Map<String, Float>>","[string, number][] | undefined","Promise<[string, number]>","Call<Map<String, Float>>","Promise<[string, number][]>","Call<List<Map<String, Float>>>","Response<[string, number]>","Response<[string, number][]>","Promise<Response<[string, number]>>","Promise<Response<[string, number][]>>","[number, string]","Map<Int, String>","[number, string] | undefined","[number, string][]","List<Map<Int, String>>","[number, string][] | undefined","Promise<[number, string]>","Call<Map<Int, String>>","Promise<[number, string][]>","Call<List<Map<Int, String>>>","Response<[number, string]>","Response<[number, string][]>","Promise<Response<[number, string]>>","Promise<Response<[number, string][]>>","void","Call<Unit>","Promise<void>","Response<void>","Promise<Response<void>>","Get","GET","Post","POST","Put","PUT","Delete","DELETE","Body","interface","data class","class"],"indexTable":{"b":0,"o":1,"l":2,"e":3,"a":4,"n":5,"B":6," ":7,"|":8,"u":9,"d":10,"f":11,"i":12,"[":13,"]":14,"L":15,"s":16,"t":17,"<":18,">":19,"P":20,"r":21,"m":22,"C":23,"R":24,"p":25,"g":26,"S":27,"F":28,"y":29,"A":30,",":31,"M":32,"I":33,"v":34,"U":35,"G":36,"E":37,"T":38,"O":39,"D":40,"c":41,"stop-input":42,"start-output":43,"unrecognized":44},"characterTable":{"0":"b","1":"o","2":"l","3":"e","4":"a","5":"n","6":"B","7":" ","8":"|","9":"u","10":"d","11":"f","12":"i","13":"[","14":"]","15":"L","16":"s","17":"t","18":"<","19":">","20":"P","21":"r","22":"m","23":"C","24":"R","25":"p","26":"g","27":"S","28":"F","29":"y","30":"A","31":",","32":"M","33":"I","34":"v","35":"U","36":"G","37":"E","38":"T","39":"O","40":"D","41":"c","42":null,"43":null,"44":null},"characters":["b","o","l","e","a","n","B"," ","|","u","d","f","i","[","]","L","s","t","<",">","P","r","m","C","R","p","g","S","F","y","A",",","M","I","v","U","G","E","T","O","D","c","stop-input","start-output","unrecognized"],"specialIndexes":[42,43,44]}},"input":{"rows":46,"columns":45,"weights":{"0":-0.806153416633606,"1":-1.0743906497955322,"2":0.4302732050418854,"3":-0.8400223255157471,"4":0.039459578692913055,"5":1.5538513660430908,"6":1.2944415807724,"7":-0.541679859161377,"8":-0.2608063519001007,"9":-0.25528454780578613,"10":-0.7465941905975342,"11":-0.3115299642086029,"12":1.181492567062378,"13":0.024283695966005325,"14":-1.2123539447784424,"15":-0.6537123322486877,"16":-0.5284048914909363,"17":-0.2223663032054901,"18":-0.17350314557552338,"19":1.2302931547164917,"20":-0.8422027826309204,"21":-0.23268787562847137,"22":0.011620426550507545,"23":1.2283968925476074,"24":0.25957438349723816,"25":-1.3427735567092896,"26":-0.8052611351013184,"27":-1.1628525257110596,"28":0.318683922290802,"29":0.11523620039224625,"30":-1.0913482904434204,"31":1.239286184310913,"32":0.8880278468132019,"33":0.3858115077018738,"34":0.6216008067131042,"35":0.9787828922271729,"36":1.3661003112792969,"37":0.7094990015029907,"38":0.08169359713792801,"39":0.580350399017334,"40":1.228653073310852,"41":-1.0386241674423218,"42":0.04659262299537659,"43":-0.5866615772247314,"44":-0.5955392718315125,"45":1.8059321641921997,"46":-0.5787826776504517,"47":1.6649653911590576,"48":0.17428171634674072,"49":-0.5551089644432068,"50":1.0995330810546875,"51":-0.1416112333536148,"52":-1.0447218418121338,"53":0.18735387921333313,"54":-1.138971209526062,"55":0.4328455328941345,"56":0.5866782069206238,"57":-0.2132890671491623,"58":0.07403303682804108,"59":-0.5810750722885132,"60":-1.478751540184021,"61":-2.1210389137268066,"62":-1.817106008529663,"63":1.9167855978012085,"64":1.0599263906478882,"65":-0.13331204652786255,"66":2.4700331687927246,"67":-0.3447898030281067,"68":1.1035135984420776,"69":0.3663046956062317,"70":-0.7571298480033875,"71":-0.1781601905822754,"72":-1.5730472803115845,"73":1.3657724857330322,"74":-0.7145897746086121,"75":0.1278068870306015,"76":-0.750845193862915,"77":0.02933221124112606,"78":1.455992579460144,"79":2.4534599781036377,"80":-1.1638479232788086,"81":0.27367451786994934,"82":0.905982494354248,"83":-0.8396095633506775,"84":0.9356325268745422,"85":-0.043669648468494415,"86":0.8923379182815552,"87":-0.5071739554405212,"88":1.2840772867202759,"89":0.015217187814414501,"90":-0.7125272154808044,"91":-0.2516181766986847,"92":0.13830943405628204,"93":-0.6987443566322327,"94":0.600826621055603,"95":-0.8078121542930603,"96":1.1630650758743286,"97":-0.4205003082752228,"98":-1.385335087776184,"99":-1.707320213317871,"100":0.3302419185638428,"101":-1.4959487915039062,"102":1.2609329223632812,"103":0.299653559923172,"104":-2.778209686279297,"105":-0.7485395073890686,"106":-1.0080677270889282,"107":-0.6818662285804749,"108":0.6358999013900757,"109":0.382856160402298,"110":0.6386483311653137,"111":-0.7030295133590698,"112":-1.7590489387512207,"113":-0.19591039419174194,"114":2.265007495880127,"115":-1.1538230180740356,"116":-0.12022245675325394,"117":-1.0208371877670288,"118":-0.8992919921875,"119":-1.962641954421997,"120":-3.2763469219207764,"121":-0.04478715360164642,"122":0.15674956142902374,"123":2.075810194015503,"124":0.26753994822502136,"125":-1.4172435998916626,"126":1.2108640670776367,"127":-0.3583131730556488,"128":-0.0754866823554039,"129":1.1402316093444824,"130":-0.34706875681877136,"131":-1.9929572343826294,"132":-0.7696517705917358,"133":1.0947563648223877,"134":0.812984824180603,"135":0.9157246351242065,"136":0.5208823680877686,"137":-0.08399748057126999,"138":-0.34920480847358704,"139":1.1372746229171753,"140":-2.0241074562072754,"141":-1.0981460809707642,"142":0.398187518119812,"143":-0.285641074180603,"144":0.03752719983458519,"145":-0.819499135017395,"146":0.6033614277839661,"147":-0.5954400897026062,"148":-0.3434438705444336,"149":0.7479474544525146,"150":2.3535492420196533,"151":1.295681357383728,"152":0.29769042134284973,"153":-0.48460623621940613,"154":-2.1157901287078857,"155":-0.021001189947128296,"156":0.35046133399009705,"157":-0.4761241376399994,"158":-1.7193217277526855,"159":0.007103034760802984,"160":2.9355721473693848,"161":0.527454137802124,"162":0.12583807110786438,"163":-2.143152952194214,"164":0.09419094026088715,"165":0.7969617247581482,"166":0.8774609565734863,"167":0.6913039088249207,"168":-1.8723208904266357,"169":-0.2546234130859375,"170":0.1151808425784111,"171":-2.894706964492798,"172":-0.05059205740690231,"173":-0.5636229515075684,"174":-1.6494579315185547,"175":-1.446608543395996,"176":0.8566364645957947,"177":1.067274570465088,"178":-0.5213869214057922,"179":-0.652926504611969,"180":-0.4576469361782074,"181":-0.603929877281189,"182":0.17425626516342163,"183":-0.8201627731323242,"184":-1.819334864616394,"185":1.119315505027771,"186":-0.16329514980316162,"187":-1.0071039199829102,"188":3.193671941757202,"189":0.5432851314544678,"190":-2.221344470977783,"191":1.4994609355926514,"192":-0.675944447517395,"193":-0.14583851397037506,"194":1.1566667556762695,"195":-1.1880854368209839,"196":1.566042184829712,"197":-0.28013312816619873,"198":0.15719708800315857,"199":1.626094102859497,"200":-0.43031954765319824,"201":0.4315180480480194,"202":0.7395772933959961,"203":2.0573720932006836,"204":-0.329509973526001,"205":-0.6586571335792542,"206":0.4631929397583008,"207":-1.7097108364105225,"208":1.3095765113830566,"209":0.4006108343601227,"210":1.1482946872711182,"211":0.4991365075111389,"212":2.00832462310791,"213":-0.8184388279914856,"214":2.6518704891204834,"215":0.4416215717792511,"216":0.0012082402827218175,"217":0.8832576274871826,"218":-0.42867666482925415,"219":-0.24339531362056732,"220":0.5385496020317078,"221":1.7002713680267334,"222":3.1930572986602783,"223":-0.312897264957428,"224":-0.4189089238643646,"225":0.23980064690113068,"226":0.7660146355628967,"227":0.12458032369613647,"228":0.07488624006509781,"229":0.34284868836402893,"230":-0.9041674137115479,"231":-0.3176831603050232,"232":0.03131057694554329,"233":-0.14392197132110596,"234":0.3876625895500183,"235":0.07366979122161865,"236":-0.3296515941619873,"237":-0.4410147964954376,"238":-0.05381442606449127,"239":1.1777101755142212,"240":0.7330406904220581,"241":1.2173426151275635,"242":1.0126581192016602,"243":-0.009066024795174599,"244":-0.8231099843978882,"245":-0.3099364936351776,"246":-0.7813628315925598,"247":1.1730512380599976,"248":-0.37177774310112,"249":-0.8104580640792847,"250":0.8585188984870911,"251":-0.22379334270954132,"252":2.312429666519165,"253":0.04248082637786865,"254":0.7552689909934998,"255":2.9862639904022217,"256":-1.2887048721313477,"257":-0.5477845668792725,"258":-0.20168155431747437,"259":-1.0863813161849976,"260":0.2708909511566162,"261":-0.26368042826652527,"262":-0.18057461082935333,"263":-0.5926955938339233,"264":-0.42667272686958313,"265":-0.05647164210677147,"266":0.5717290639877319,"267":0.06972655653953552,"268":0.08416131138801575,"269":-1.3988267183303833,"270":0.6332812905311584,"271":0.5873895287513733,"272":-0.12171417474746704,"273":-0.28480905294418335,"274":1.5039691925048828,"275":-1.469232439994812,"276":0.11122264713048935,"277":-0.5055193901062012,"278":0.44194623827934265,"279":0.01637503132224083,"280":-0.7428256869316101,"281":1.087835669517517,"282":-0.23270122706890106,"283":-0.5104130506515503,"284":-0.3733789920806885,"285":-0.5168746113777161,"286":-0.5227686762809753,"287":-0.25165486335754395,"288":-0.08993150293827057,"289":-0.9978236556053162,"290":0.45908239483833313,"291":-0.24244971573352814,"292":-0.25209248065948486,"293":-0.15545989573001862,"294":0.07231032103300095,"295":-0.36144399642944336,"296":0.3505273759365082,"297":-0.8869511485099792,"298":-1.6058220863342285,"299":-0.31412601470947266,"300":-0.6941344738006592,"301":-0.4150039553642273,"302":0.7986690402030945,"303":0.5734371542930603,"304":1.4029102325439453,"305":0.06188885122537613,"306":0.5482695698738098,"307":0.4327795207500458,"308":-0.7507076859474182,"309":-0.01562739908695221,"310":-2.2535452842712402,"311":0.6361417770385742,"312":0.5020904541015625,"313":0.4758390784263611,"314":1.8760957717895508,"315":0.9574152827262878,"316":-1.1050411462783813,"317":0.9011328220367432,"318":-0.948516309261322,"319":2.4825172424316406,"320":0.8284664750099182,"321":1.7335734367370605,"322":-1.349992275238037,"323":1.7212985754013062,"324":-0.8152124285697937,"325":-1.5205961465835571,"326":-0.834758460521698,"327":2.9444785118103027,"328":-0.7697784304618835,"329":-5.134545803070068,"330":-0.420407772064209,"331":-2.111752986907959,"332":3.8248679637908936,"333":0.776593804359436,"334":0.6144595146179199,"335":-0.13156141340732574,"336":-1.8077069520950317,"337":-1.5757347345352173,"338":0.5518194437026978,"339":0.3898671269416809,"340":-2.1843526363372803,"341":-0.2589450180530548,"342":-1.7608561515808105,"343":-1.596105933189392,"344":-1.2214967012405396,"345":-4.130359172821045,"346":-0.5760672688484192,"347":2.2501280307769775,"348":3.4860007762908936,"349":0.4155508279800415,"350":-0.10064837336540222,"351":1.3567670583724976,"352":0.8276067972183228,"353":-1.9919915199279785,"354":1.8278249502182007,"355":-0.8377599716186523,"356":-3.448343276977539,"357":-0.0221281498670578,"358":1.104838252067566,"359":2.104706048965454,"360":1.7528191804885864,"361":1.3083211183547974,"362":0.9221519827842712,"363":-2.984640121459961,"364":-3.0751187801361084,"365":2.817894458770752,"366":0.6855010390281677,"367":-1.846573829650879,"368":-0.12279433012008667,"369":-0.465090811252594,"370":0.018420977517962456,"371":-1.72691810131073,"372":-0.5319611430168152,"373":-2.7899463176727295,"374":2.0398921966552734,"375":2.1649715900421143,"376":-0.2939576506614685,"377":-0.4452931880950928,"378":0.6972057819366455,"379":1.5126111507415771,"380":2.931472063064575,"381":1.8637499809265137,"382":-2.9820239543914795,"383":2.0986711978912354,"384":-0.13315477967262268,"385":2.256129026412964,"386":3.216200113296509,"387":-1.2840579748153687,"388":2.7017648220062256,"389":-2.6440305709838867,"390":-3.7439727783203125,"391":-0.06338697671890259,"392":3.5613508224487305,"393":2.450659990310669,"394":0.03862283378839493,"395":-2.606084108352661,"396":-2.611816883087158,"397":1.7665140628814697,"398":-2.454150438308716,"399":0.14301574230194092,"400":2.5197155475616455,"401":-3.406233549118042,"402":1.3854249715805054,"403":1.128629446029663,"404":1.8812437057495117,"405":-1.815734624862671,"406":-0.7954082489013672,"407":-1.7493278980255127,"408":1.6408889293670654,"409":-1.9335070848464966,"410":1.3783986568450928,"411":1.150101661682129,"412":1.9049770832061768,"413":-0.8609557151794434,"414":0.9238941073417664,"415":4.546952247619629,"416":0.773591935634613,"417":3.7485618591308594,"418":1.381493091583252,"419":-1.1508327722549438,"420":-0.4314064085483551,"421":3.4544873237609863,"422":1.9238039255142212,"423":-1.7126531600952148,"424":1.3666411638259888,"425":-1.2720779180526733,"426":-2.3396973609924316,"427":0.9722493886947632,"428":0.8111698627471924,"429":-2.699751615524292,"430":-0.8115378618240356,"431":-1.1023850440979004,"432":1.9403268098831177,"433":1.3743236064910889,"434":1.16937255859375,"435":1.2082922458648682,"436":2.238375425338745,"437":-2.8028056621551514,"438":1.001596450805664,"439":-2.7027971744537354,"440":1.670512318611145,"441":1.1959357261657715,"442":-2.340320110321045,"443":2.2666544914245605,"444":-0.6813462972640991,"445":1.5653574466705322,"446":-1.4085851907730103,"447":-2.370457887649536,"448":-1.9739640951156616,"449":-1.5754375457763672,"450":0.5098539590835571,"451":1.714202642440796,"452":3.622432231903076,"453":-0.9574974179267883,"454":2.623873233795166,"455":-1.4390490055084229,"456":-2.7977867126464844,"457":-0.33204078674316406,"458":-0.7253806591033936,"459":-0.9294528365135193,"460":-0.8261849284172058,"461":-2.8968961238861084,"462":-2.176875591278076,"463":-1.9666980504989624,"464":0.8347612619400024,"465":2.053877115249634,"466":-2.8360795974731445,"467":-0.7444745898246765,"468":1.385940432548523,"469":-0.1998717337846756,"470":1.4026615619659424,"471":1.288775086402893,"472":-1.1773513555526733,"473":-2.506194591522217,"474":3.650115728378296,"475":0.7079668641090393,"476":0.6151791214942932,"477":-0.8684647083282471,"478":-1.0387989282608032,"479":-1.8328684568405151,"480":-1.5389982461929321,"481":-0.9399815201759338,"482":-0.18746641278266907,"483":-2.332521915435791,"484":-0.18596376478672028,"485":-1.1980115175247192,"486":-1.5955157279968262,"487":1.7833666801452637,"488":-0.04985572770237923,"489":1.1484712362289429,"490":-1.7763959169387817,"491":2.3762948513031006,"492":-0.46544358134269714,"493":-0.47729605436325073,"494":-1.4136922359466553,"495":-2.492927074432373,"496":-0.07607725262641907,"497":1.3644169569015503,"498":-0.6485037803649902,"499":-3.0754849910736084,"500":0.9481990337371826,"501":4.4237470626831055,"502":-1.1530814170837402,"503":1.7775790691375732,"504":0.8035006523132324,"505":-2.0386228561401367,"506":-0.4761592149734497,"507":0.6887248754501343,"508":0.8047115206718445,"509":-4.898434162139893,"510":-3.398606538772583,"511":-0.18039895594120026,"512":-1.350367784500122,"513":0.8169358968734741,"514":2.792548418045044,"515":-1.598015546798706,"516":1.336235523223877,"517":0.25392594933509827,"518":3.9989163875579834,"519":0.05558980256319046,"520":-3.6299667358398438,"521":-1.8397903442382812,"522":-2.3187479972839355,"523":1.4983831644058228,"524":-0.04609210416674614,"525":-0.6113730669021606,"526":0.12487401813268661,"527":1.4195605516433716,"528":0.8623161911964417,"529":2.028484344482422,"530":0.6618595719337463,"531":3.2415902614593506,"532":0.0566229447722435,"533":-1.925607442855835,"534":1.3828349113464355,"535":2.627983808517456,"536":-1.7065080404281616,"537":0.0051378956995904446,"538":0.39644744992256165,"539":-0.8503322005271912,"540":-0.8239717483520508,"541":-4.297064304351807,"542":-2.9914402961730957,"543":1.579242467880249,"544":-1.9035348892211914,"545":1.3683477640151978,"546":-0.6349865198135376,"547":0.38883572816848755,"548":0.6716718077659607,"549":3.122807502746582,"550":2.736597776412964,"551":3.430049419403076,"552":1.577852725982666,"553":2.797443151473999,"554":-0.4576774537563324,"555":-0.8301007747650146,"556":2.8245794773101807,"557":3.2029035091400146,"558":-1.1437304019927979,"559":0.4073169529438019,"560":-2.738640546798706,"561":-0.9576348662376404,"562":2.1394190788269043,"563":0.7491220235824585,"564":-3.6943743228912354,"565":-0.4478892982006073,"566":-0.637938380241394,"567":1.357810378074646,"568":1.8253424167633057,"569":1.2429900169372559,"570":1.829887866973877,"571":1.8704884052276611,"572":-0.32812097668647766,"573":0.26870229840278625,"574":-2.0925865173339844,"575":1.5841492414474487,"576":0.14597229659557343,"577":-2.6174674034118652,"578":0.27962303161621094,"579":-1.7172870635986328,"580":0.4197452664375305,"581":-0.22627320885658264,"582":-0.050951872020959854,"583":-0.9968514442443848,"584":-0.5164777636528015,"585":-0.1173986941576004,"586":1.8666245937347412,"587":0.9266132712364197,"588":-0.5332778096199036,"589":3.0156898498535156,"590":-0.6682925820350647,"591":0.3107580542564392,"592":-0.07272594422101974,"593":-2.4759974479675293,"594":-0.9499198198318481,"595":1.2636362314224243,"596":-2.196462869644165,"597":1.192015528678894,"598":-0.24982069432735443,"599":0.921045184135437,"600":-0.0893021821975708,"601":-1.9385615587234497,"602":-2.1557998657226562,"603":0.1644030213356018,"604":-0.10293278098106384,"605":0.7024950981140137,"606":1.8039424419403076,"607":-0.0012997013982385397,"608":-0.3666691780090332,"609":0.8824572563171387,"610":-0.12749962508678436,"611":-0.48100659251213074,"612":0.9957641363143921,"613":-2.250519037246704,"614":-0.0040890248492360115,"615":-0.08158006519079208,"616":-1.0184296369552612,"617":-1.6899638175964355,"618":0.638247013092041,"619":-0.16477788984775543,"620":-0.1301458775997162,"621":0.5700392723083496,"622":0.08108499646186829,"623":0.5862471461296082,"624":0.9865577220916748,"625":-1.0648612976074219,"626":0.5606305003166199,"627":-1.441697359085083,"628":0.7726501226425171,"629":-0.3917672634124756,"630":0.8124094605445862,"631":-0.6114258170127869,"632":0.21611224114894867,"633":0.6756172180175781,"634":2.1535677909851074,"635":-2.162785291671753,"636":0.24021120369434357,"637":0.21548494696617126,"638":-3.577958345413208,"639":-0.38324040174484253,"640":-0.9534139633178711,"641":-1.42941153049469,"642":1.559186339378357,"643":0.6637037992477417,"644":-0.0023906102869659662,"645":3.3959295749664307,"646":0.1411428451538086,"647":-0.38311782479286194,"648":-0.23285649716854095,"649":-2.7365469932556152,"650":-0.25629013776779175,"651":-1.1735419034957886,"652":-0.3045220971107483,"653":-3.034773826599121,"654":1.1431344747543335,"655":2.3766252994537354,"656":-1.3609315156936646,"657":-0.6075417399406433,"658":-2.3939688205718994,"659":-0.20468075573444366,"660":0.16358251869678497,"661":0.5932827591896057,"662":0.4387754797935486,"663":-1.4026248455047607,"664":0.2557799816131592,"665":0.06595396250486374,"666":-2.1395397186279297,"667":-0.4005230963230133,"668":-0.7011994123458862,"669":-0.04763870686292648,"670":-0.23496846854686737,"671":-1.2499159574508667,"672":-2.04524564743042,"673":-0.08176109939813614,"674":-1.0882583856582642,"675":1.6200324296951294,"676":-0.2053881734609604,"677":2.6212894916534424,"678":-0.36798152327537537,"679":1.9833500385284424,"680":0.4416447579860687,"681":-5.394522190093994,"682":-1.5776643753051758,"683":-0.33334505558013916,"684":-0.2500828504562378,"685":1.2051193714141846,"686":1.3294172286987305,"687":1.6929233074188232,"688":-2.3442909717559814,"689":2.185774087905884,"690":0.5804141163825989,"691":0.2272174209356308,"692":-0.05237489938735962,"693":-0.1696327030658722,"694":-0.08816909044981003,"695":0.2651790678501129,"696":0.09212896972894669,"697":0.2970626652240753,"698":-0.9724165201187134,"699":-0.4521426260471344,"700":0.52231764793396,"701":-0.1825363039970398,"702":-0.29631203413009644,"703":0.669600784778595,"704":0.13541924953460693,"705":0.9872686266899109,"706":0.8769254684448242,"707":2.010342597961426,"708":-0.5820721983909607,"709":0.36336109042167664,"710":0.31659606099128723,"711":-1.011086344718933,"712":2.242189884185791,"713":-2.2927260398864746,"714":1.2596317529678345,"715":-1.9232077598571777,"716":4.872466087341309,"717":0.524066686630249,"718":0.4418674111366272,"719":0.5120421051979065,"720":1.6075005531311035,"721":1.302186369895935,"722":-2.174041986465454,"723":-1.3394322395324707,"724":0.14547666907310486,"725":-0.9042280316352844,"726":0.5649231672286987,"727":0.002972197951748967,"728":2.457998275756836,"729":0.18668809533119202,"730":-0.9505075216293335,"731":2.3430335521698,"732":-0.15981119871139526,"733":0.47137975692749023,"734":0.231363907456398,"735":0.22833338379859924,"736":-0.7951110601425171,"737":-0.7554833889007568,"738":-0.0918378084897995,"739":-1.6838737726211548,"740":0.9270663261413574,"741":2.6082520484924316,"742":0.5248032212257385,"743":0.07647314667701721,"744":-1.3672566413879395,"745":1.2208772897720337,"746":1.8132160902023315,"747":-0.3862125277519226,"748":-0.7620260119438171,"749":0.36570242047309875,"750":-0.38897785544395447,"751":-1.7367432117462158,"752":0.1508045345544815,"753":-0.057737085968256,"754":-0.08949857950210571,"755":-0.11857613921165466,"756":-0.08547931164503098,"757":-0.9192201495170593,"758":-1.5673973560333252,"759":-2.2209982872009277,"760":0.07565737515687943,"761":-0.44788414239883423,"762":2.2818171977996826,"763":-0.4481537342071533,"764":2.096949577331543,"765":-0.7711928486824036,"766":-1.574552059173584,"767":-1.0432018041610718,"768":1.556709885597229,"769":2.058276653289795,"770":-0.42568376660346985,"771":-0.2731475830078125,"772":0.13980895280838013,"773":0.40369412302970886,"774":0.6950147151947021,"775":0.1717778593301773,"776":0.31498855352401733,"777":0.7318050265312195,"778":1.2003605365753174,"779":-1.2710446119308472,"780":0.2197403758764267,"781":-0.476391464471817,"782":-0.013531209900975227,"783":-0.09778296947479248,"784":0.5275291204452515,"785":-2.2968838214874268,"786":-0.8465274572372437,"787":2.3714890480041504,"788":-0.40237024426460266,"789":1.377175211906433,"790":-0.15961012244224548,"791":-2.801774740219116,"792":1.269639015197754,"793":-0.12684977054595947,"794":1.4897178411483765,"795":0.7673869132995605,"796":0.989281952381134,"797":-2.2194983959198,"798":-0.23301692306995392,"799":0.07949915528297424,"800":2.381589412689209,"801":0.09393980354070663,"802":-0.771562933921814,"803":2.41501784324646,"804":0.06612758338451385,"805":-0.7280645966529846,"806":1.197825312614441,"807":-0.7238693237304688,"808":-1.656180739402771,"809":-2.2059743404388428,"810":0.16332542896270752,"811":-2.2299835681915283,"812":-0.8601926565170288,"813":0.8659332990646362,"814":0.37969323992729187,"815":0.009786609560251236,"816":-0.7722728848457336,"817":0.3147057294845581,"818":-0.5537278652191162,"819":0.23481085896492004,"820":0.20000770688056946,"821":1.870276927947998,"822":0.3913883864879608,"823":1.032103419303894,"824":0.7446029782295227,"825":0.9033030867576599,"826":0.9929370880126953,"827":-0.050225429236888885,"828":-0.3510502576828003,"829":-0.5692019462585449,"830":-1.2023072242736816,"831":0.1678430289030075,"832":0.015250789932906628,"833":-0.5575742125511169,"834":-0.49309995770454407,"835":0.6155084371566772,"836":-0.5947747230529785,"837":-0.16222691535949707,"838":0.019324785098433495,"839":0.9719604253768921,"840":0.383669376373291,"841":0.9562774896621704,"842":-0.08610551059246063,"843":0.43428486585617065,"844":-0.055908333510160446,"845":0.8294693231582642,"846":-1.0625423192977905,"847":0.44669482111930847,"848":0.6369811296463013,"849":-1.2475099563598633,"850":-1.119394063949585,"851":0.8278409838676453,"852":-0.6293913125991821,"853":-1.0356534719467163,"854":0.12346863001585007,"855":-0.6666723489761353,"856":-0.6909993290901184,"857":-1.0564167499542236,"858":0.24905791878700256,"859":-1.9969720840454102,"860":2.904547929763794,"861":1.638060212135315,"862":0.8892245888710022,"863":-0.8388817310333252,"864":-0.18823936581611633,"865":-2.48927640914917,"866":-2.178408622741699,"867":-1.3845148086547852,"868":0.26161763072013855,"869":-0.6417065858840942,"870":-3.962747812271118,"871":-2.215665817260742,"872":-1.38169264793396,"873":-1.0042093992233276,"874":3.674227714538574,"875":-0.880903959274292,"876":-0.645457923412323,"877":1.088854432106018,"878":2.925947427749634,"879":-0.6334638595581055,"880":-3.416661500930786,"881":-0.7942615151405334,"882":-0.4933878183364868,"883":2.7258188724517822,"884":0.9713134765625,"885":0.7259277105331421,"886":1.5132770538330078,"887":-1.1235671043395996,"888":-2.6408917903900146,"889":-0.8945481181144714,"890":1.0980772972106934,"891":0.6081147193908691,"892":-1.1653155088424683,"893":1.0031218528747559,"894":-0.13373655080795288,"895":0.4341564178466797,"896":0.9608073234558105,"897":-0.09443053603172302,"898":-0.5427099466323853,"899":-0.4128595292568207,"900":-2.2455780506134033,"901":3.065525531768799,"902":-0.12204217910766602,"903":0.9422510862350464,"904":0.235483780503273,"905":0.04752768203616142,"906":2.9435110092163086,"907":1.511672854423523,"908":-2.3962855339050293,"909":2.398144006729126,"910":-2.0757453441619873,"911":1.0573108196258545,"912":-1.9884897470474243,"913":0.8344115614891052,"914":-1.9691745042800903,"915":-3.562697172164917,"916":-1.3143564462661743,"917":1.2303130626678467,"918":-1.1320397853851318,"919":1.3447993993759155,"920":2.3730361461639404,"921":-1.8275319337844849,"922":2.0597658157348633,"923":1.6570826768875122,"924":-0.9522780776023865,"925":-3.10919451713562,"926":-0.8801195621490479,"927":1.6904796361923218,"928":1.2698081731796265,"929":1.5438066720962524,"930":0.08352449536323547,"931":-1.548753261566162,"932":-1.8768221139907837,"933":-0.23115268349647522,"934":-1.7592546939849854,"935":0.5362867712974548,"936":3.760227918624878,"937":-1.5838956832885742,"938":0.5893112421035767,"939":-0.1736406683921814,"940":1.1381664276123047,"941":-1.0363301038742065,"942":-1.3671563863754272,"943":0.5043161511421204,"944":-0.8906042575836182,"945":-1.2279945611953735,"946":-0.6502318978309631,"947":-0.23017683625221252,"948":-0.1973683089017868,"949":-2.4094700813293457,"950":1.686317801475525,"951":1.7641310691833496,"952":0.7506135702133179,"953":0.2176138311624527,"954":-3.03959321975708,"955":1.9990017414093018,"956":-3.018303632736206,"957":0.9210458397865295,"958":-0.7241150736808777,"959":-0.018881717696785927,"960":0.5178573727607727,"961":-1.8513542413711548,"962":1.283489465713501,"963":-0.570610761642456,"964":0.5452681183815002,"965":-0.33295953273773193,"966":-0.9200679063796997,"967":-1.6469084024429321,"968":-1.4442362785339355,"969":1.4042870998382568,"970":1.2758840322494507,"971":0.3472509980201721,"972":0.10816574841737747,"973":1.1603659391403198,"974":-1.2347147464752197,"975":-1.4455389976501465,"976":-0.7327508330345154,"977":-0.6372392773628235,"978":-0.20174311101436615,"979":-1.7496927976608276,"980":-0.238646999001503,"981":-1.924113154411316,"982":-0.49975863099098206,"983":2.2497849464416504,"984":1.3240314722061157,"985":2.0511012077331543,"986":-4.635427951812744,"987":-1.5287153720855713,"988":-0.07157354056835175,"989":0.6706322431564331,"990":3.8937816619873047,"991":-1.4829554557800293,"992":0.8619340658187866,"993":-0.5247284770011902,"994":-0.16119858622550964,"995":-0.38081881403923035,"996":-0.9394909739494324,"997":-0.907651424407959,"998":1.0926899909973145,"999":0.7349900007247925,"1000":1.4834420680999756,"1001":2.3297019004821777,"1002":2.4970591068267822,"1003":-0.9299640655517578,"1004":2.121732711791992,"1005":-0.9673585295677185,"1006":0.982018768787384,"1007":-1.3156572580337524,"1008":1.2430286407470703,"1009":-1.7029173374176025,"1010":0.5238718390464783,"1011":2.0870018005371094,"1012":-1.323562502861023,"1013":-0.4016991853713989,"1014":-3.299431324005127,"1015":2.111631393432617,"1016":1.0912822484970093,"1017":0.12368197739124298,"1018":0.27873119711875916,"1019":-1.9873828887939453,"1020":-1.3495831489562988,"1021":0.9383329749107361,"1022":0.7702897191047668,"1023":-3.5479586124420166,"1024":0.5412691831588745,"1025":-2.0998375415802,"1026":-2.066787004470825,"1027":0.47316473722457886,"1028":0.3641521632671356,"1029":1.6972085237503052,"1030":-0.8021507263183594,"1031":1.787169337272644,"1032":1.0044313669204712,"1033":2.394855499267578,"1034":1.7396621704101562,"1035":-0.5760868787765503,"1036":0.8916721940040588,"1037":-0.8842514157295227,"1038":-0.9757646918296814,"1039":1.548794150352478,"1040":-1.9171351194381714,"1041":-2.3626742362976074,"1042":0.19722983241081238,"1043":-0.35829538106918335,"1044":0.30116894841194153,"1045":0.2895929217338562,"1046":1.2739771604537964,"1047":-2.1974070072174072,"1048":-0.6584660410881042,"1049":2.136791467666626,"1050":1.7173136472702026,"1051":-0.25361955165863037,"1052":0.8085197806358337,"1053":0.17959371209144592,"1054":-1.9812896251678467,"1055":2.427100896835327,"1056":1.7807693481445312,"1057":0.09204664826393127,"1058":-2.6265580654144287,"1059":-0.981722891330719,"1060":2.957738161087036,"1061":1.9446640014648438,"1062":-0.9585485458374023,"1063":-0.8581299185752869,"1064":-0.3009393513202667,"1065":-0.560632586479187,"1066":-0.3273122012615204,"1067":-0.3681819438934326,"1068":-3.451242208480835,"1069":-0.393001914024353,"1070":-0.3534752130508423,"1071":-3.4495322704315186,"1072":0.1151251271367073,"1073":-0.4673609435558319,"1074":-0.5627735257148743,"1075":-2.3649375438690186,"1076":1.582456111907959,"1077":0.6637663841247559,"1078":0.12511388957500458,"1079":1.8203153610229492,"1080":0.276554137468338,"1081":0.7851212620735168,"1082":0.9202238917350769,"1083":-0.12495919317007065,"1084":-0.6899029016494751,"1085":0.39413195848464966,"1086":0.04933670535683632,"1087":-1.0132802724838257,"1088":0.7725663185119629,"1089":-1.0105681419372559,"1090":0.20193137228488922,"1091":-0.9997010231018066,"1092":0.34350547194480896,"1093":-0.6102044582366943,"1094":0.510246217250824,"1095":0.8385339379310608,"1096":1.8903242349624634,"1097":-0.11484387516975403,"1098":0.8533172607421875,"1099":0.08126644045114517,"1100":-0.7700862288475037,"1101":0.33450114727020264,"1102":-0.568680465221405,"1103":0.46998244524002075,"1104":-0.9357489943504333,"1105":0.8771635293960571,"1106":-0.20642228424549103,"1107":1.1877634525299072,"1108":0.39672598242759705,"1109":-0.2023058831691742,"1110":1.5235532522201538,"1111":-0.03105478547513485,"1112":0.11776139587163925,"1113":-0.23585306107997894,"1114":0.42737799882888794,"1115":-0.6526610255241394,"1116":-0.26912128925323486,"1117":1.0199652910232544,"1118":-0.22449062764644623,"1119":-0.39003801345825195,"1120":1.0305877923965454,"1121":-0.01258029229938984,"1122":0.7620928883552551,"1123":0.2821292281150818,"1124":-2.989771604537964,"1125":1.588148593902588,"1126":0.28807124495506287,"1127":-3.11653733253479,"1128":0.15492263436317444,"1129":-3.286844491958618,"1130":-0.23700281977653503,"1131":-2.309314250946045,"1132":0.2254546582698822,"1133":2.1788108348846436,"1134":4.264322757720947,"1135":1.5602116584777832,"1136":5.241697788238525,"1137":-1.0157946348190308,"1138":0.7926554679870605,"1139":3.096484422683716,"1140":1.907511830329895,"1141":2.9784345626831055,"1142":4.480306625366211,"1143":-0.9588935375213623,"1144":-0.8943911790847778,"1145":-0.9699673056602478,"1146":0.6036147475242615,"1147":0.5049814581871033,"1148":-0.34413036704063416,"1149":-0.301604688167572,"1150":2.1820333003997803,"1151":1.4604904651641846,"1152":0.18712297081947327,"1153":0.9070001244544983,"1154":0.7994028329849243,"1155":1.6888190507888794,"1156":0.7916087508201599,"1157":1.4569803476333618,"1158":-1.5316835641860962,"1159":-1.80257248878479,"1160":0.24102382361888885,"1161":-2.085010051727295,"1162":-2.285634994506836,"1163":0.661224901676178,"1164":-1.092805027961731,"1165":0.3985925614833832,"1166":0.7635648846626282,"1167":1.6419427394866943,"1168":-0.8012073636054993,"1169":1.4199044704437256,"1170":0.5849262475967407,"1171":0.8963281512260437,"1172":0.1809200793504715,"1173":-2.4771838188171387,"1174":1.6402719020843506,"1175":-0.30927568674087524,"1176":-0.5411618947982788,"1177":0.20378440618515015,"1178":-1.254140853881836,"1179":0.253903329372406,"1180":0.6442428827285767,"1181":-1.9132802486419678,"1182":-0.17717944085597992,"1183":0.1686362326145172,"1184":-1.521106481552124,"1185":1.1936930418014526,"1186":-0.9912657141685486,"1187":0.33528074622154236,"1188":-0.4291656017303467,"1189":0.17373496294021606,"1190":1.9601871967315674,"1191":2.0012826919555664,"1192":0.18492448329925537,"1193":-0.4255741834640503,"1194":-2.051015853881836,"1195":0.512541651725769,"1196":0.3043670058250427,"1197":2.2650866508483887,"1198":-0.33967679738998413,"1199":1.0058993101119995,"1200":-0.1102389395236969,"1201":0.23081396520137787,"1202":-1.4967659711837769,"1203":-1.0618759393692017,"1204":-1.65988028049469,"1205":0.842501163482666,"1206":-0.5088529586791992,"1207":-0.1412583291530609,"1208":0.453558087348938,"1209":-0.46823650598526,"1210":-0.6671380996704102,"1211":-0.19250963628292084,"1212":0.14085185527801514,"1213":0.059794191271066666,"1214":-1.6637005805969238,"1215":1.9021333456039429,"1216":1.7711936235427856,"1217":0.6748734712600708,"1218":-0.38607344031333923,"1219":1.2069141864776611,"1220":-1.7287393808364868,"1221":-1.9141589403152466,"1222":-1.5037540197372437,"1223":2.5226891040802,"1224":1.0978409051895142,"1225":-2.726681709289551,"1226":0.5609292387962341,"1227":-1.8851003646850586,"1228":-0.23506218194961548,"1229":1.0806975364685059,"1230":1.5970796346664429,"1231":-2.813514232635498,"1232":0.2642351984977722,"1233":0.08982401341199875,"1234":-0.7090529799461365,"1235":0.4106854200363159,"1236":1.847731113433838,"1237":-1.1645591259002686,"1238":-1.2957218885421753,"1239":2.3743200302124023,"1240":1.0440161228179932,"1241":0.7152702808380127,"1242":-3.0018856525421143,"1243":-1.0694962739944458,"1244":-2.2819440364837646,"1245":-2.530121088027954,"1246":-3.7036640644073486,"1247":2.881798028945923,"1248":-1.3486148118972778,"1249":-0.2213815152645111,"1250":-1.2240129709243774,"1251":-1.2676726579666138,"1252":1.5905909538269043,"1253":-2.663430690765381,"1254":-0.21928179264068604,"1255":-2.4340457916259766,"1256":0.3863952159881592,"1257":0.3994556963443756,"1258":1.868651270866394,"1259":2.218595027923584,"1260":-2.2101237773895264,"1261":-0.13714729249477386,"1262":-1.6970819234848022,"1263":1.3289008140563965,"1264":-0.18401294946670532,"1265":1.259229302406311,"1266":0.4436621367931366,"1267":2.6235334873199463,"1268":0.6904538869857788,"1269":0.7078648805618286,"1270":2.5933899879455566,"1271":-0.6303409934043884,"1272":0.005413568112999201,"1273":1.0055742263793945,"1274":1.253015160560608,"1275":-0.43967291712760925,"1276":0.5421585440635681,"1277":-0.10354495048522949,"1278":-2.3646960258483887,"1279":1.721901535987854,"1280":0.40647757053375244,"1281":-3.119816303253174,"1282":0.5255485773086548,"1283":-0.3084019124507904,"1284":-0.04935473948717117,"1285":-0.22680190205574036,"1286":-1.1743454933166504,"1287":2.1196112632751465,"1288":1.3764833211898804,"1289":0.4846051335334778,"1290":-0.009802082553505898,"1291":0.9422603249549866,"1292":-2.416271209716797,"1293":0.15046314895153046,"1294":-2.959876298904419,"1295":1.5465010404586792,"1296":0.7307348847389221,"1297":-2.5530290603637695,"1298":2.856438636779785,"1299":-2.5702407360076904,"1300":0.5991808772087097,"1301":-0.2798367440700531,"1302":-1.3657397031784058,"1303":-1.1807644367218018,"1304":-1.3262245655059814,"1305":1.5334200859069824,"1306":-2.597222328186035,"1307":-0.4570547938346863,"1308":2.987246036529541,"1309":2.1860158443450928,"1310":-1.0280238389968872,"1311":0.3786821961402893,"1312":-0.5677325129508972,"1313":-1.174820065498352,"1314":-1.8022359609603882,"1315":-0.11479928344488144,"1316":-1.5365239381790161,"1317":2.1558475494384766,"1318":3.1467480659484863,"1319":-2.0329277515411377,"1320":0.5390169024467468,"1321":-0.7134605646133423,"1322":-0.6063034534454346,"1323":0.8891564607620239,"1324":-0.9720443487167358,"1325":-3.1020216941833496,"1326":1.1214689016342163,"1327":-0.4140898585319519,"1328":-1.8020226955413818,"1329":2.6147055625915527,"1330":-0.0007717260159552097,"1331":-4.703210353851318,"1332":-2.7376272678375244,"1333":-1.5132553577423096,"1334":0.2268209308385849,"1335":-0.46847113966941833,"1336":1.3522940874099731,"1337":-0.26184892654418945,"1338":1.3151261806488037,"1339":2.2296929359436035,"1340":0.8041059970855713,"1341":0.5260055065155029,"1342":0.29026827216148376,"1343":0.11777851730585098,"1344":0.7651956081390381,"1345":-1.2842659950256348,"1346":0.2240099012851715,"1347":-4.330996513366699,"1348":0.2985575199127197,"1349":-1.0060415267944336,"1350":-5.602430820465088,"1351":-2.1182990074157715,"1352":-1.5570175647735596,"1353":1.4509992599487305,"1354":0.9801498055458069,"1355":5.907159328460693,"1356":5.51324462890625,"1357":2.487725257873535,"1358":0.11072885245084763,"1359":1.835817575454712,"1360":0.23846808075904846,"1361":2.00374436378479,"1362":-0.07307790219783783,"1363":1.7008692026138306,"1364":-2.800480842590332,"1365":-5.7541184425354,"1366":-5.743036270141602,"1367":1.1295493841171265,"1368":-2.682190179824829,"1369":6.165762424468994,"1370":2.8341917991638184,"1371":-5.008697032928467,"1372":3.7258989810943604,"1373":-0.05947583168745041,"1374":-2.1593852043151855,"1375":-6.060815811157227,"1376":-2.4879539012908936,"1377":1.668443202972412,"1378":5.781096458435059,"1379":3.0782241821289062,"1380":-6.276344299316406,"1381":-2.823728084564209,"1382":-2.7466585636138916,"1383":3.8996286392211914,"1384":-1.8229551315307617,"1385":3.9656829833984375,"1386":6.056549072265625,"1387":-1.7279250621795654,"1388":3.1767892837524414,"1389":-2.723457098007202,"1390":5.400094509124756,"1391":-4.752021789550781,"1392":-1.0626429319381714,"1393":-4.5706787109375,"1394":-1.0359163284301758,"1395":3.235764503479004,"1396":-1.3362061977386475,"1397":1.792205810546875,"1398":-1.8233911991119385,"1399":-0.9490163326263428,"1400":-0.6249918937683105,"1401":-1.6639068126678467,"1402":-3.1648051738739014,"1403":2.8942060470581055,"1404":-2.4081058502197266,"1405":-3.091653823852539,"1406":-0.9646139740943909,"1407":0.5161162614822388,"1408":-1.690895438194275,"1409":4.078083038330078,"1410":-0.766877293586731,"1411":-2.677053689956665,"1412":-2.549133777618408,"1413":3.8385024070739746,"1414":-1.380155324935913,"1415":1.4067306518554688,"1416":4.3520612716674805,"1417":-2.4455368518829346,"1418":-0.12160023301839828,"1419":-0.6042296886444092,"1420":1.3139265775680542,"1421":2.304962158203125,"1422":-2.967988967895508,"1423":0.05223247781395912,"1424":-4.231590747833252,"1425":-3.554680109024048,"1426":-2.757784605026245,"1427":1.6063839197158813,"1428":-0.15280219912528992,"1429":3.3470826148986816,"1430":-3.8136680126190186,"1431":-1.3809142112731934,"1432":3.1067895889282227,"1433":-2.240387439727783,"1434":3.4357101917266846,"1435":-1.0499557256698608,"1436":3.4969637393951416,"1437":2.727961778640747,"1438":4.33074426651001,"1439":3.906742572784424,"1440":-1.0776152610778809,"1441":0.00032413704320788383,"1442":-0.796787440776825,"1443":2.291116237640381,"1444":0.457859069108963,"1445":-0.08608102053403854,"1446":0.6495907306671143,"1447":2.1715750694274902,"1448":-1.4516915082931519,"1449":-0.7781578898429871,"1450":-0.9369266629219055,"1451":-0.6400214433670044,"1452":-1.390851616859436,"1453":1.9481910467147827,"1454":-1.0247429609298706,"1455":-0.4751425087451935,"1456":-1.7927778959274292,"1457":-1.0712145566940308,"1458":-0.8554573655128479,"1459":-0.11109914630651474,"1460":-1.9425550699234009,"1461":-1.1266732215881348,"1462":1.2758389711380005,"1463":-0.773751974105835,"1464":2.9244027137756348,"1465":-0.4090559780597687,"1466":-2.0515785217285156,"1467":1.7235959768295288,"1468":0.35938403010368347,"1469":0.34146714210510254,"1470":0.8773736953735352,"1471":0.524647057056427,"1472":-4.522512435913086,"1473":0.6382009387016296,"1474":-0.0475306361913681,"1475":0.26380932331085205,"1476":0.5720228552818298,"1477":-2.4837722778320312,"1478":2.4592883586883545,"1479":-0.6211749315261841,"1480":0.17642742395401,"1481":0.8437965512275696,"1482":-1.6723991632461548,"1483":-0.645605206489563,"1484":-0.6232969164848328,"1485":-4.214524269104004,"1486":-0.08483818173408508,"1487":1.4875215291976929,"1488":0.48901239037513733,"1489":-1.053152084350586,"1490":3.770259380340576,"1491":3.1288599967956543,"1492":-0.7668588161468506,"1493":1.8142307996749878,"1494":-1.7264933586120605,"1495":0.4413199722766876,"1496":0.31951114535331726,"1497":-0.9931241869926453,"1498":-0.4379376173019409,"1499":-3.264383316040039,"1500":-3.6029789447784424,"1501":-0.5602158904075623,"1502":-1.299023985862732,"1503":0.8712382316589355,"1504":3.9646999835968018,"1505":-0.678810179233551,"1506":-2.1054162979125977,"1507":1.0847432613372803,"1508":3.6297645568847656,"1509":2.9881210327148438,"1510":-4.446802139282227,"1511":-0.939113438129425,"1512":-0.6798485517501831,"1513":2.2789089679718018,"1514":0.9307762384414673,"1515":0.13339760899543762,"1516":-1.1777043342590332,"1517":0.3560304343700409,"1518":2.724810838699341,"1519":2.6181159019470215,"1520":0.9547334909439087,"1521":4.4088640213012695,"1522":0.5912412405014038,"1523":0.6264529824256897,"1524":2.4666762351989746,"1525":2.5713393688201904,"1526":-1.049416184425354,"1527":-0.3686944842338562,"1528":0.10851180553436279,"1529":-0.21348001062870026,"1530":0.08250655978918076,"1531":2.5676732063293457,"1532":0.9852309823036194,"1533":-1.5842485427856445,"1534":0.2873421311378479,"1535":-0.23090846836566925,"1536":0.4307638704776764,"1537":-0.6070712208747864,"1538":0.9599992632865906,"1539":-0.03983452916145325,"1540":-0.13983578979969025,"1541":0.7356041669845581,"1542":-0.5213064551353455,"1543":-0.5033789277076721,"1544":-0.37932565808296204,"1545":-0.42774978280067444,"1546":-1.0237600803375244,"1547":0.08608977496623993,"1548":0.9200083017349243,"1549":-0.03285104036331177,"1550":1.3688946962356567,"1551":0.5126050114631653,"1552":-0.3995239734649658,"1553":0.6940160393714905,"1554":-1.5882028341293335,"1555":-0.05460774898529053,"1556":0.3253026008605957,"1557":-0.2992049753665924,"1558":-0.46488526463508606,"1559":-0.10160594433546066,"1560":-0.17402450740337372,"1561":-1.1575301885604858,"1562":-0.10612744092941284,"1563":1.9100102186203003,"1564":0.5070652365684509,"1565":-0.5492726564407349,"1566":0.3144383132457733,"1567":0.5936570763587952,"1568":-0.4707839787006378,"1569":0.8462280631065369,"1570":-0.42118513584136963,"1571":-0.14043161273002625,"1572":0.29943516850471497,"1573":0.5748879313468933,"1574":0.3812611699104309,"1575":-4.552582263946533,"1576":-3.129605531692505,"1577":-0.26634424924850464,"1578":2.08469295501709,"1579":2.0258312225341797,"1580":3.5640711784362793,"1581":4.95166015625,"1582":0.7473476529121399,"1583":3.0270533561706543,"1584":-0.034654684364795685,"1585":-0.2209884226322174,"1586":6.049646377563477,"1587":1.0104308128356934,"1588":1.422058343887329,"1589":-7.851318836212158,"1590":-4.087137699127197,"1591":0.8083043098449707,"1592":4.563580513000488,"1593":-1.3795760869979858,"1594":6.326408863067627,"1595":-1.1989920139312744,"1596":-4.60593843460083,"1597":-1.2019352912902832,"1598":4.9716620445251465,"1599":6.1910786628723145,"1600":-6.3223557472229,"1601":-2.8997085094451904,"1602":-3.3354625701904297,"1603":1.0294443368911743,"1604":2.1467037200927734,"1605":-3.2736685276031494,"1606":1.3439700603485107,"1607":0.4974611699581146,"1608":6.284533500671387,"1609":1.0223971605300903,"1610":2.8425474166870117,"1611":6.150991439819336,"1612":-0.0995682030916214,"1613":0.5346339344978333,"1614":-2.7099924087524414,"1615":0.1755143702030182,"1616":-4.9471564292907715,"1617":-1.5690891742706299,"1618":-3.0750458240509033,"1619":-3.6627907752990723,"1620":-4.838761329650879,"1621":0.7010224461555481,"1622":1.4984122514724731,"1623":0.5478874444961548,"1624":-0.5688380599021912,"1625":5.113048553466797,"1626":6.312026023864746,"1627":1.5994758605957031,"1628":-4.2548909187316895,"1629":-5.237861633300781,"1630":-0.2561624348163605,"1631":-12.02439022064209,"1632":-4.339519500732422,"1633":-1.1715008020401,"1634":-8.3727388381958,"1635":-10.709834098815918,"1636":-3.864952802658081,"1637":-0.12645697593688965,"1638":1.3632218837738037,"1639":5.629981994628906,"1640":2.3187129497528076,"1641":-2.385178804397583,"1642":1.8711384534835815,"1643":5.889601230621338,"1644":5.881242752075195,"1645":-8.422904968261719,"1646":-1.8848143815994263,"1647":1.530376672744751,"1648":4.431520938873291,"1649":2.007927894592285,"1650":0.2594408392906189,"1651":-2.214216947555542,"1652":-4.230471611022949,"1653":3.518458127975464,"1654":0.03260393813252449,"1655":-0.28701260685920715,"1656":6.740285873413086,"1657":-0.4189889430999756,"1658":0.3216218948364258,"1659":1.9077332019805908,"1660":3.6384434700012207,"1661":-4.2942728996276855,"1662":-2.6728594303131104,"1663":0.028248626738786697,"1664":-0.9219877123832703,"1665":14.70472526550293,"1666":-12.100722312927246,"1667":12.07052993774414,"1668":-0.8105145692825317,"1669":9.339959144592285,"1670":-0.959492027759552,"1671":-0.04979982599616051,"1672":-11.216743469238281,"1673":-2.393213987350464,"1674":-2.176342725753784,"1675":-8.924028396606445,"1676":5.805925369262695,"1677":4.127438545227051,"1678":-0.5746564865112305,"1679":-1.8140418529510498,"1680":-10.223517417907715,"1681":-19.114124298095703,"1682":-5.8231048583984375,"1683":17.00564956665039,"1684":-0.42437469959259033,"1685":-1.3075958490371704,"1686":14.768331527709961,"1687":-10.062786102294922,"1688":-3.5936763286590576,"1689":-10.46712589263916,"1690":-4.819983005523682,"1691":3.0834357738494873,"1692":-10.121938705444336,"1693":-1.1935393810272217,"1694":-15.683171272277832,"1695":-13.525616645812988,"1696":-8.400476455688477,"1697":8.1785306930542,"1698":-1.246354341506958,"1699":14.480588912963867,"1700":-9.88924503326416,"1701":-0.18307507038116455,"1702":9.319430351257324,"1703":-10.198959350585938,"1704":10.13786792755127,"1705":-4.398809909820557,"1706":1.4822496175765991,"1707":5.494390964508057,"1708":16.877197265625,"1709":9.411565780639648,"1710":-4.582633018493652,"1711":-3.362732172012329,"1712":-4.213763236999512,"1713":7.117117404937744,"1714":-3.1389927864074707,"1715":3.3520267009735107,"1716":4.142820835113525,"1717":5.50982141494751,"1718":-5.1603474617004395,"1719":2.4511256217956543,"1720":1.1345316171646118,"1721":4.406182289123535,"1722":5.991888523101807,"1723":5.6853413581848145,"1724":-3.0183944702148438,"1725":-4.907907009124756,"1726":1.625807762145996,"1727":3.8754384517669678,"1728":-2.5253098011016846,"1729":4.443083763122559,"1730":-2.4954283237457275,"1731":-3.5295400619506836,"1732":2.1448047161102295,"1733":5.017885684967041,"1734":-7.6931023597717285,"1735":-4.95661735534668,"1736":-4.235106945037842,"1737":1.8204376697540283,"1738":2.8065900802612305,"1739":2.746217966079712,"1740":3.8680734634399414,"1741":2.2420437335968018,"1742":-2.956306219100952,"1743":3.0444929599761963,"1744":-2.4614620208740234,"1745":1.9117480516433716,"1746":4.538192272186279,"1747":-4.067345142364502,"1748":2.237931966781616,"1749":-0.35671675205230713,"1750":4.593640327453613,"1751":-0.7305440902709961,"1752":-2.7692203521728516,"1753":-2.4250447750091553,"1754":0.4343191087245941,"1755":2.2442634105682373,"1756":-0.4215141832828522,"1757":3.543071985244751,"1758":8.513649940490723,"1759":1.4305695295333862,"1760":-5.175396919250488,"1761":6.834650993347168,"1762":2.5337975025177,"1763":-6.667627334594727,"1764":-8.025389671325684,"1765":-1.2033967971801758,"1766":-8.863846778869629,"1767":5.23538064956665,"1768":5.523334980010986,"1769":3.9204766750335693,"1770":2.3105063438415527,"1771":-4.718742847442627,"1772":-7.048340320587158,"1773":0.018499718979001045,"1774":-1.5992573499679565,"1775":-6.329945087432861,"1776":-8.52392578125,"1777":3.153079032897949,"1778":-6.355510711669922,"1779":1.3431142568588257,"1780":1.8666619062423706,"1781":-7.9891839027404785,"1782":4.158926963806152,"1783":-4.915861129760742,"1784":0.5245480537414551,"1785":5.949953556060791,"1786":-3.000500202178955,"1787":-2.933297634124756,"1788":-0.9714701175689697,"1789":-1.989199161529541,"1790":-0.15416239202022552,"1791":-1.8981307744979858,"1792":-5.096520900726318,"1793":0.736933171749115,"1794":0.036576852202415466,"1795":-1.1215969324111938,"1796":0.7846834063529968,"1797":-8.465841293334961,"1798":2.882404088973999,"1799":-4.957566261291504,"1800":-11.352893829345703,"1801":-0.06190638989210129,"1802":-3.094344139099121,"1803":4.425680637359619,"1804":2.519360065460205,"1805":7.639189720153809,"1806":-1.618973731994629,"1807":13.263568878173828,"1808":0.16777566075325012,"1809":8.115546226501465,"1810":7.546822547912598,"1811":3.784791946411133,"1812":-4.788177490234375,"1813":7.499029636383057,"1814":-4.42681884765625,"1815":2.6975929737091064,"1816":-0.8806883692741394,"1817":8.857545852661133,"1818":-9.754308700561523,"1819":5.512097358703613,"1820":-6.8652448654174805,"1821":-10.246722221374512,"1822":14.57978630065918,"1823":-3.5112481117248535,"1824":7.856663703918457,"1825":0.7690310478210449,"1826":-1.3759620189666748,"1827":18.59689712524414,"1828":-2.0773861408233643,"1829":12.792037010192871,"1830":-2.962887763977051,"1831":-5.169127941131592,"1832":-11.6339750289917,"1833":-4.899075984954834,"1834":-9.948202133178711,"1835":9.879820823669434,"1836":1.2425975799560547,"1837":-20.21885871887207,"1838":12.697637557983398,"1839":-1.6720284223556519,"1840":0.5019892454147339,"1841":-10.114775657653809,"1842":-14.013113975524902,"1843":-0.04467831179499626,"1844":-5.887678146362305,"1845":-4.642660140991211,"1846":-7.814691066741943,"1847":-10.407022476196289,"1848":4.771891117095947,"1849":-4.186394214630127,"1850":1.5769621133804321,"1851":-5.170270919799805,"1852":0.7855662107467651,"1853":-10.6618013381958,"1854":8.835466384887695,"1855":8.459412574768066,"1856":5.3740973472595215,"1857":8.509530067443848,"1858":6.802088260650635,"1859":-10.351271629333496,"1860":4.193753719329834,"1861":-4.14853048324585,"1862":6.987010955810547,"1863":-11.01464557647705,"1864":5.068545341491699,"1865":-3.366558790206909,"1866":-2.1366207599639893,"1867":4.418003082275391,"1868":0.6914581060409546,"1869":-8.89576244354248,"1870":1.1450718641281128,"1871":-8.68508529663086,"1872":11.365920066833496,"1873":-0.14248886704444885,"1874":9.962996482849121,"1875":-6.662415027618408,"1876":2.717050075531006,"1877":-17.06297492980957,"1878":-2.6528873443603516,"1879":-16.076080322265625,"1880":12.480740547180176,"1881":-1.3507492542266846,"1882":-7.340492248535156,"1883":4.722309112548828,"1884":-11.850876808166504,"1885":-2.5877325534820557,"1886":-10.811177253723145,"1887":0.5569981932640076,"1888":-12.678366661071777,"1889":-6.930472373962402,"1890":-1.6688096523284912,"1891":-6.255163192749023,"1892":-2.799201488494873,"1893":8.165994644165039,"1894":-7.185800075531006,"1895":6.982614994049072,"1896":5.308452606201172,"1897":5.125147819519043,"1898":-6.792063236236572,"1899":3.7689766883850098,"1900":2.6367290019989014,"1901":4.024669170379639,"1902":-1.42967689037323,"1903":4.79250431060791,"1904":-5.891554355621338,"1905":-1.3788825273513794,"1906":8.9509859085083,"1907":6.21533203125,"1908":-3.141055107116699,"1909":3.5835671424865723,"1910":-8.690948486328125,"1911":-0.7787326574325562,"1912":2.208779811859131,"1913":6.483463287353516,"1914":-1.4245343208312988,"1915":-5.480729103088379,"1916":-7.519033908843994,"1917":3.5608739852905273,"1918":6.638607978820801,"1919":5.512936592102051,"1920":7.735158443450928,"1921":7.145745754241943,"1922":-1.0286823511123657,"1923":7.901708126068115,"1924":-2.6551313400268555,"1925":2.1729116439819336,"1926":5.782980918884277,"1927":-3.3678629398345947,"1928":4.0218000411987305,"1929":-3.015044689178467,"1930":6.756042003631592,"1931":-2.8667185306549072,"1932":-8.341702461242676,"1933":-4.871516227722168,"1934":-7.1047749519348145,"1935":-0.46736419200897217,"1936":1.360559105873108,"1937":-0.3331819772720337,"1938":-0.8507858514785767,"1939":-0.04521520063281059,"1940":-0.2181575745344162,"1941":-0.4216150939464569,"1942":0.2611767053604126,"1943":-1.7586288452148438,"1944":0.9257920980453491,"1945":1.2735151052474976,"1946":-1.363914966583252,"1947":-0.8562062978744507,"1948":-0.4086042642593384,"1949":0.26388683915138245,"1950":0.7612205743789673,"1951":1.2361949682235718,"1952":1.3081058263778687,"1953":-0.45451319217681885,"1954":-0.1699414998292923,"1955":1.1942543983459473,"1956":-0.8659763932228088,"1957":0.5920626521110535,"1958":0.045008137822151184,"1959":-0.5195568799972534,"1960":0.46720048785209656,"1961":0.9610574841499329,"1962":2.379814863204956,"1963":-0.3699932098388672,"1964":0.13825228810310364,"1965":0.9528071880340576,"1966":0.14199553430080414,"1967":-2.1636476516723633,"1968":-0.17992006242275238,"1969":-2.0433030128479004,"1970":0.1548246145248413,"1971":0.039480358362197876,"1972":-0.3627423346042633,"1973":0.6710556745529175,"1974":-1.3577760457992554,"1975":0.22943821549415588,"1976":-0.6741913557052612,"1977":-0.1206808015704155,"1978":-0.5918080806732178,"1979":-2.3877182006835938,"1980":-1.419944405555725,"1981":-0.8752771019935608,"1982":-0.9040170311927795,"1983":0.8861227035522461,"1984":0.5213476419448853,"1985":1.5082054138183594,"1986":0.4838426411151886,"1987":1.4618875980377197,"1988":-0.5207037329673767,"1989":-0.2388431578874588,"1990":1.724096655845642,"1991":-0.02665392868220806,"1992":0.5563687086105347,"1993":0.6480816006660461,"1994":-1.8695101737976074,"1995":-1.773026466369629,"1996":-0.5711256265640259,"1997":0.8329285979270935,"1998":-1.0433841943740845,"1999":1.255584955215454,"2000":-0.5018313527107239,"2001":0.7084017992019653,"2002":-0.27076196670532227,"2003":1.315606713294983,"2004":-0.08538226038217545,"2005":-1.3287062644958496,"2006":-0.820916473865509,"2007":1.8421289920806885,"2008":1.1862890720367432,"2009":1.1522125005722046,"2010":-0.058282848447561264,"2011":1.3426834344863892,"2012":-2.438296318054199,"2013":0.28046518564224243,"2014":-1.2215029001235962,"2015":1.3884788751602173,"2016":0.9111731648445129,"2017":-0.34238100051879883,"2018":1.9565242528915405,"2019":-0.44782084226608276,"2020":0.5744838118553162,"2021":-0.47364792227745056,"2022":-1.2328838109970093,"2023":-1.3463561534881592,"2024":-0.4149627685546875,"2025":0.019170427694916725,"2026":0.008395456708967686,"2027":0.05350957810878754,"2028":0.051538798958063126,"2029":0.043957047164440155,"2030":0.010450217872858047,"2031":0.07735995948314667,"2032":-0.05750947818160057,"2033":0.0589306578040123,"2034":0.008407928049564362,"2035":0.03494160249829292,"2036":0.07733410596847534,"2037":-0.07704848051071167,"2038":-0.0005461408873088658,"2039":0.07557083666324615,"2040":-0.011935063637793064,"2041":0.05391506850719452,"2042":0.06366517394781113,"2043":0.02969273366034031,"2044":-0.008972102776169777,"2045":0.0056727053597569466,"2046":0.06296533346176147,"2047":0.005896621849387884,"2048":-0.058771248906850815,"2049":0.021584637463092804,"2050":0.03695186227560043,"2051":0.014010606333613396,"2052":-0.0022826557978987694,"2053":-0.0655437707901001,"2054":-0.004215204156935215,"2055":-0.01403795089572668,"2056":-0.019706351682543755,"2057":-0.022183606401085854,"2058":-0.041401155292987823,"2059":-0.07359453290700912,"2060":0.01615203730762005,"2061":-0.07319065928459167,"2062":0.04152434691786766,"2063":0.005521576385945082,"2064":-0.0768589973449707,"2065":0.027310436591506004,"2066":0.021943023428320885,"2067":0.07525025308132172,"2068":-0.0024097668938338757,"2069":-0.06599187105894089}},"hiddenLayers":[{"inputMatrix":{"rows":20,"columns":45,"weights":{"0":-1.5405758619308472,"1":0.14728844165802002,"2":-0.3019472062587738,"3":0.1417781412601471,"4":-0.9223562479019165,"5":1.3142971992492676,"6":0.9132307171821594,"7":0.25414663553237915,"8":1.12709379196167,"9":0.9569420218467712,"10":-0.8635382652282715,"11":0.7194157242774963,"12":-0.11146628111600876,"13":-0.41942328214645386,"14":-1.0151875019073486,"15":-1.1209604740142822,"16":0.13403205573558807,"17":2.063544750213623,"18":-0.8094658255577087,"19":1.1960786581039429,"20":-0.9363434314727783,"21":-0.3985285460948944,"22":0.5960125923156738,"23":1.2806113958358765,"24":-0.6909464001655579,"25":-1.1856458187103271,"26":-0.23749803006649017,"27":1.1905919313430786,"28":0.7652501463890076,"29":0.7535586953163147,"30":0.7642773985862732,"31":-0.01737249456346035,"32":-0.1764194518327713,"33":0.20144551992416382,"34":-0.9243606925010681,"35":1.2087364196777344,"36":1.1834653615951538,"37":-0.11895225942134857,"38":0.36724528670310974,"39":-0.021661721169948578,"40":1.7523192167282104,"41":-1.0652190446853638,"42":0.5433945059776306,"43":-0.8894399404525757,"44":-0.7182905077934265,"45":-0.7539696097373962,"46":1.7254928350448608,"47":0.334764689207077,"48":1.1269769668579102,"49":-0.816660463809967,"50":-0.10324279218912125,"51":0.29604944586753845,"52":0.4162634015083313,"53":0.7466181516647339,"54":0.8013361692428589,"55":-0.4806029498577118,"56":0.8084585070610046,"57":-1.9567391872406006,"58":-0.2930435240268707,"59":-0.6859103441238403,"60":-1.2916300296783447,"61":0.3214718997478485,"62":0.37167641520500183,"63":0.7250975966453552,"64":0.5758807063102722,"65":0.504289448261261,"66":-1.654941201210022,"67":1.5322445631027222,"68":0.7758594155311584,"69":-0.22312667965888977,"70":-0.7580471038818359,"71":0.20927639305591583,"72":2.170687198638916,"73":0.7573349475860596,"74":0.5126610398292542,"75":2.194924831390381,"76":-1.563096284866333,"77":-2.1991236209869385,"78":0.24448122084140778,"79":-0.28298041224479675,"80":-0.3264162242412567,"81":0.5642927885055542,"82":-0.8692137002944946,"83":-0.26437389850616455,"84":-0.5568265318870544,"85":0.34775885939598083,"86":0.6733964681625366,"87":0.8592209815979004,"88":0.1074119508266449,"89":-1.391563057899475,"90":3.335204839706421,"91":-0.32841619849205017,"92":1.1828879117965698,"93":-0.2668474316596985,"94":1.3425092697143555,"95":-0.32891252636909485,"96":-1.0129605531692505,"97":-0.7739469408988953,"98":0.6236568689346313,"99":0.41580480337142944,"100":-0.036798033863306046,"101":1.0303902626037598,"102":0.47096890211105347,"103":0.252781480550766,"104":0.8706732988357544,"105":1.2312992811203003,"106":-0.8987817168235779,"107":-0.2674289345741272,"108":0.5246800780296326,"109":-0.8481572866439819,"110":-0.13437898457050323,"111":2.178079843521118,"112":-0.05484696477651596,"113":-0.16266071796417236,"114":-1.106223464012146,"115":1.9360482692718506,"116":-0.0559813529253006,"117":-0.027599014341831207,"118":-0.06611952185630798,"119":-0.147817924618721,"120":-0.24210895597934723,"121":-0.4850979447364807,"122":0.6286177635192871,"123":-0.13664059340953827,"124":0.36766067147254944,"125":-0.02008361928164959,"126":-1.6273447275161743,"127":0.8095988631248474,"128":-0.47630855441093445,"129":-0.20447860658168793,"130":-1.2821848392486572,"131":1.0990355014801025,"132":0.46492713689804077,"133":0.7541220784187317,"134":0.165022611618042,"135":1.19068443775177,"136":1.0991541147232056,"137":1.3115172386169434,"138":-1.094703197479248,"139":0.5935790538787842,"140":-0.9709185361862183,"141":-0.973684549331665,"142":-0.3518526256084442,"143":0.12990474700927734,"144":-0.9544180631637573,"145":0.9005915522575378,"146":-0.37486645579338074,"147":-0.5321767926216125,"148":-0.2682899832725525,"149":-0.335374116897583,"150":0.5895938277244568,"151":-0.5781821608543396,"152":-0.6455600261688232,"153":0.6989574432373047,"154":-0.8967105746269226,"155":1.168718934059143,"156":1.3534842729568481,"157":-1.7798378467559814,"158":-0.5780954957008362,"159":0.14074578881263733,"160":0.8579890131950378,"161":0.6089127659797668,"162":-0.34993138909339905,"163":-0.7174878716468811,"164":-1.6192601919174194,"165":-1.4678006172180176,"166":-0.31398019194602966,"167":0.4970289170742035,"168":-0.035539284348487854,"169":0.3145866394042969,"170":-1.817360520362854,"171":-0.5069027543067932,"172":0.47097939252853394,"173":-0.8953166007995605,"174":1.3280006647109985,"175":-1.3127555847167969,"176":-0.02444334141910076,"177":0.7320356369018555,"178":0.8891391754150391,"179":1.051875352859497,"180":-0.05199527367949486,"181":-1.745102047920227,"182":-0.39998626708984375,"183":1.7825838327407837,"184":0.10543687641620636,"185":-0.17127101123332977,"186":-0.3422578275203705,"187":1.0659900903701782,"188":0.0504194013774395,"189":0.1350858062505722,"190":1.3308308124542236,"191":0.42448118329048157,"192":0.9498245120048523,"193":1.0398555994033813,"194":0.6745193600654602,"195":0.7111557722091675,"196":1.1820350885391235,"197":0.9025925397872925,"198":-0.7715154886245728,"199":-0.27922511100769043,"200":-1.5461344718933105,"201":-0.5875685811042786,"202":0.3967346251010895,"203":-0.7467722296714783,"204":0.005446430761367083,"205":0.8294566869735718,"206":-1.2468916177749634,"207":1.4488470554351807,"208":-0.02295287884771824,"209":0.4932364821434021,"210":1.1665745973587036,"211":0.49300411343574524,"212":-0.8157666325569153,"213":0.7756810784339905,"214":-0.4789729714393616,"215":0.6293355226516724,"216":-0.6423602104187012,"217":-0.3331144452095032,"218":1.0959877967834473,"219":-1.4718371629714966,"220":0.2911088764667511,"221":0.0978890210390091,"222":-1.2561804056167603,"223":-1.1282819509506226,"224":-1.5261030197143555,"225":0.6285790801048279,"226":-1.7107124328613281,"227":-0.6714686155319214,"228":-0.2237614095211029,"229":-0.17011064291000366,"230":0.3777953088283539,"231":-0.33621999621391296,"232":0.0027885516174137592,"233":0.6322840452194214,"234":0.6310701966285706,"235":-0.5161241292953491,"236":4.0180206298828125,"237":0.48369327187538147,"238":0.11363354325294495,"239":0.30704545974731445,"240":-0.8914539217948914,"241":-0.6424362063407898,"242":-0.39040273427963257,"243":-0.3806762993335724,"244":0.2653777003288269,"245":-0.4523965120315552,"246":0.8300836682319641,"247":-0.23218247294425964,"248":0.34162041544914246,"249":-0.4970308542251587,"250":-0.5809609293937683,"251":0.44724610447883606,"252":-0.8633621335029602,"253":0.030054517090320587,"254":-0.10931053757667542,"255":-0.022361868992447853,"256":1.3846694231033325,"257":1.6688745021820068,"258":-0.4774588644504547,"259":0.390220582485199,"260":0.07664138823747635,"261":-0.2539427876472473,"262":0.3793281316757202,"263":-0.46222177147865295,"264":-0.8354280591011047,"265":-0.9117960929870605,"266":0.6767679452896118,"267":1.2660691738128662,"268":0.11409192532300949,"269":0.8230029940605164,"270":1.6589356660842896,"271":1.0825977325439453,"272":0.5164018869400024,"273":-1.2606205940246582,"274":0.8044806122779846,"275":-0.5437644124031067,"276":-1.270183801651001,"277":-0.42181476950645447,"278":0.4365973472595215,"279":0.07429438084363937,"280":0.45437750220298767,"281":-1.1392301321029663,"282":-0.6309347152709961,"283":-0.5403015613555908,"284":0.5713926553726196,"285":2.741868734359741,"286":0.054122716188430786,"287":0.061801712960004807,"288":0.36199313402175903,"289":-1.3301700353622437,"290":0.7725630402565002,"291":1.8828603029251099,"292":-0.29586470127105713,"293":-2.0978453159332275,"294":0.3627152144908905,"295":3.133543014526367,"296":1.386896014213562,"297":1.2559903860092163,"298":-0.3112797737121582,"299":-0.2653470039367676,"300":-0.46357378363609314,"301":-0.8238332867622375,"302":-0.4822900593280792,"303":-1.5721213817596436,"304":-0.5406216382980347,"305":-0.6009829640388489,"306":-1.70257568359375,"307":-0.007583902217447758,"308":-0.3987095057964325,"309":0.1087871864438057,"310":-1.2150675058364868,"311":-0.5326908230781555,"312":0.45401278138160706,"313":0.8875410556793213,"314":-0.5604084730148315,"315":0.568436861038208,"316":-0.9331455230712891,"317":-0.6457229852676392,"318":0.7178351879119873,"319":-1.379103422164917,"320":0.44758251309394836,"321":0.9822548031806946,"322":-0.31627899408340454,"323":0.9475409984588623,"324":0.2568146288394928,"325":0.6841645836830139,"326":1.85582435131073,"327":0.7726496458053589,"328":0.7715244889259338,"329":-0.23722338676452637,"330":-0.39084240794181824,"331":-0.12619417905807495,"332":0.5624122023582458,"333":0.5813089609146118,"334":0.23298484086990356,"335":-0.5565462708473206,"336":1.2048711776733398,"337":-0.6585904955863953,"338":0.7690227031707764,"339":-1.694944143295288,"340":0.19102992117404938,"341":0.16695302724838257,"342":0.03967881575226784,"343":0.6862792372703552,"344":-0.4967900514602661,"345":-0.7695642709732056,"346":0.3907071053981781,"347":0.922061562538147,"348":0.31496647000312805,"349":0.242597296833992,"350":-1.126113772392273,"351":0.4127078354358673,"352":-0.49967455863952637,"353":-0.1645219475030899,"354":0.7486917972564697,"355":0.63603276014328,"356":-1.326780080795288,"357":0.3555389642715454,"358":0.7094058394432068,"359":1.7093613147735596,"360":0.787405252456665,"361":0.23364543914794922,"362":-0.9627536535263062,"363":0.7144208550453186,"364":0.04103225842118263,"365":-1.327943205833435,"366":-0.6552159786224365,"367":0.6206925511360168,"368":0.34562620520591736,"369":-0.14898501336574554,"370":1.9662525653839111,"371":-0.20386362075805664,"372":0.8418372869491577,"373":0.39970663189888,"374":2.1851725578308105,"375":1.6994274854660034,"376":0.5670390725135803,"377":-0.12684185802936554,"378":-0.5087165236473083,"379":-1.1717557907104492,"380":-0.559895396232605,"381":0.031128939241170883,"382":0.13411784172058105,"383":-2.1503915786743164,"384":0.10110502690076828,"385":2.294177770614624,"386":-0.39228329062461853,"387":1.4203824996948242,"388":-0.5368967056274414,"389":-0.1317109912633896,"390":1.218051791191101,"391":0.17599695920944214,"392":-1.006507396697998,"393":-0.7872308492660522,"394":-1.332776665687561,"395":0.25985267758369446,"396":-1.5944101810455322,"397":-1.256890892982483,"398":0.7258849740028381,"399":-0.11617472022771835,"400":-0.8838897943496704,"401":0.7636697292327881,"402":-0.9659205675125122,"403":0.03677976503968239,"404":-0.5816396474838257,"405":1.8532764911651611,"406":2.394373655319214,"407":0.8645807504653931,"408":-1.3369227647781372,"409":0.2623775899410248,"410":-1.063780665397644,"411":-0.8945998549461365,"412":-0.5382513999938965,"413":-0.3954865634441376,"414":0.3282572627067566,"415":-0.924107015132904,"416":-1.4784942865371704,"417":-1.8377068042755127,"418":-1.5735387802124023,"419":1.233003854751587,"420":0.7575783729553223,"421":0.21515189111232758,"422":-0.5470540523529053,"423":0.24100492894649506,"424":-1.0342113971710205,"425":2.458570957183838,"426":1.230189561843872,"427":-0.3380650579929352,"428":-0.3379673361778259,"429":-0.9307406544685364,"430":1.071004033088684,"431":0.8086671829223633,"432":-0.16945689916610718,"433":-0.3046668767929077,"434":-0.28920790553092957,"435":0.5655144453048706,"436":-0.3830038011074066,"437":-0.29312485456466675,"438":-0.9171565771102905,"439":0.22764639556407928,"440":-0.8572269678115845,"441":-1.1404781341552734,"442":0.9892257452011108,"443":-1.1308443546295166,"444":-0.04265142232179642,"445":0.17255491018295288,"446":0.3504508435726166,"447":0.9871575832366943,"448":0.3649245798587799,"449":-0.15335559844970703,"450":1.6888576745986938,"451":1.507250189781189,"452":1.6249120235443115,"453":-1.3356842994689941,"454":0.045777902007102966,"455":-0.2705661952495575,"456":-0.7842965126037598,"457":-1.4346656799316406,"458":0.8534406423568726,"459":-0.36146023869514465,"460":-0.3987314999103546,"461":-0.2484913170337677,"462":-0.5356799960136414,"463":-2.427798271179199,"464":0.6086472868919373,"465":-0.06655070185661316,"466":-0.5173101425170898,"467":-0.532991349697113,"468":0.8937705159187317,"469":-0.28473517298698425,"470":1.2198922634124756,"471":1.4375560283660889,"472":-2.058039426803589,"473":-0.022232389077544212,"474":-0.25110185146331787,"475":0.342319130897522,"476":1.3378682136535645,"477":-0.1502428501844406,"478":0.046242423355579376,"479":-1.6458040475845337,"480":-1.2838726043701172,"481":-1.753122091293335,"482":0.9529677033424377,"483":-0.37797874212265015,"484":0.6532580256462097,"485":-2.057201623916626,"486":-0.4706689417362213,"487":1.5493024587631226,"488":-1.1470789909362793,"489":1.0790607929229736,"490":-0.3773577809333801,"491":1.1330041885375977,"492":0.8689354062080383,"493":1.7776447534561157,"494":1.1328537464141846,"495":-0.29518768191337585,"496":2.9694106578826904,"497":1.258525013923645,"498":-0.7719889879226685,"499":0.33349573612213135,"500":-1.0708725452423096,"501":0.12384479492902756,"502":-0.16523787379264832,"503":-1.0531790256500244,"504":-1.2239782810211182,"505":-0.6510249972343445,"506":-1.3741660118103027,"507":-1.5311464071273804,"508":-0.5475820899009705,"509":0.2575255334377289,"510":0.8862176537513733,"511":-0.2996252775192261,"512":0.4660796523094177,"513":0.24237290024757385,"514":-0.8267792463302612,"515":1.606715440750122,"516":-0.09528251737356186,"517":-0.28948351740837097,"518":-0.619210958480835,"519":1.380927324295044,"520":0.6488812565803528,"521":0.9827427864074707,"522":0.7803868651390076,"523":-0.794987142086029,"524":-0.4424792528152466,"525":0.46725866198539734,"526":-2.224396228790283,"527":-0.5695528388023376,"528":0.4708768427371979,"529":-0.2657376527786255,"530":-1.0354118347167969,"531":0.08539623767137527,"532":0.07089688628911972,"533":-1.6662206649780273,"534":0.23016345500946045,"535":0.33641040325164795,"536":-0.7378553748130798,"537":-0.3208419680595398,"538":0.5930753946304321,"539":-0.31243616342544556,"540":0.64332515001297,"541":-1.08986234664917,"542":-0.7753514647483826,"543":0.46146997809410095,"544":1.3899967670440674,"545":-1.3362771272659302,"546":-1.1998690366744995,"547":0.4114447236061096,"548":-1.9427069425582886,"549":0.293070912361145,"550":0.36357954144477844,"551":0.12090371549129486,"552":1.1726493835449219,"553":0.5089280605316162,"554":0.8138298392295837,"555":0.5522496104240417,"556":0.5837293863296509,"557":-0.5677860975265503,"558":-0.27565428614616394,"559":-0.999638557434082,"560":-0.9452739953994751,"561":-0.5715082883834839,"562":0.7367609739303589,"563":-1.409245252609253,"564":-0.35774126648902893,"565":0.176883727312088,"566":-1.0219268798828125,"567":0.7434803247451782,"568":-1.2105228900909424,"569":0.4494665861129761,"570":0.6612311601638794,"571":1.5372689962387085,"572":-0.32562047243118286,"573":-1.0514942407608032,"574":0.16499729454517365,"575":0.760065495967865,"576":-0.9026994109153748,"577":-0.47618821263313293,"578":0.6236087083816528,"579":0.4830181896686554,"580":-1.4298409223556519,"581":1.186934471130371,"582":-1.2488453388214111,"583":-0.2527131736278534,"584":-0.08072900772094727,"585":0.9449366927146912,"586":-1.3412871360778809,"587":-0.5830592513084412,"588":1.208893895149231,"589":-0.6057349443435669,"590":-0.7515421509742737,"591":-0.5541729927062988,"592":0.5772228240966797,"593":-0.04593489319086075,"594":1.328965187072754,"595":0.6010701656341553,"596":0.869957447052002,"597":1.157715082168579,"598":1.0733380317687988,"599":1.664650321006775,"600":1.3486523628234863,"601":1.811578631401062,"602":0.6440807580947876,"603":-0.456685334444046,"604":-1.2295928001403809,"605":-1.3945668935775757,"606":-0.9273066520690918,"607":0.7689485549926758,"608":-1.0349723100662231,"609":-0.3942781984806061,"610":1.187175989151001,"611":-0.45437386631965637,"612":0.28283965587615967,"613":-0.427712082862854,"614":0.13486726582050323,"615":1.1426490545272827,"616":0.5669753551483154,"617":0.026186078786849976,"618":-0.2558264434337616,"619":-0.7656164765357971,"620":-0.16161705553531647,"621":-0.9013089537620544,"622":-1.0291401147842407,"623":0.47249969840049744,"624":-0.9696666598320007,"625":0.024064911529421806,"626":0.2993592917919159,"627":-0.19958600401878357,"628":-0.36559394001960754,"629":-0.8031550645828247,"630":0.4532070457935333,"631":0.2380409687757492,"632":-0.22336037456989288,"633":1.1500284671783447,"634":-0.12211557477712631,"635":-0.41871199011802673,"636":-0.1449202448129654,"637":0.8470327854156494,"638":-1.4069472551345825,"639":0.6880277991294861,"640":-0.05615814030170441,"641":-0.03919243812561035,"642":0.8299590349197388,"643":0.28163596987724304,"644":1.3301045894622803,"645":0.12253278493881226,"646":-0.1674080789089203,"647":-1.2007802724838257,"648":-0.6101308465003967,"649":-0.44416123628616333,"650":-0.768697202205658,"651":1.0952222347259521,"652":1.106462836265564,"653":-0.5862060189247131,"654":-1.8597537279129028,"655":0.49310538172721863,"656":-1.2118984460830688,"657":1.8652541637420654,"658":0.27582183480262756,"659":0.7216729521751404,"660":1.3760600090026855,"661":0.11125815659761429,"662":-1.10682213306427,"663":-1.904397964477539,"664":-1.1758928298950195,"665":0.35627517104148865,"666":-0.11489734798669815,"667":-0.8922264575958252,"668":0.11952023953199387,"669":-0.14465740323066711,"670":0.03984514996409416,"671":1.6593434810638428,"672":-1.1887433528900146,"673":0.614798367023468,"674":-0.5218430757522583,"675":-1.1556944847106934,"676":-1.1078226566314697,"677":0.6157405972480774,"678":0.18908359110355377,"679":-0.785577654838562,"680":1.5152208805084229,"681":0.770456850528717,"682":0.23417018353939056,"683":-0.35180991888046265,"684":0.34940266609191895,"685":0.7324501872062683,"686":1.2098358869552612,"687":0.8916816711425781,"688":0.4616151750087738,"689":-2.3141491413116455,"690":-1.985653042793274,"691":0.019367868080735207,"692":1.317824363708496,"693":0.12888836860656738,"694":2.1618502140045166,"695":-0.6008324027061462,"696":0.004878235049545765,"697":0.9316580891609192,"698":2.509012222290039,"699":-1.117835521697998,"700":-2.6104135513305664,"701":-0.5075587034225464,"702":-0.09294615685939789,"703":0.9541736841201782,"704":0.7126557230949402,"705":0.9462342858314514,"706":0.6835227012634277,"707":-0.015362538397312164,"708":2.2141265869140625,"709":0.03982492536306381,"710":0.5551214218139648,"711":2.5188331604003906,"712":-0.337472528219223,"713":0.6418895125389099,"714":-0.36781638860702515,"715":1.0240707397460938,"716":-0.1337818205356598,"717":0.12244865298271179,"718":-0.788204550743103,"719":-0.7962438464164734,"720":0.15430478751659393,"721":0.8261812329292297,"722":0.7945395112037659,"723":-0.8383649587631226,"724":-0.26265084743499756,"725":1.2221771478652954,"726":0.14246493577957153,"727":-1.210090160369873,"728":1.3291516304016113,"729":0.6706581711769104,"730":-2.629145622253418,"731":1.4136101007461548,"732":-1.1329518556594849,"733":-1.3162627220153809,"734":0.556717574596405,"735":-0.66046142578125,"736":-0.591150164604187,"737":-0.2625163793563843,"738":0.13988259434700012,"739":1.29651939868927,"740":0.6420745253562927,"741":0.25721973180770874,"742":0.41027554869651794,"743":1.9819449186325073,"744":-0.7063014507293701,"745":-0.7097731828689575,"746":0.6727787256240845,"747":-1.5973515510559082,"748":0.7834233045578003,"749":0.14573794603347778,"750":-0.2451215386390686,"751":-1.1241611242294312,"752":0.8344600200653076,"753":-0.30512118339538574,"754":1.005429744720459,"755":0.4443497061729431,"756":0.550252377986908,"757":1.46075439453125,"758":-1.1077288389205933,"759":-0.054560136049985886,"760":0.45445138216018677,"761":0.0867743268609047,"762":1.6046451330184937,"763":0.22054804861545563,"764":0.2614292502403259,"765":0.8381739258766174,"766":1.078848958015442,"767":1.7281848192214966,"768":-0.9025025367736816,"769":0.5049204230308533,"770":-0.4276809096336365,"771":-0.3786580264568329,"772":-0.5384299159049988,"773":0.7916362881660461,"774":-1.698429822921753,"775":-0.5288285613059998,"776":-1.021093487739563,"777":-0.9814706444740295,"778":-1.7175755500793457,"779":1.0591349601745605,"780":0.3523693382740021,"781":-0.5163795351982117,"782":-1.946744441986084,"783":1.0432896614074707,"784":-0.4311687648296356,"785":1.5575398206710815,"786":1.715871810913086,"787":-0.453078955411911,"788":-0.6247999668121338,"789":-1.145726203918457,"790":0.9103417992591858,"791":1.328942060470581,"792":0.9511861801147461,"793":-0.32693609595298767,"794":-0.696464478969574,"795":0.05234107747673988,"796":-1.6058036088943481,"797":-0.36426112055778503,"798":-1.0003637075424194,"799":0.9026411771774292,"800":-0.996062159538269,"801":-0.9379259347915649,"802":1.533251166343689,"803":-0.17509670555591583,"804":0.7353200316429138,"805":-0.5033555626869202,"806":1.1947431564331055,"807":1.6283156871795654,"808":0.7785552740097046,"809":-0.1830979883670807,"810":0.3523203730583191,"811":0.19630219042301178,"812":0.1089242473244667,"813":1.0753942728042603,"814":2.5289533138275146,"815":-2.1115798950195312,"816":-1.03800368309021,"817":0.5497177839279175,"818":-0.5422394871711731,"819":0.2547870874404907,"820":0.1351558119058609,"821":-0.7112492918968201,"822":-0.17557688057422638,"823":0.4157245457172394,"824":-0.6349044442176819,"825":1.7485146522521973,"826":-1.0896145105361938,"827":1.280393362045288,"828":-0.3128420114517212,"829":-0.7697293162345886,"830":-0.6993476152420044,"831":0.06075398996472359,"832":0.2566305696964264,"833":-2.1228246688842773,"834":1.3512502908706665,"835":0.4911941587924957,"836":-0.8362711668014526,"837":0.31143537163734436,"838":-2.0677266120910645,"839":-0.005862068384885788,"840":0.15676258504390717,"841":-0.1637943983078003,"842":-0.5752953886985779,"843":-0.9722409844398499,"844":-0.7513812184333801,"845":0.4381501376628876,"846":-1.01982843875885,"847":-0.33574220538139343,"848":0.09134189039468765,"849":-0.26259589195251465,"850":-2.0412685871124268,"851":0.41879695653915405,"852":-1.1639676094055176,"853":-0.2015005201101303,"854":-0.22510497272014618,"855":1.1524661779403687,"856":-1.6556648015975952,"857":1.0178978443145752,"858":0.9503287672996521,"859":-0.15567027032375336,"860":-0.3453318178653717,"861":-0.020640652626752853,"862":-0.1955392062664032,"863":-2.165503740310669,"864":-0.6710430979728699,"865":-0.20806875824928284,"866":-0.45208239555358887,"867":2.2583250999450684,"868":0.7406598329544067,"869":-1.2029235363006592,"870":-0.13141034543514252,"871":0.34440338611602783,"872":-0.38015806674957275,"873":0.5413363575935364,"874":-0.3765479326248169,"875":-2.7280774116516113,"876":0.632978618144989,"877":0.04316128417849541,"878":0.8033317923545837,"879":-0.5829498171806335,"880":-0.05028616636991501,"881":-1.7530975341796875,"882":-0.0005488251335918903,"883":-0.2993190288543701,"884":0.28418269753456116,"885":1.3124967813491821,"886":1.3207924365997314,"887":-0.12450376152992249,"888":0.29346367716789246,"889":0.2802525758743286,"890":0.11877582967281342,"891":-0.21027371287345886,"892":0.35894763469696045,"893":-0.21313709020614624,"894":0.6202999353408813,"895":0.20544219017028809,"896":0.5890506505966187,"897":-0.8660668134689331,"898":-0.224486842751503,"899":-1.3903698921203613}},"inputHidden":{"rows":20,"columns":20,"weights":{"0":-1.1343700885772705,"1":-0.40593796968460083,"2":-0.6186174750328064,"3":-1.858333945274353,"4":-1.781456708908081,"5":-0.8747128844261169,"6":-0.4426249861717224,"7":-1.1919620037078857,"8":-0.2875771224498749,"9":1.085384488105774,"10":0.4609140157699585,"11":0.9162391424179077,"12":0.8135961890220642,"13":0.44784778356552124,"14":0.3799808919429779,"15":1.4269773960113525,"16":-1.210411787033081,"17":0.32286497950553894,"18":-1.1534667015075684,"19":-0.37189382314682007,"20":1.6108169555664062,"21":-0.054004814475774765,"22":-0.10859240591526031,"23":0.1745254099369049,"24":1.0152113437652588,"25":2.190741539001465,"26":-0.06372368335723877,"27":1.2061723470687866,"28":-0.14354906976222992,"29":0.5264837741851807,"30":0.7434622049331665,"31":-1.7175670862197876,"32":-1.1659128665924072,"33":-0.3550524413585663,"34":-1.9979236125946045,"35":-0.1350913792848587,"36":0.18700158596038818,"37":1.7898945808410645,"38":-0.23971058428287506,"39":0.5491225719451904,"40":-0.16976967453956604,"41":1.0506103038787842,"42":1.3907349109649658,"43":0.9065026044845581,"44":1.1997321844100952,"45":-0.26985666155815125,"46":-0.6273508071899414,"47":-1.9595744609832764,"48":1.2771310806274414,"49":-1.9399808645248413,"50":-1.789894461631775,"51":0.8831451535224915,"52":-1.642081618309021,"53":1.783610463142395,"54":1.3462035655975342,"55":0.34850847721099854,"56":0.11004941165447235,"57":0.479596346616745,"58":2.316810369491577,"59":1.9249330759048462,"60":0.7214781641960144,"61":-1.7762367725372314,"62":0.6680577397346497,"63":1.3710813522338867,"64":1.1344548463821411,"65":-0.4581291377544403,"66":2.0893847942352295,"67":0.9120634198188782,"68":-0.9846181273460388,"69":0.2830442488193512,"70":-0.8925806879997253,"71":-0.29544973373413086,"72":-0.6647481918334961,"73":-0.8053113222122192,"74":-1.650838851928711,"75":-1.2323249578475952,"76":0.306103378534317,"77":0.13447526097297668,"78":-0.40943554043769836,"79":-1.1541072130203247,"80":0.10990093648433685,"81":-0.6663000583648682,"82":-0.6812210083007812,"83":-0.683363139629364,"84":0.19043956696987152,"85":-0.9770779013633728,"86":-0.2543642520904541,"87":-0.08582494407892227,"88":-1.3978559970855713,"89":0.06569406390190125,"90":-0.5293988585472107,"91":0.629531741142273,"92":1.6586493253707886,"93":-1.1695194244384766,"94":-0.9158897399902344,"95":-1.9374496936798096,"96":2.5614287853240967,"97":1.4139174222946167,"98":-0.7484195828437805,"99":1.4064054489135742,"100":-0.6779065132141113,"101":0.1016031801700592,"102":1.187530517578125,"103":-0.8162957429885864,"104":2.8083698749542236,"105":-0.8721293210983276,"106":-1.2798776626586914,"107":-0.5984476208686829,"108":1.8980085849761963,"109":-4.400424957275391,"110":-0.9606930017471313,"111":1.0980490446090698,"112":-0.5819842219352722,"113":0.15975701808929443,"114":-0.04714079946279526,"115":1.1296162605285645,"116":-2.0943939685821533,"117":-2.5804548263549805,"118":2.5397701263427734,"119":-1.3256914615631104,"120":1.1310131549835205,"121":0.20970043540000916,"122":-0.0279777143150568,"123":-0.5996894836425781,"124":-1.0674046277999878,"125":0.5708051919937134,"126":1.9125304222106934,"127":-0.39371490478515625,"128":-0.6955535411834717,"129":1.6363731622695923,"130":1.7608118057250977,"131":-0.316895991563797,"132":0.007739330641925335,"133":-0.7061075568199158,"134":-1.1408790349960327,"135":0.1749919205904007,"136":0.15512911975383759,"137":2.140408992767334,"138":-0.919370710849762,"139":0.44395095109939575,"140":1.5013635158538818,"141":0.5944969654083252,"142":1.309029221534729,"143":-0.5159130096435547,"144":0.08212229609489441,"145":0.6588214039802551,"146":1.3128403425216675,"147":-1.200352430343628,"148":0.8357784748077393,"149":-1.2577838897705078,"150":-1.3529711961746216,"151":-2.1623830795288086,"152":0.4240647852420807,"153":0.6427730917930603,"154":1.5291955471038818,"155":-2.3890457153320312,"156":1.6301451921463013,"157":-1.5303555727005005,"158":0.1754506379365921,"159":-2.5485193729400635,"160":-1.0235861539840698,"161":0.9574339389801025,"162":1.2352306842803955,"163":0.12258255481719971,"164":-2.045820951461792,"165":-0.08171390742063522,"166":2.627467393875122,"167":0.48690733313560486,"168":0.34378114342689514,"169":1.041750192642212,"170":-0.4208121597766876,"171":-0.8292803764343262,"172":0.4330247938632965,"173":0.01606595888733864,"174":-0.11661277711391449,"175":-0.1335158497095108,"176":1.6802743673324585,"177":-0.24779802560806274,"178":1.2303489446640015,"179":-0.511321485042572,"180":0.17710652947425842,"181":-0.3732817769050598,"182":-2.0707385540008545,"183":-0.5511268973350525,"184":0.9066463708877563,"185":1.070302128791809,"186":-0.40046393871307373,"187":-0.5168878436088562,"188":-0.8606475591659546,"189":1.2481603622436523,"190":0.21046823263168335,"191":-0.5694606900215149,"192":-0.5706408619880676,"193":-0.012732444331049919,"194":-0.894324779510498,"195":-1.4131455421447754,"196":2.2657909393310547,"197":1.330290675163269,"198":-1.4585708379745483,"199":1.4671130180358887,"200":-0.6512237787246704,"201":-1.3042629957199097,"202":0.07487889379262924,"203":0.9157462120056152,"204":0.030633801594376564,"205":0.39795368909835815,"206":1.129086971282959,"207":0.15672926604747772,"208":0.7011848092079163,"209":-1.0470014810562134,"210":0.24191206693649292,"211":-0.875434160232544,"212":-0.28767335414886475,"213":0.9109465479850769,"214":-0.11344629526138306,"215":0.2304355353116989,"216":-0.3320678770542145,"217":-0.13567735254764557,"218":0.4308854639530182,"219":1.3083547353744507,"220":-1.0315206050872803,"221":2.078256607055664,"222":-0.051933374255895615,"223":2.2464511394500732,"224":2.5142955780029297,"225":2.4769742488861084,"226":-2.4586308002471924,"227":0.18450866639614105,"228":2.054112672805786,"229":-2.513528347015381,"230":1.310318946838379,"231":0.5986923575401306,"232":-3.967780113220215,"233":2.5088798999786377,"234":0.07189387828111649,"235":0.67457115650177,"236":-0.9884265065193176,"237":2.1873786449432373,"238":0.1811143457889557,"239":0.4943220913410187,"240":0.42078253626823425,"241":-0.03084518201649189,"242":1.5410196781158447,"243":0.6797003746032715,"244":-0.24370062351226807,"245":0.1683720350265503,"246":-0.14481402933597565,"247":1.0061475038528442,"248":0.9562756419181824,"249":0.06628046184778214,"250":-0.5907758474349976,"251":0.3959912061691284,"252":-0.8371834754943848,"253":0.8073680400848389,"254":1.0898865461349487,"255":-0.8821855783462524,"256":1.3920978307724,"257":1.4715484380722046,"258":0.4697718918323517,"259":-0.576047420501709,"260":-1.9774329662322998,"261":0.14421409368515015,"262":1.2882837057113647,"263":-1.3730731010437012,"264":-1.0846480131149292,"265":0.6212508082389832,"266":1.7116644382476807,"267":1.9073731899261475,"268":-0.04978909343481064,"269":1.0552865266799927,"270":1.8445522785186768,"271":-0.785219132900238,"272":-0.7348096370697021,"273":0.41159787774086,"274":-0.5337730050086975,"275":-0.0630599707365036,"276":-0.8029890656471252,"277":-1.7934455871582031,"278":-0.10501813143491745,"279":-0.27327781915664673,"280":-1.433342695236206,"281":0.4742805063724518,"282":-0.5828845500946045,"283":1.3556948900222778,"284":-0.3943723142147064,"285":0.7558366656303406,"286":-0.47574982047080994,"287":-0.02444496378302574,"288":1.360658884048462,"289":-0.21176749467849731,"290":-0.5449575781822205,"291":-0.18195998668670654,"292":-1.444629192352295,"293":0.5152450203895569,"294":-0.17126570641994476,"295":-1.3021968603134155,"296":1.5619946718215942,"297":0.5527380704879761,"298":0.06041249632835388,"299":1.0336129665374756,"300":-0.37449443340301514,"301":-0.16131272912025452,"302":0.4709661602973938,"303":-0.19982397556304932,"304":-0.6471880674362183,"305":-0.1963682621717453,"306":0.25087490677833557,"307":-0.031040171161293983,"308":0.10512588173151016,"309":-0.41534295678138733,"310":-0.06128872185945511,"311":0.3098096549510956,"312":-0.5503450632095337,"313":-0.14259058237075806,"314":-0.17698602378368378,"315":0.6528956294059753,"316":0.8988572955131531,"317":0.14380775392055511,"318":-0.09842100739479065,"319":-0.3260018527507782,"320":0.285032719373703,"321":-1.0367614030838013,"322":-0.08799181878566742,"323":0.12616528570652008,"324":1.4666935205459595,"325":-0.055403921753168106,"326":-1.3107995986938477,"327":0.12898506224155426,"328":0.15904349088668823,"329":-1.7231515645980835,"330":-0.6724032759666443,"331":0.43644362688064575,"332":-1.530484914779663,"333":-0.3738754689693451,"334":0.7032029032707214,"335":-0.3672160506248474,"336":0.8095085024833679,"337":-0.6461582183837891,"338":0.22657494246959686,"339":1.437644362449646,"340":-0.4911603331565857,"341":-0.24559153616428375,"342":-1.3025566339492798,"343":0.4916859269142151,"344":1.42385995388031,"345":0.7894943356513977,"346":-0.18199817836284637,"347":0.218167245388031,"348":0.014195836149156094,"349":-0.5526484251022339,"350":0.7418444752693176,"351":-0.9178292751312256,"352":-0.1913442760705948,"353":0.18155692517757416,"354":-0.2225947380065918,"355":-1.067824125289917,"356":-0.2925316095352173,"357":1.288757562637329,"358":-0.39966580271720886,"359":1.2223920822143555,"360":0.4263015687465668,"361":-1.7625041007995605,"362":0.5956357717514038,"363":1.01417875289917,"364":-0.29822030663490295,"365":-0.5371330380439758,"366":-0.06859063357114792,"367":-0.12930482625961304,"368":-0.6853063106536865,"369":1.8565682172775269,"370":-0.8683822751045227,"371":-2.3899571895599365,"372":-0.008710034191608429,"373":-0.3131171762943268,"374":-1.2711637020111084,"375":-0.7180107235908508,"376":0.7213424444198608,"377":-0.011998224072158337,"378":-0.056986819952726364,"379":-0.7330087423324585,"380":-1.3670564889907837,"381":0.29808396100997925,"382":2.27026629447937,"383":1.1039963960647583,"384":1.8091157674789429,"385":0.6561341881752014,"386":-1.580258846282959,"387":-2.2635796070098877,"388":1.9418946504592896,"389":-2.7442119121551514,"390":-2.300201177597046,"391":-1.4655120372772217,"392":-0.4429108798503876,"393":2.2245657444000244,"394":-0.40735307335853577,"395":-1.636080265045166,"396":-0.5420704483985901,"397":0.17458422482013702,"398":2.426060199737549,"399":0.0998784750699997}},"inputBias":{"rows":20,"columns":1,"weights":{"0":1.1681276559829712,"1":-1.1054751873016357,"2":0.2156771719455719,"3":-0.2366626113653183,"4":-1.1479535102844238,"5":-0.08868537098169327,"6":0.25311556458473206,"7":-0.5224639177322388,"8":0.40059834718704224,"9":0.26164594292640686,"10":-0.6198813319206238,"11":-0.4186989963054657,"12":0.5528870820999146,"13":0.14933955669403076,"14":0.3577007055282593,"15":0.27446261048316956,"16":-0.15504471957683563,"17":0.5559254288673401,"18":0.37232404947280884,"19":0.12792304158210754}},"forgetMatrix":{"rows":20,"columns":45,"weights":{"0":-0.8205278515815735,"1":0.49625205993652344,"2":-0.4106307029724121,"3":-1.0696146488189697,"4":1.2970507144927979,"5":-1.289309024810791,"6":-0.35816457867622375,"7":-0.19235599040985107,"8":0.06571884453296661,"9":0.16641077399253845,"10":0.03642343357205391,"11":0.026752416044473648,"12":0.801241397857666,"13":0.5691169500350952,"14":0.293303519487381,"15":0.7926865816116333,"16":-2.32126784324646,"17":-1.1500396728515625,"18":-0.3087281584739685,"19":-0.35294678807258606,"20":1.8116137981414795,"21":-1.8708126544952393,"22":0.5982385277748108,"23":-1.4367036819458008,"24":-0.43830743432044983,"25":0.3900175392627716,"26":0.05791700258851051,"27":0.8031367063522339,"28":-0.9247591495513916,"29":-0.31490233540534973,"30":-0.9784438014030457,"31":-0.5867940783500671,"32":-0.9224352240562439,"33":-1.1660737991333008,"34":-1.3503820896148682,"35":0.5262789130210876,"36":-0.46724066138267517,"37":-0.7470265030860901,"38":-0.2401755005121231,"39":-0.7573351860046387,"40":-1.1561425924301147,"41":0.13815882802009583,"42":0.8321182131767273,"43":0.2550242841243744,"44":0.3514209985733032,"45":-0.6498973369598389,"46":-0.32981929183006287,"47":-1.5706380605697632,"48":1.8812849521636963,"49":-1.5256980657577515,"50":0.7564993500709534,"51":-0.08442775905132294,"52":0.31371626257896423,"53":1.0070422887802124,"54":-0.9430184960365295,"55":0.38532769680023193,"56":-0.38640880584716797,"57":-1.092383861541748,"58":0.2524191439151764,"59":0.30759772658348083,"60":-0.7713803052902222,"61":1.2659835815429688,"62":0.2080463469028473,"63":-0.18659883737564087,"64":0.5218622088432312,"65":-2.111570358276367,"66":-0.4049200415611267,"67":0.34437403082847595,"68":0.20544852316379547,"69":0.743230402469635,"70":-0.46886879205703735,"71":-1.134150743484497,"72":0.6088007688522339,"73":0.9112316370010376,"74":0.9449387788772583,"75":0.840164065361023,"76":0.49295172095298767,"77":-1.3291270732879639,"78":0.6489239931106567,"79":0.17349976301193237,"80":0.6699987053871155,"81":0.6396393775939941,"82":-0.20334716141223907,"83":1.1504861116409302,"84":0.6482821702957153,"85":0.7723885178565979,"86":1.0997029542922974,"87":-0.528380811214447,"88":-0.5386576056480408,"89":-1.3097041845321655,"90":-0.4791167378425598,"91":-0.10510274767875671,"92":0.1588291972875595,"93":0.7447543144226074,"94":1.667580485343933,"95":-0.7126474380493164,"96":-0.13721340894699097,"97":0.06571238487958908,"98":-0.5335754156112671,"99":-0.32652580738067627,"100":0.9357649087905884,"101":0.284300297498703,"102":1.4534066915512085,"103":0.5720230340957642,"104":0.4753671884536743,"105":0.33640700578689575,"106":-0.35084542632102966,"107":-0.1393720656633377,"108":-0.044584278017282486,"109":-0.7809814214706421,"110":-0.5057814121246338,"111":0.8039790987968445,"112":0.38189372420310974,"113":-0.32845360040664673,"114":0.14608339965343475,"115":0.6818195581436157,"116":-0.6605053544044495,"117":0.8805325627326965,"118":-0.7494053840637207,"119":0.07287638634443283,"120":1.1739275455474854,"121":0.37114161252975464,"122":-1.010944128036499,"123":-0.7417147159576416,"124":0.16317987442016602,"125":-0.3816043436527252,"126":0.0722876638174057,"127":-0.5027877688407898,"128":0.04422782361507416,"129":0.4324764013290405,"130":-0.4777507781982422,"131":0.7796029448509216,"132":-0.147628054022789,"133":0.36792147159576416,"134":-0.18877585232257843,"135":-0.11996892094612122,"136":0.6251422166824341,"137":1.7797977924346924,"138":-0.5036758780479431,"139":-0.5360891222953796,"140":1.1343008279800415,"141":0.4294206202030182,"142":-1.151995301246643,"143":0.9518383145332336,"144":-0.7146965265274048,"145":-2.1020565032958984,"146":-0.5077881217002869,"147":-0.7332285642623901,"148":-0.9403864145278931,"149":-0.9716618657112122,"150":-1.5766139030456543,"151":-0.9052770733833313,"152":-0.9293645024299622,"153":0.20506303012371063,"154":1.2752330303192139,"155":0.785673201084137,"156":-0.44544297456741333,"157":-0.044276461005210876,"158":1.3299437761306763,"159":1.197913646697998,"160":-1.1243335008621216,"161":-0.5816235542297363,"162":-0.6194124221801758,"163":1.4517229795455933,"164":0.21535246074199677,"165":0.059951115399599075,"166":-1.5348976850509644,"167":1.1554529666900635,"168":0.5277493596076965,"169":0.6799256205558777,"170":0.03012392483651638,"171":1.1718693971633911,"172":1.031007170677185,"173":-1.5769622325897217,"174":1.1365866661071777,"175":0.5810660123825073,"176":-0.17901760339736938,"177":0.37197938561439514,"178":0.561582624912262,"179":0.05732268840074539,"180":0.08973657339811325,"181":0.6488029360771179,"182":-0.16694308817386627,"183":-1.1125279664993286,"184":1.1423290967941284,"185":-1.7268537282943726,"186":-1.8332345485687256,"187":0.3694183826446533,"188":-0.37896791100502014,"189":1.3320732116699219,"190":0.7317860126495361,"191":1.4248923063278198,"192":-0.484447717666626,"193":-0.45064985752105713,"194":0.6867389678955078,"195":1.2434890270233154,"196":-0.05725793540477753,"197":1.0338302850723267,"198":-0.6180247664451599,"199":-2.014647960662842,"200":1.4932260513305664,"201":0.13707125186920166,"202":0.5382133722305298,"203":-1.1311343908309937,"204":-1.2285735607147217,"205":0.9799215197563171,"206":1.6298435926437378,"207":0.5074560642242432,"208":-1.8676546812057495,"209":0.14402592182159424,"210":-0.1066068708896637,"211":-0.5678090453147888,"212":-0.6555837392807007,"213":-1.0021326541900635,"214":-1.2346805334091187,"215":0.5598922371864319,"216":-0.7017764449119568,"217":0.14416280388832092,"218":-0.12283932417631149,"219":-0.3025694489479065,"220":-1.7915890216827393,"221":0.3694758117198944,"222":0.53909832239151,"223":-0.346282422542572,"224":1.1799609661102295,"225":-1.2940006256103516,"226":-2.02712345123291,"227":-0.9337697625160217,"228":0.11545637995004654,"229":-0.8742817640304565,"230":1.614603042602539,"231":0.2954334616661072,"232":0.8633233904838562,"233":-0.8723936676979065,"234":0.4339704215526581,"235":-0.44720789790153503,"236":1.1182795763015747,"237":1.2083202600479126,"238":0.8540239334106445,"239":0.16441473364830017,"240":-0.8223975300788879,"241":1.1955565214157104,"242":-2.1008894443511963,"243":-1.0149612426757812,"244":0.6532095670700073,"245":-1.4039205312728882,"246":0.03685338422656059,"247":0.546165943145752,"248":0.5203769207000732,"249":0.30209028720855713,"250":-0.8136699795722961,"251":-0.6587209105491638,"252":-0.25468701124191284,"253":1.215033769607544,"254":0.8281068801879883,"255":0.5344699025154114,"256":3.6354124546051025,"257":0.25854364037513733,"258":1.1586278676986694,"259":0.3282373547554016,"260":1.0493675470352173,"261":-0.035073164850473404,"262":0.4449479579925537,"263":1.9812408685684204,"264":-1.431139588356018,"265":-0.08787072449922562,"266":0.6278735995292664,"267":0.39080482721328735,"268":-1.5329772233963013,"269":-0.19588105380535126,"270":0.49762585759162903,"271":1.3354305028915405,"272":1.4123384952545166,"273":-0.8947811722755432,"274":0.26233020424842834,"275":-0.3835160732269287,"276":0.6385661363601685,"277":-0.9059162139892578,"278":-0.4382695257663727,"279":-0.513369083404541,"280":0.7168794274330139,"281":-0.770186722278595,"282":0.23176629841327667,"283":-0.7939413189888,"284":-0.24928106367588043,"285":0.9950286746025085,"286":-0.07189366966485977,"287":0.49604731798171997,"288":0.839441180229187,"289":-0.6350719928741455,"290":1.4610114097595215,"291":0.9521109461784363,"292":-1.171481728553772,"293":-0.910972535610199,"294":0.39895570278167725,"295":0.8086705207824707,"296":1.328700304031372,"297":0.15623828768730164,"298":-0.5003261566162109,"299":-0.4532477855682373,"300":-1.574777603149414,"301":0.29453638195991516,"302":0.7247164249420166,"303":1.2511885166168213,"304":0.10390159487724304,"305":-0.8638688325881958,"306":0.12464147806167603,"307":0.5052034854888916,"308":-0.39694109559059143,"309":0.782983124256134,"310":0.3713459372520447,"311":-1.1955169439315796,"312":-0.09913332015275955,"313":1.4458303451538086,"314":0.11471011489629745,"315":0.15242840349674225,"316":1.482897162437439,"317":1.595362663269043,"318":-0.11913654208183289,"319":0.46234411001205444,"320":0.3626965582370758,"321":0.05036492273211479,"322":-0.8654822111129761,"323":0.21251322329044342,"324":-1.586682915687561,"325":0.4471243619918823,"326":-0.9836940765380859,"327":0.2695804238319397,"328":-0.119326151907444,"329":-0.2595510482788086,"330":-0.5354898571968079,"331":-2.540099859237671,"332":-1.2241971492767334,"333":1.0204983949661255,"334":0.6178949475288391,"335":1.2375644445419312,"336":1.5286738872528076,"337":-0.9298551082611084,"338":-0.009456598199903965,"339":0.8407918810844421,"340":-0.18842869997024536,"341":0.181863471865654,"342":-0.0016525295795872808,"343":0.40399467945098877,"344":-1.257473349571228,"345":-1.579499363899231,"346":-1.3278974294662476,"347":-0.1651216745376587,"348":-0.33341148495674133,"349":0.06910057365894318,"350":-1.146628737449646,"351":0.3652544915676117,"352":0.5355338454246521,"353":-0.10635644197463989,"354":1.8508423566818237,"355":-0.1524703949689865,"356":0.21632246673107147,"357":0.5584911704063416,"358":1.537312626838684,"359":1.8356879949569702,"360":-0.024466868489980698,"361":0.13496753573417664,"362":0.17309078574180603,"363":-1.5594385862350464,"364":-0.6005109548568726,"365":0.30115610361099243,"366":-1.3240002393722534,